tree
version=v4
num_class=1
num_tree_per_iteration=1
label_index=0
max_feature_idx=116
objective=binary sigmoid:1
feature_names=asset_id has_rti has_tick has_book_quote has_valid_tte has_valid_prices has_valid_spread rti_join_lag_ms tick_join_lag_ms hour_utc day_of_week_utc side_id level tte_s tte_bucket yes_bid yes_ask no_bid no_ask entry_cost market_implied_yes_ask kalshi_spread tick_spread microprice_x1000 imbalance_x10000 yes_bid_qty no_bid_qty book_seq cb_mid_cents signal_rvol_1m_microbps signal_rvol_5m_microbps signal_strike_dist_bps volume rti_cents rti_vs_strike_bps rti_abs_vs_strike_bps rti_change_5s rti_change_15s rti_change_30s rti_change_60s consolidated_bid_cents consolidated_ask_cents median_mid_cents floor_strike_cents eligible_venues published utilized_depth_lots dynamic_cap_lots trade_last_age_s trade_last_yes_price trade_last_no_price trade_30s_count trade_30s_volume trade_30s_vwap_yes trade_30s_vwap_no trade_30s_yes_taker_vol trade_30s_no_taker_vol trade_30s_net_yes_pressure trade_30s_yes_taker_share trade_30s_avg_size trade_30s_signal_side_pressure trade_30s_entry_vs_vwap trade_30s_signal_side_vwap_edge trade_60s_count trade_60s_volume trade_60s_vwap_yes trade_60s_vwap_no trade_60s_yes_taker_vol trade_60s_no_taker_vol trade_60s_net_yes_pressure trade_60s_yes_taker_share trade_60s_avg_size trade_60s_signal_side_pressure trade_60s_entry_vs_vwap trade_60s_signal_side_vwap_edge trade_300s_count trade_300s_volume trade_300s_vwap_yes trade_300s_vwap_no trade_300s_yes_taker_vol trade_300s_no_taker_vol trade_300s_net_yes_pressure trade_300s_yes_taker_share trade_300s_avg_size trade_300s_signal_side_pressure trade_300s_entry_vs_vwap trade_300s_signal_side_vwap_edge trade_900s_count trade_900s_volume trade_900s_vwap_yes trade_900s_vwap_no trade_900s_yes_taker_vol trade_900s_no_taker_vol trade_900s_net_yes_pressure trade_900s_yes_taker_share trade_900s_avg_size trade_900s_signal_side_pressure trade_900s_entry_vs_vwap trade_900s_signal_side_vwap_edge trade_has_prior trade_30s_price_momentum trade_60s_price_momentum trade_300s_price_momentum trade_900s_price_momentum trade_volume_burst_30s_vs_5m trade_count_burst_30s_vs_5m trade_pressure_accel_30s_vs_5m trade_staleness_penalty asset_XRP asset_nan source_signals source_nan quality_tier_B quality_tier_nan side_NO side_YES side_nan
feature_infos=none none none none none none none none [985.00326399999994:2999.9843839999999] [0:23] [0:6] [0:1] [85:99] [0:866] [0:7] [1:99] [2:99] [1:98] [1:99] [85:99] [0.02:0.98999999999999999] [0:79] none none none none none [0:1027] [138:145] [0:2606] [0:1985] [-142:71] [132:14890] none none none none none none none none none none [138:144] none none none none [0.00029406400000000002:67.314515400000005] [0.89999999999999991:99.900000000000006] [0.10000000000000001:99.099999999999994] [0:111] [0:3902.0500000000002] [1.0142857142858528:98.929323308270725] [1.0706766917293342:98.985714285714835] [0:1605.05] [0:3645.0500000000002] [-3638.0500000000002:1605.0500000000002] [0:1.0000000000000051] [0.20000000000004539:151] [-1186.98:3638.0500000000002] [-0.123060988726408:97.985714285714167] [-65.978894062863787:1.7996754626589251] [0:172] [0:4114.5399999999991] [1.1053030303030276:98.881376162892877] [1.1186238371072512:98.894696969696994] [0:2821.1999999999998] [0:3707.3000000000002] [-3550.0600000000004:2597.3200000000002] [0:1.000000000000004] [0.88125000000000853:170.85666666666668] [-2422.6500000000001:3550.0600000000004] [0.11041176470590131:97.894696969696966] [-68.203542111286367:0.48579066658913911] [13:326] [37.539999999999971:6059.6299999999992] [2.210268688480975:98.204783470138722] [1.7952165298612923:97.789731311519034] [2:3335.2399999999998] [0:5242.0999999999995] [-4674.5700000000006:2436.48] [0.0103687218653583:1] [1.9626923076923075:62.547333333333341] [-2237.04:4674.5700000000006] [0.79521652986129254:96.78973131151902] [-69.47155672044002:-0.79521652986129254] [15:428] [66.280000000000001:7445.2699999999986] [6.3353916830390222:92.345828046895036] [7.6541719531049628:93.664608316961022] [2:4131.8899999999994] [0:6417.5200000000004] [-5639.7700000000004:2474.5599999999999] [0.026188293832656799:1] [1.9626923076923075:30.364000000000004] [-1826.28:5639.7700000000004] [1.8957557706627028:92.66460831696098] [-70.095652114173916:-1.8957557706627028] none [-79:89] [-88:91.900000000000006] [-92.700000000000003:87] [-84.700000000000003:72] [0:1] [0:1] [-1075.7719999999999:3170.5930000000003] [0.014638177467039401:0.99970602244821483] none none none none none none [0:1] [0:1] none
tree_sizes=769 789 788 788 893 782 995 885 980 788 884 1092 986 1094 884 1101 998 1104 1101 997 988 1209 993 1086 1204 1099 1102 1205 1203 1208 1182 1292 1202 1093 1199 1313 1205 1319 1203 1207 1212 1288 1312 1308 1209 1320 1308 1212 1419 1307 1320 1314 1295 1297 1300 1290 1313 1523 1316 1421 1415 1516 1314 1414 1530 1312 1524 1310 1309 1418 1521 1410 1314 1627 1518 1603 1412 1529 1413 1409 1632 1523 1628 1391 1415 1630 1633 1522 1629 1624 1411 1418 1522 1515 1625 1527 1632 1634 1737 1630 1633 1637 1636 1636 1619 1621 1738 1603 1743 1742 1742 1746 1747 1746 1848 1748 1535 1726 1738 1422 1746 1633 1855 1536 1426 1843 1426 1534 1519 1729 1746 1855 1527 1648 1629 1741 1418 1739 1633 1741 1640 1957 1635 1536 1844 1752 1835 1838 1743 2054 1729 2057 1641 1839 1755 1856 1750 1856 1754 1849 2067 1963 2073 1950 1532 1833 1857 1637 2065 1824 1848 2049 1526 1643 1854 2065 1967 1541 1539 1744 1217 1845 1651 1742 1854 1215 1811 1639 1962 1856 1973 1751 2071 1949 1743 1850 1844 1963 1869 2071 1737 1429 1755 1947 1621 1864 1969 2037 1844 2154 2056 1751 1848 1865 1742 2169 1740 1841 1948 1970 1959 1946 2076 2059 1830 1523 1747 1936 1973 1969 1944 1635 1707 1966 1863 1754 1715 1971 2077

Tree=0
num_leaves=6
num_cat=0
split_feature=103 9 9 9 19
split_gain=2666.92 65.5055 15.4572 6.25308 4.50826
threshold=-14.499999999999998 20.500000000000004 15.500000000000002 18.500000000000004 90.500000000000014
decision_type=2 2 2 2 2
left_child=1 2 -1 -4 -2
right_child=4 -3 3 -5 -6
leaf_value=-0.15217273417394256 -0.070225327469232074 -0.10958664700028437 -0.12755473804122938 -0.14724232459047554 -0.0575316030611615
leaf_weight=373.16603408753872 118.406056240201 27.669625774025917 54.342147916555405 25.176866695284843 285.91946633160114
leaf_count=1497 475 111 218 101 1147
internal_value=-0.10774 -0.147378 -0.149637 -0.135786 -0.0607392
internal_weight=884.68 480.355 452.685 79.519 404.326
internal_count=3549 1927 1816 319 1622
is_linear=0
shrinkage=1


Tree=1
num_leaves=6
num_cat=0
split_feature=103 87 49 73 73
split_gain=2538.74 50.5958 4.28474 3.48284 2.09186
threshold=-14.499999999999998 280.00000000000006 88.500000000000014 76.690677666707884 73.403121277102699
decision_type=2 2 2 8 10
left_child=1 3 -2 4 -1
right_child=2 -3 -4 -5 -6
leaf_value=-0.036265865838696502 0.035656733381883764 -0.0040134409862562946 0.048548254712589473 -0.04351669918036484 -0.0212684511644852
leaf_weight=104.93203002214432 102.62686297297478 26.136897832155228 302.48970146477222 311.27601107954979 36.806215643882751
leaf_count=422 411 105 1211 1252 148
internal_value=-1.09881e-06 -0.0387724 0.0457631 -0.0407066 -0.0332458
internal_weight=884.268 479.151 405.117 453.014 141.738
internal_count=3549 1927 1622 1822 570
is_linear=0
shrinkage=0.025


Tree=2
num_leaves=6
num_cat=0
split_feature=103 9 9 9 49
split_gain=2418.98 61.5627 15.1224 6.53152 4.01269
threshold=-14.499999999999998 20.500000000000004 15.500000000000002 18.500000000000004 89.500000000000014
decision_type=2 2 2 2 2
left_child=1 2 -1 -4 -2
right_child=4 -3 3 -5 -6
leaf_value=-0.042639730005290956 0.035498384772565388 -0.0013712196711075358 -0.018548101300459842 -0.038025279229134984 0.047592529515390641
leaf_weight=370.84026707708836 116.21934403479099 27.630511209368706 54.124825537204742 25.028514370322227 289.24300464987755
leaf_count=1497 465 111 218 101 1157
internal_value=-5.18779e-06 -0.0379518 -0.0401527 -0.0266299 0.0446067
internal_weight=883.086 477.624 449.994 79.1533 405.462
internal_count=3549 1927 1816 319 1622
is_linear=0
shrinkage=0.025


Tree=3
num_leaves=6
num_cat=0
split_feature=50 87 50 48 87
split_gain=2307.06 48.8295 9.24524 1.35797 0.387999
threshold=80.500000000000014 280.00000000000006 12.500000000000002 1.5201019520000003 51.500000000000007
decision_type=2 2 2 2 2
left_child=2 4 -1 -4 -2
right_child=1 -3 3 -5 -6
leaf_value=0.045871420534194442 -0.024429032019681961 -0.0034975130120897973 0.034934613718404041 0.018494763514742843 -0.040286851056917754
leaf_weight=316.64389754831791 30.139180243015289 26.082391560077667 68.245588526129723 25.194918468594551 414.85288563370705
leaf_count=1267 122 105 273 101 1681
internal_value=-8.64539e-06 -0.0375712 0.0430672 0.0316918 -0.0395017
internal_weight=881.159 471.074 410.084 93.4405 444.992
internal_count=3549 1908 1641 374 1803
is_linear=0
shrinkage=0.025


Tree=4
num_leaves=7
num_cat=0
split_feature=103 9 9 87 19 94
split_gain=2202.27 58.1282 14.9976 24.5532 3.99066 0.3631
threshold=-14.499999999999998 20.500000000000004 15.500000000000002 120.50000000000001 90.500000000000014 0.72986837338896393
decision_type=2 2 2 2 2 2
left_child=1 2 -1 -4 5 -2
right_child=4 -3 3 -5 -6 -7
leaf_value=-0.041044872439657813 0.036516795159004106 -0.00093578236041185381 -0.0044606972055411019 -0.034604372753724404 0.045452076480211177 0.021002277155320326
leaf_weight=367.41681879758835 90.709159076213837 27.584214761853218 26.633666053414345 52.004405871033669 286.24976475536823 27.985504776239395
leaf_count=1497 363 111 108 211 1147 112
internal_value=-4.90437e-06 -0.0364314 -0.0385862 -0.025302 0.0425196 0.0338759
internal_weight=878.584 473.639 446.055 78.6381 404.944 118.695
internal_count=3549 1927 1816 319 1622 475
is_linear=0
shrinkage=0.025


Tree=5
num_leaves=6
num_cat=0
split_feature=49 9 94 49 48
split_gain=2104.45 52.5971 53.3118 8.41781 1.22449
threshold=19.500000000000004 15.500000000000002 0.4546510484494069 87.500000000000014 1.5201019520000003
decision_type=2 2 2 2 2
left_child=1 -1 -3 4 -2
right_child=3 2 -4 -5 -6
leaf_value=-0.040709446992989583 0.033364657992348841 0.0010728831892075933 -0.03402737901916509 0.043822691664359426 0.017660306450778408
leaf_weight=361.79334191977978 68.158920541405678 46.497409448027611 58.241150006651878 315.49850113689899 25.171385124325752
leaf_count=1483 273 188 237 1267 101
internal_value=-2.57704e-06 -0.0361134 -0.0190834 0.0411375 0.030268
internal_weight=875.361 466.532 104.739 408.829 93.3303
internal_count=3549 1908 425 1641 374
is_linear=0
shrinkage=0.025


Tree=6
num_leaves=8
num_cat=0
split_feature=49 9 94 49 94 94 102
split_gain=2011.6 50.7914 51.2297 8.1685 1.28161 2.39809 0.98856
threshold=19.500000000000004 15.500000000000002 0.4546510484494069 88.500000000000014 0.40027713761462136 0.71065161285356993 -68.499999999999986
decision_type=2 2 2 2 2 2 2
left_child=1 6 -3 4 -2 -6 -1
right_child=3 2 -4 -5 5 -7 -8
leaf_value=-0.023668934826647857 0.017546935542962203 0.0010485640153775776 -0.033389357249714841 0.043179833385172707 0.037799006964309913 0.019923297125130968 -0.040919409567305116
leaf_weight=26.994031608104706 24.910255447030067 46.502328261733055 57.969142779707909 300.53867156803608 53.578777059912682 28.686882361769676 332.37509573996067
leaf_count=111 100 188 237 1211 215 115 1372
internal_value=-1.53397e-07 -0.0354352 -0.0186898 0.0402477 0.0304451 0.0330929 -0.0399731
internal_weight=871.555 463.841 104.471 407.715 107.176 82.2657 359.369
internal_count=3549 1908 425 1641 430 330 1483
is_linear=0
shrinkage=0.025


Tree=7
num_leaves=7
num_cat=0
split_feature=103 9 9 87 19 94
split_gain=1925.32 52.8266 13.2154 23.1513 3.77429 0.730351
threshold=-14.499999999999998 20.500000000000004 15.500000000000002 120.50000000000001 90.500000000000014 0.72986837338896393
decision_type=2 2 2 2 2 2
left_child=1 2 -1 -4 5 -2
right_child=4 -3 3 -5 -6 -7
leaf_value=-0.038860604925803802 0.034231445859250906 -0.00062076686301678935 -0.0037945134516909219 -0.033037899174125245 0.042639504096033405 0.019333541254317403
leaf_weight=360.20545195043087 90.269388988614082 27.536202847957611 26.511233240365982 51.376317471265793 283.45242516696453 27.884979441761971
leaf_count=1497 363 111 108 211 1147 112
internal_value=0 -0.0344261 -0.0365143 -0.0239436 0.0398455 0.0316634
internal_weight=867.236 465.629 438.093 77.8876 401.607 118.154
internal_count=3549 1927 1816 319 1622 475
is_linear=0
shrinkage=0.025


Tree=8
num_leaves=8
num_cat=0
split_feature=49 9 94 49 59 59 102
split_gain=1843.37 47.6543 48.6911 7.61952 3.05805 3.27485 1.30417
threshold=19.500000000000004 15.500000000000002 0.4546510484494069 88.500000000000014 7.6931111111111123 4.594166666666669 -68.499999999999986
decision_type=2 2 2 2 8 10 2
left_child=1 6 -3 4 5 -2 -1
right_child=3 2 -4 -5 -6 -7 -8
leaf_value=-0.022569308753221898 0.026661733936017604 0.0012541894995678673 -0.032368947622030721 0.041470468236769795 0.036367717315536306 0.010925928911181982 -0.039571480673810375
leaf_weight=26.693280339241028 37.503022223711014 46.443205490708351 57.43649859726429 297.83527508378029 44.42426310479641 24.835816487669945 327.2401332706213
leaf_count=111 151 188 237 1211 179 100 1372
internal_value=0 -0.0341855 -0.0179463 0.0386302 0.0291835 0.0217065 -0.0386284
internal_weight=862.411 457.813 103.88 404.598 106.763 62.3388 353.933
internal_count=3549 1908 425 1641 430 251 1483
is_linear=0
shrinkage=0.025


Tree=9
num_leaves=6
num_cat=0
split_feature=103 9 9 87 19
split_gain=1766.31 49.6687 12.3834 22.1228 3.64094
threshold=-14.499999999999998 20.500000000000004 15.500000000000002 120.50000000000001 90.500000000000014
decision_type=2 2 2 2 2
left_child=1 2 -1 -4 -2
right_child=4 -3 3 -5 -6
leaf_value=-0.037588485759949455 0.030377733956927479 -0.00047719486868976786 -0.0034425862174675957 -0.032039059112988766 0.041019156717392709
leaf_weight=354.38880647718906 117.5437546223402 27.507401004433632 26.43599870800972 50.852943912148476 280.42905777692795
leaf_count=1497 475 111 108 211 1147
internal_value=1.24168e-06 -0.0332402 -0.0352928 -0.0230918 0.0382983
internal_weight=857.158 459.185 431.678 77.2889 397.973
internal_count=3549 1927 1816 319 1622
is_linear=0
shrinkage=0.025


Tree=10
num_leaves=7
num_cat=0
split_feature=49 9 94 49 63 102
split_gain=1692.89 45.0097 46.358 7.34222 3.31274 1.61867
threshold=19.500000000000004 15.500000000000002 0.4546510484494069 87.500000000000014 14.500000000000002 -68.499999999999986
decision_type=2 2 2 2 2 2
left_child=1 5 -3 4 -2 -1
right_child=3 2 -4 -5 -6 -7
leaf_value=-0.021536638418367452 0.014542336118868592 0.0014454823705528433 -0.031420085261457342 0.039673990150707515 0.030772098311330699 -0.038360039341731683
leaf_weight=26.360297814011574 26.189426943659782 46.381719410419464 56.836895406246185 308.0689317882061 66.21058352291584 321.41968055069447
leaf_count=111 106 188 237 1267 268 1372
internal_value=5.08884e-08 -0.033044 -0.0172443 0.0371682 0.0271803 -0.0374153
internal_weight=851.468 450.999 103.219 400.469 92.4 347.78
internal_count=3549 1908 425 1641 374 1483
is_linear=0
shrinkage=0.025


Tree=11
num_leaves=9
num_cat=0
split_feature=103 87 65 87 73 19 94 94
split_gain=1623.25 40.7738 5.9121 8.93729 5.29211 3.81886 1.49171 0.345379
threshold=-14.499999999999998 280.00000000000006 15.29779894306367 170.50000000000003 73.403121277102699 90.500000000000014 0.72986837338896393 0.43686961255313506
decision_type=2 2 10 2 10 2 2 2
left_child=1 2 -1 4 -4 6 7 -2
right_child=5 -3 3 -5 -6 -7 -8 -9
leaf_value=-0.036733686061314927 0.019041693181268859 -0.0011778116417813808 -0.033805882654613671 -0.010594910211024142 -0.015618697418034903 0.039578593714256455 0.017128244142202549 0.034778161014233415
leaf_weight=295.06530402600765 24.581435859203339 25.626738965511322 77.329237446188927 26.291256174445152 27.710476860404015 276.66497471928596 27.601366490125656 64.540501356124878
leaf_count=1264 100 105 330 111 117 1147 112 263
internal_value=0 -0.032152 -0.0339726 -0.026631 -0.0299583 0.0368876 0.0291249 0.0317064
internal_weight=845.411 452.023 426.396 131.331 105.04 393.388 116.723 89.1219
internal_count=3549 1927 1822 558 447 1622 475 363
is_linear=0
shrinkage=0.025


Tree=12
num_leaves=8
num_cat=0
split_feature=50 9 93 73 50 106 102
split_gain=1558.1 44.2191 44.7258 16.6057 7.16643 18.3493 1.56996
threshold=80.500000000000014 15.500000000000002 26.725000000000005 77.993970214384262 11.500000000000002 -1.1285000000000001 -68.499999999999986
decision_type=2 2 2 10 2 2 2
left_child=4 6 3 -3 -1 -6 -2
right_child=1 2 -4 -5 5 -7 -8
leaf_value=0.038585853114358276 -0.020841947827915475 0.011995757894365369 -0.035902192183080654 -0.012254450079612835 0.007468105625414511 0.032850981753495941 -0.037302571531675467
leaf_weight=290.01204611361027 26.098316580057144 24.396512016654015 38.530373156070709 39.398451089859009 27.52985055744648 77.950663819909096 315.25530399382114
leaf_count=1211 111 100 163 162 112 318 1372
internal_value=0 -0.0319912 -0.0163455 -0.0027465 0.0358465 0.0268866 -0.0363703
internal_weight=839.172 443.679 102.325 63.795 395.493 105.481 341.354
internal_count=3549 1908 425 262 1641 430 1483
is_linear=0
shrinkage=0.025


Tree=13
num_leaves=9
num_cat=0
split_feature=49 9 94 49 106 82 102 101
split_gain=1495.45 43.1474 43.4863 7.17942 16.558 1.91956 1.55469 0.0318408
threshold=19.500000000000004 15.500000000000002 0.4546510484494069 89.500000000000014 -1.1285000000000001 0.73862517119482418 -68.499999999999986 -10.149999999999997
decision_type=2 2 2 2 2 2 2 10
left_child=1 6 -3 4 -2 -6 -1 -4
right_child=3 2 7 -5 5 -7 -8 -9
leaf_value=-0.020494235186353002 0.0091592152112385493 0.0019785205475522471 -0.018403596143630241 0.038212775895566653 0.036085052704795707 0.018555352039545805 -0.036782886722300678 -0.03472489382062547
leaf_weight=25.964109539985657 30.875909194350243 46.231001421809196 23.555935367941856 274.63679958879948 62.496023342013359 24.70662422478199 311.83034463226795 32.17614620923996
leaf_count=111 126 188 100 1157 257 101 1372 137
internal_value=0 -0.0314972 -0.0160346 0.0352227 0.026978 0.0324211 -0.0358554 -0.0299507
internal_weight=832.473 439.758 101.963 392.715 118.079 87.2026 337.794 55.7321
internal_count=3549 1908 425 1641 484 358 1483 237
is_linear=0
shrinkage=0.025


Tree=14
num_leaves=7
num_cat=0
split_feature=49 87 49 106 87 82
split_gain=1436.45 39.3741 7.10326 15.9874 2.85065 1.84521
threshold=19.500000000000004 280.00000000000006 89.500000000000014 -1.1285000000000001 51.500000000000007 0.73862517119482418
decision_type=2 2 2 2 2 2
left_child=1 4 3 -2 -1 -5
right_child=2 -3 -4 5 -6 -7
leaf_value=-0.018223469647244861 0.0089699501219902607 -0.00063892254440492912 0.037607024984273416 0.035455185777026804 -0.033696936300231413 0.018212177113281589
leaf_weight=28.019817605614662 30.845095053315163 25.488702028989792 272.19517821073532 62.109780102968216 382.20634829998016 24.637953519821167
leaf_count=122 126 105 1157 257 1681 101
internal_value=0 -0.0310266 0.034633 0.0264754 -0.0328782 0.0318445
internal_weight=825.503 435.715 389.788 117.593 410.226 86.7477
internal_count=3549 1908 1641 484 1803 358
is_linear=0
shrinkage=0.025


Tree=15
num_leaves=9
num_cat=0
split_feature=103 9 9 87 19 94 87 94
split_gain=1379.69 43.9163 12.0748 21.6758 3.96416 1.63769 1.0161 0.936863
threshold=-14.499999999999998 20.500000000000004 15.500000000000002 120.50000000000001 90.500000000000014 0.72986837338896393 244.50000000000003 0.43686961255313506
decision_type=2 2 2 2 2 2 2 2
left_child=1 2 6 -4 5 7 -1 -2
right_child=4 -3 3 -5 -6 -7 -8 -9
leaf_value=-0.035631680121593547 0.017164116414363235 0.0003560256901768762 -0.0012867691487573817 -0.02946369094819408 0.037104429522061631 0.015553244341113867 -0.021999165440991442 0.032569688515218985
leaf_weight=298.4177475720644 24.185891523957253 27.292539417743683 25.917706400156021 48.993352636694908 267.31397724151611 27.274379014968872 35.765444502234459 63.232950881123543
leaf_count=1339 100 111 108 211 1147 112 158 263
internal_value=2.52827e-06 -0.0302053 -0.0322299 -0.0204368 0.0344614 0.0269877 -0.0345259 0.0294937
internal_weight=818.394 436.387 409.094 74.9111 382.007 114.693 334.183 87.4188
internal_count=3549 1927 1816 319 1622 475 1497 363
is_linear=0
shrinkage=0.025


Tree=16
num_leaves=8
num_cat=0
split_feature=49 9 94 73 49 106 102
split_gain=1326.58 41.8679 42.5241 16.0117 7.04993 9.91264 1.84959
threshold=19.500000000000004 15.500000000000002 0.52508014415646043 77.993970214384262 87.500000000000014 -0.60200000000000597 -68.499999999999986
decision_type=2 2 2 10 2 2 2
left_child=1 6 3 -3 5 -2 -1
right_child=4 2 -4 -5 -6 -7 -8
leaf_value=-0.019321404104909595 0.0081493956876538664 0.01271292496763711 -0.034269444822388966 -0.011166660155102988 0.035973783103378058 0.029038276999290399 -0.03542828592437202
leaf_weight=25.451234549283981 24.447217136621475 24.241330742835999 37.371267005801201 38.952446237206459 293.17562337219715 65.860416904091835 301.498814702034
leaf_count=111 100 100 163 162 1267 274 1372
internal_value=4.23948e-06 -0.0301104 -0.0148828 -0.00170923 0.0335385 0.0241339 -0.0344919
internal_weight=810.998 427.515 100.565 63.1938 383.483 90.3076 326.95
internal_count=3549 1908 425 262 1641 374 1483
is_linear=0
shrinkage=0.025


Tree=17
num_leaves=9
num_cat=0
split_feature=49 87 49 59 59 103 65 61
split_gain=1275.22 37.3261 7.10919 5.28193 8.70691 4.37501 1.64397 5.11677
threshold=19.500000000000004 280.00000000000006 89.500000000000014 7.6931111111111123 4.6827083333333368 -22.849999999999998 17.266144164455195 74.509957994121436
decision_type=2 2 2 8 10 2 10 10
left_child=1 5 3 4 -2 6 -1 -8
right_child=2 -3 -4 -5 -6 -7 7 -9
leaf_value=-0.034157945910085565 0.024428157112160793 -0.00013331887982764677 0.035971870701213909 0.032560509432605945 0.0050722821511343351 -0.01489602798738739 -0.030050497118240063 -0.013788239808178239
leaf_weight=288.81416490674019 43.163885071873665 25.349069535732269 264.26505863666534 46.825256884098053 25.885341048240662 22.559373393654823 51.551773548126221 34.923266932368279
leaf_count=1315 180 105 1157 196 108 101 232 155
internal_value=1.3591e-06 -0.0296838 0.0330118 0.0250315 0.0180382 -0.0315354 -0.0323201 -0.0246229
internal_weight=803.337 423.198 380.14 115.874 69.0492 397.849 375.289 86.475
internal_count=3549 1908 1641 484 288 1803 1702 387
is_linear=0
shrinkage=0.025


Tree=18
num_leaves=9
num_cat=0
split_feature=103 9 9 94 49 94 87 94
split_gain=1226.71 41.5107 12.1182 31.6052 3.95998 2.31555 1.35571 0.927594
threshold=-14.499999999999998 20.500000000000004 15.500000000000002 0.4546510484494069 89.500000000000014 0.71065161285356993 244.50000000000003 0.40458678507923801
decision_type=2 2 2 2 2 2 2 2
left_child=1 2 6 -4 5 7 -1 -2
right_child=4 -3 3 -5 -6 -7 -8 -9
leaf_value=-0.03439035857196511 0.016741391118392273 0.00074596697624270476 0.002842822136773625 -0.030342531296402932 0.035470067993026565 0.014713576784847178 -0.020820670369423158 0.031802884743003544
leaf_weight=288.05058805644512 24.808860510587692 27.188367336988449 25.752719342708588 47.823418542742729 261.41025798022747 30.119734406471252 34.876544162631035 55.708312168717384
leaf_count=1339 104 111 107 212 1157 125 158 236
internal_value=1.6693e-06 -0.0289246 -0.0309493 -0.0192536 0.0328966 0.0255237 -0.0332722 0.0284416
internal_weight=795.739 423.692 396.503 73.5761 372.047 110.637 322.927 80.5172
internal_count=3549 1927 1816 319 1622 465 1497 340
is_linear=0
shrinkage=0.025


Tree=19
num_leaves=8
num_cat=0
split_feature=49 9 93 73 49 106 102
split_gain=1180.63 40.7499 40.6629 15.233 7.01246 16.0636 2.11108
threshold=19.500000000000004 15.500000000000002 26.725000000000005 77.993970214384262 88.500000000000014 -1.1285000000000001 -68.499999999999986
decision_type=2 2 2 10 2 2 2
left_child=1 6 3 -3 5 -2 -1
right_child=4 2 -4 -5 -6 -7 -8
leaf_value=-0.018260377847195863 0.0056410384174334178 0.012990299092391439 -0.033095634063185574 -0.010352000767797694 0.034736869255037273 0.029276706425243972 -0.034239019628280069
leaf_weight=24.929601699113846 27.12745763361454 24.166183412075043 36.330217868089676 38.585891589522362 270.9864758849144 75.084319293498993 290.57973140478134
leaf_count=111 112 100 163 162 1211 318 1372
internal_value=4.01606e-06 -0.0288663 -0.0138369 -0.00103058 0.0320407 0.0235826 -0.0332888
internal_weight=787.79 414.592 99.0823 62.7521 373.198 102.212 315.509
internal_count=3549 1908 425 262 1641 430 1483
is_linear=0
shrinkage=0.025


Tree=20
num_leaves=8
num_cat=0
split_feature=103 87 19 73 67 71 71
split_gain=1136.33 35.1448 5.9544 5.2412 16.1176 4.33858 16.1398
threshold=-15.499999999999998 280.00000000000006 90.500000000000014 76.690677666707884 128.815 4.3149821428571435 5.7890612648221369
decision_type=2 2 2 8 2 10 10
left_child=1 3 5 4 -1 -2 -7
right_child=2 -3 -4 -5 -6 6 -8
leaf_value=-0.028279373390071406 0.033551158074199575 0.00016232295941231046 0.034617506172830853 -0.032830690616790371 -0.0059802280619774507 0.0014307529950036313 0.025640682853600955
leaf_weight=91.747956857085228 31.904274195432663 25.208959251642227 253.33485701680183 265.37240150570869 30.022844329476357 24.977543845772743 57.071768179535866
leaf_count=424 137 105 1147 1252 135 106 243
internal_value=1.29661e-06 -0.0283203 0.0317577 -0.0301597 -0.0232539 0.0241912 0.0188049
internal_weight=779.641 412.352 367.288 387.143 121.771 113.954 82.0493
internal_count=3549 1916 1633 1811 559 486 349
is_linear=0
shrinkage=0.025


Tree=21
num_leaves=10
num_cat=0
split_feature=17 87 9 94 98 49 82 94 49
split_gain=1094.78 29.8966 18.9042 27.2444 18.0021 6.92172 8.80667 11.3332 3.88515
threshold=62.000000000000007 280.00000000000006 15.500000000000002 0.52508014415646043 -29.510556964331425 89.500000000000014 0.77405575413483441 0.357154854943808 14.500000000000002
decision_type=2 2 2 2 2 2 2 2 2
left_child=5 2 8 4 -4 6 7 -1 -2
right_child=1 -3 3 -5 -6 -7 -8 -9 -10
leaf_value=0.0094090818230473695 -0.03403518017749281 -0.00076803124357303801 -0.018186534978113924 -0.032562760221870483 0.0097011806045341695 0.034096896447893418 0.0079169783897173693 0.032313644475024057 -0.017036870874499645
leaf_weight=23.725963249802589 272.31400549411774 24.020861089229584 23.41246609389782 35.867001205682755 24.80929371714592 252.46226792037487 24.692463263869286 64.928457900881767 25.390422150492668
leaf_count=101 1318 101 101 164 104 1157 104 280 119
internal_value=5.67463e-06 -0.0281009 -0.029782 -0.0174913 -0.00422833 0.0311512 0.0234058 0.0270401 -0.0328991
internal_weight=771.623 405.814 381.793 84.0888 48.2218 365.809 113.347 88.6544 297.704
internal_count=3549 1907 1806 369 205 1642 485 381 1437
is_linear=0
shrinkage=0.025


Tree=22
num_leaves=8
num_cat=0
split_feature=17 87 49 82 94 8 87
split_gain=1054.2 29.1571 6.98711 8.51333 11.0214 6.08188 3.41381
threshold=62.000000000000007 280.00000000000006 89.500000000000014 0.77405575413483441 0.357154854943808 2001.6163840000002 51.500000000000007
decision_type=2 2 2 2 2 2 2
left_child=2 5 3 4 -1 6 -2
right_child=1 -3 -4 -5 -6 -7 -8
leaf_value=0.0092220843989189935 -0.015244474504191292 -0.00075219995009692285 0.033673313826145405 0.0077638828207054382 0.031821014928005001 -0.011933991832684468 -0.031122913716875568
leaf_weight=23.703551068902016 24.328468561172485 24.018505603075027 249.34922105073929 24.649036467075348 64.369735389947891 21.21154023706913 331.73262001574039
leaf_count=101 114 101 1157 104 280 99 1593
internal_value=3.59381e-06 -0.0277371 0.030715 0.0229975 0.0265879 -0.0294162 -0.030271
internal_weight=763.363 401.291 362.072 112.722 88.0733 377.273 356.061
internal_count=3549 1907 1642 485 381 1806 1707
is_linear=0
shrinkage=0.025


Tree=23
num_leaves=9
num_cat=0
split_feature=49 9 93 21 49 106 82 102
split_gain=1015.69 40.5639 38.8844 14.7276 6.9459 14.4717 2.75736 2.38147
threshold=19.500000000000004 15.500000000000002 26.725000000000005 2.5000000000000004 89.500000000000014 -1.1285000000000001 0.73862517119482418 -66.84999999999998
decision_type=2 2 2 2 2 2 2 2
left_child=1 7 3 -3 5 -2 -7 -1
right_child=4 2 -4 -5 -6 6 -8 -9
leaf_value=-0.018296803267711118 0.006292356781390728 -0.013879911871248155 -0.03165930343017366 0.0092069344337276909 0.033266239388658699 0.031538514976423786 0.014816505977752326 -0.033040683838504441
leaf_weight=29.464489668607712 29.94970278441906 23.721804037690163 34.797555133700371 38.31176783144474 246.19141380488873 58.429732948541641 23.714362546801567 270.6035635471344
leaf_count=137 126 102 163 160 1157 257 101 1346
internal_value=7.18936e-06 -0.027374 -0.012372 0 0.0303055 0.0226386 0.0278668 -0.0319247
internal_weight=755.184 396.899 96.8311 62.0336 358.285 112.094 82.1441 300.068
internal_count=3549 1908 425 262 1641 484 358 1483
is_linear=0
shrinkage=0.025


Tree=24
num_leaves=10
num_cat=0
split_feature=17 87 9 87 49 49 86 13 59
split_gain=978.691 27.7702 19.0144 19.3718 6.96637 4.23639 3.79859 1.57774 0.989744
threshold=62.000000000000007 280.00000000000006 15.500000000000002 119.50000000000001 89.500000000000014 14.500000000000002 -17.971563767747686 101.50000000000001 4.8166153846153907
decision_type=2 2 2 2 2 2 2 2 8
left_child=4 2 5 -4 6 -2 8 -5 -1
right_child=1 -3 3 7 -6 -7 -8 -9 -10
leaf_value=0.016262009657803219 -0.033062859191013629 -0.00067350839141212338 -0.00090151320768478782 -0.014207203094171381 0.032874623930548859 -0.015969699396463338 0.013903637255009167 -0.030777806862365038 0.031166492122461639
leaf_weight=26.612126052379608 261.20728108286858 23.930733844637871 32.494434967637062 22.030438244342804 242.9958850890398 24.692990824580193 46.043330624699593 27.947139024734497 38.728954121470451
leaf_count=117 1318 101 140 100 1157 119 199 129 169
internal_value=6.38274e-06 -0.0270313 -0.0287049 -0.0164266 0.029904 -0.031895 0.022268 -0.0254753 0.0267192
internal_weight=746.683 392.303 368.372 82.472 354.38 285.9 111.384 49.9776 65.3411
internal_count=3549 1907 1806 369 1642 1437 485 229 286
is_linear=0
shrinkage=0.025


Tree=25
num_leaves=9
num_cat=0
split_feature=49 9 93 8 49 82 94 75
split_gain=944.271 39.1965 37.5987 14.3166 6.90435 8.29826 9.2234 2.63197
threshold=19.500000000000004 15.500000000000002 26.725000000000005 1002.7516160000001 89.500000000000014 0.77405575413483441 0.39221875806485201 121.50000000000001
decision_type=2 2 2 2 2 2 2 2
left_child=1 7 3 -3 5 6 -2 -1
right_child=4 2 -4 -5 -6 -7 -8 -9
leaf_value=-0.032658601520432831 0.0091972669719787292 -0.0089868684509325936 -0.031123033434294435 0.013774011722766613 0.032497477877338185 0.0070382658488153498 0.030384268163989449 -0.019283795671338214
leaf_weight=253.7152818441391 23.291012048721313 37.955791279673576 34.131391391158104 23.883672580122948 239.76922495663166 24.430714935064316 63.08461531996727 38.095856368541718
leaf_count=1298 100 162 163 100 1157 104 280 185
internal_value=5.39751e-06 -0.0267105 -0.0119448 0.000139229 0.0295238 0.0219422 0.0255145 -0.0312752
internal_weight=738.358 387.782 95.9709 61.8395 350.576 110.806 86.3756 291.811
internal_count=3549 1908 425 262 1641 484 380 1483
is_linear=0
shrinkage=0.025


Tree=26
num_leaves=9
num_cat=0
split_feature=103 9 93 73 19 106 96 102
split_gain=910.663 39.4805 37.4693 15.1558 6.18418 12.8615 4.15269 2.57449
threshold=-15.499999999999998 15.500000000000002 26.725000000000005 77.993970214384262 90.500000000000014 -1.1285000000000001 151.01000000000008 -66.84999999999998
decision_type=2 2 2 10 2 2 2 2
left_child=1 7 3 -3 5 -2 -7 -1
right_child=4 2 -4 -5 -6 6 -8 -9
leaf_value=-0.017289996026404221 0.0050413344936823933 0.014275137990544091 -0.030835995106151037 -0.0090224239274085804 0.0322492263502277 0.031835884209519924 0.01559976099959069 -0.031956960933306522
leaf_weight=28.698050320148468 25.559029325842857 24.418449386954308 33.530440211296082 37.888899683952332 234.67883929610252 49.695713743567467 34.405610620975494 260.92091815173626
leaf_count=137 109 102 162 162 1147 223 154 1353
internal_value=5.06606e-06 -0.0262277 -0.0114554 0.000453005 0.0293326 0.0219349 0.0264699 -0.0308302
internal_weight=729.796 385.457 95.8378 62.3073 344.339 109.66 84.1013 289.619
internal_count=3549 1916 426 264 1633 486 377 1490
is_linear=0
shrinkage=0.025


Tree=27
num_leaves=10
num_cat=0
split_feature=49 9 93 8 49 106 43 75 82
split_gain=877.966 37.9119 35.5514 13.812 6.9775 13.6849 3.25049 7.45603 2.85148
threshold=19.500000000000004 15.500000000000002 26.725000000000005 1002.7516160000001 89.500000000000014 -1.1285000000000001 143.50000000000003 86.500000000000014 0.73862517119482418
decision_type=2 2 2 2 2 2 2 2 2
left_child=1 6 3 -3 5 -2 -1 -8 -7
right_child=4 2 -4 -5 -6 8 7 -9 -10
leaf_value=-0.032231980516458592 0.0054381777559577502 -0.0088347949142764011 -0.030464218245361864 0.013520652712165335 0.031786218131168671 0.030084529336808705 -0.027449646868187003 -0.0052274152709158306 0.013705129490706403
leaf_weight=241.28252811729908 29.611685335636139 37.884024992585182 33.276305988430977 23.91918534040451 233.26926451921463 56.470190793275833 23.230877786874771 18.961951404809952 23.322803288698196
leaf_count=1263 126 162 163 100 1157 257 123 97 101
internal_value=6.31945e-06 -0.0260713 -0.0115301 0.000144225 0.0287823 0.0212465 -0.0306555 -0.0191276 0.0264169
internal_weight=721.229 378.555 95.0795 61.8032 342.674 109.405 283.475 42.1928 79.793
internal_count=3549 1908 425 262 1641 484 1483 220 358
is_linear=0
shrinkage=0.025


Tree=28
num_leaves=10
num_cat=0
split_feature=17 87 9 93 13 49 82 94 49
split_gain=847.483 26.1305 17.9062 24.2689 9.89879 6.8956 8.10332 10.239 4.69133
threshold=62.000000000000007 280.00000000000006 15.500000000000002 26.725000000000005 199.50000000000003 89.500000000000014 0.77405575413483441 0.357154854943808 14.500000000000002
decision_type=2 2 2 2 2 2 2 2 2
left_child=5 2 8 4 -4 6 7 -1 -2
right_child=1 -3 3 -5 -6 -7 -8 -9 -10
leaf_value=0.0079166862278628736 -0.031903384224453872 -0.00018390050395802957 -0.0135300338106598 -0.03040020287657489 0.0072589416187032298 0.031447231646130065 0.0063531678695662279 0.029685526154015769 -0.014597453167186986
leaf_weight=23.14840804040432 245.96429236233234 23.657446548342705 23.270490169525146 33.152934417128563 24.301051735877991 229.98448824882507 24.208340927958488 61.27833092212677 23.672886341810226
leaf_count=101 1318 101 103 164 102 1157 104 280 119
internal_value=4.08545e-06 -0.0257707 -0.0274645 -0.0155109 -0.00318245 0.0284414 0.0209523 0.0245212 -0.0306865
internal_weight=712.639 374.019 350.362 80.7245 47.5715 338.62 108.635 84.4267 269.637
internal_count=3549 1907 1806 369 205 1642 485 381 1437
is_linear=0
shrinkage=0.025


Tree=29
num_leaves=10
num_cat=0
split_feature=103 9 93 73 19 106 96 43 75
split_gain=817.48 37.6976 34.5655 14.5205 6.36153 12.1994 4.28959 3.23711 7.47701
threshold=-15.499999999999998 15.500000000000002 26.725000000000005 77.993970214384262 90.500000000000014 -1.1285000000000001 151.01000000000008 143.50000000000003 86.500000000000014
decision_type=2 2 2 10 2 2 2 2 2
left_child=1 7 3 -3 5 -2 -7 -1 -9
right_child=4 2 -4 -5 -6 6 -8 8 -10
leaf_value=-0.03151479903713527 0.0045176520452123647 0.013998014913458652 -0.029891964367655052 -0.0088147141793535142 0.031241759420097992 0.030794178089286348 0.014640819482964626 -0.026917775616034242 -0.0046773896646572256
leaf_weight=236.00198915600777 25.361319273710251 24.436009392142296 32.243300303816795 37.770457237958908 224.9757513999939 48.292420044541359 33.727884009480476 22.563801273703575 18.676509901881218
leaf_count=1270 109 102 162 162 1147 223 154 123 97
internal_value=2.17814e-06 -0.0253087 -0.010842 0.000484125 0.0282715 0.0209133 0.0254033 -0.0299488 -0.0184947
internal_weight=704.049 371.692 94.4498 62.2065 332.357 107.382 82.0203 277.242 41.2403
internal_count=3549 1916 426 264 1633 486 377 1490 220
is_linear=0
shrinkage=0.025


Tree=30
num_leaves=10
num_cat=0
split_feature=17 87 9 93 98 49 82 94 49
split_gain=789.206 25.4081 17.3946 22.9595 17.3789 6.96294 7.94366 9.94846 4.90457
threshold=62.000000000000007 280.00000000000006 15.500000000000002 26.725000000000005 -29.510556964331425 89.500000000000014 0.77405575413483441 0.357154854943808 14.500000000000002
decision_type=2 2 2 2 2 2 2 2 2
left_child=5 2 8 4 -4 6 7 -1 -2
right_child=1 -3 3 -5 -6 -7 -8 -9 -10
leaf_value=0.007542227366187957 -0.031378781822414277 0 -0.017087157369296294 -0.029803172479209241 0.01045124051297263 0.030805298754191513 0.0059299929258134296 0.02901705342650502 -0.013972073916136467
leaf_weight=22.983006715774536 238.31559526920319 23.544235587120056 22.909055858850479 32.28861141204834 24.593034490942955 223.41536273062229 24.064291715621948 60.146180987358093 23.250700429081917
leaf_count=101 1318 101 101 164 104 1157 104 280 119
internal_value=5.19497e-07 -0.0251818 -0.0268901 -0.0150833 -0.00314468 0.0277634 0.0203109 0.023873 -0.030132
internal_weight=695.51 364.901 341.357 79.7907 47.5021 330.609 107.193 83.1292 261.566
internal_count=3549 1907 1806 369 205 1642 485 381 1437
is_linear=0
shrinkage=0.025


Tree=31
num_leaves=11
num_cat=0
split_feature=49 9 93 21 59 54 96 96 43 89
split_gain=761.752 35.887 32.0543 13.5481 7.29432 14.7036 4.29571 8.61365 3.63776 7.80453
threshold=19.500000000000004 15.500000000000002 26.725000000000005 2.5000000000000004 7.6931111111111123 20.88745851278885 -211.86500000000001 151.01000000000008 143.50000000000003 28.436147550034327
decision_type=2 2 2 2 8 10 2 2 2 2
left_child=1 8 3 -3 5 6 -2 -8 -1 -10
right_child=4 2 -4 -5 -6 -7 7 -9 9 -11
leaf_value=-0.031184119715859784 0.010650540883688102 -0.013160059604729988 -0.02926698509240987 0.0090602753673376182 0.031758623288697913 0.001451521753152797 0.032410216150803722 0.014743331594043566 -0.026522927528964575 -0.0039040722433179328
leaf_weight=226.83356203138828 21.999395936727524 23.42357936501503 31.538458898663521 38.225869953632355 172.20843008160591 20.436422362923622 70.692880615592003 41.273205414414406 22.018462777137756 18.281115531921387
leaf_count=1263 111 102 163 160 876 94 355 205 123 97
internal_value=0 -0.0248995 -0.010712 0.000226293 0.0274353 0.0217527 0.024668 0.0268278 -0.0295518 -0.017881
internal_weight=686.931 360.321 93.1879 61.6494 326.61 154.402 133.965 111.966 267.133 40.2996
internal_count=3549 1908 425 262 1641 765 671 560 1483 220
is_linear=0
shrinkage=0.025


Tree=32
num_leaves=10
num_cat=0
split_feature=17 75 9 87 49 106 102 49 73
split_gain=735.728 24.7296 14.6811 20.4247 7.28134 8.01621 6.95016 5.02586 1.87665
threshold=62.000000000000007 159.50000000000003 15.500000000000002 119.50000000000001 89.500000000000014 -1.1285000000000001 16.400000000000009 14.500000000000002 80.724153982552181
decision_type=2 2 2 2 2 2 2 2 10
left_child=4 2 7 -4 5 -1 -7 -2 -5
right_child=1 -3 3 8 -6 6 -8 -9 -10
leaf_value=0.0055760787302846487 -0.030941759729313831 -0.0011297007745186076 0.00029873106429510461 -0.013433993191438648 0.030227555216301872 0.0092543632414827329 0.028063024213872079 -0.013456869812026043 -0.03024820632560107
leaf_weight=24.725009754300117 225.75934825837612 26.637510403990746 31.645798891782761 21.365347608923912 217.12112699449062 24.286473914980888 56.586632579565048 22.839425146579742 27.557283788919449
leaf_count=108 1285 129 140 101 1157 111 266 119 133
internal_value=0 -0.0246283 -0.0264771 -0.0155203 0.027117 0.0196213 0.0233115 -0.0296422 -0.0248781
internal_weight=678.524 355.805 329.167 80.5684 322.719 105.598 80.8731 248.599 48.9226
internal_count=3549 1907 1778 374 1642 485 377 1404 234
is_linear=0
shrinkage=0.025


Tree=33
num_leaves=9
num_cat=0
split_feature=103 9 93 83 94 63 94 102
split_gain=709.957 35.7939 32.0426 14.4034 6.68037 4.83238 6.8597 3.75911
threshold=-15.499999999999998 15.500000000000002 26.725000000000005 10.618507232084154 0.7720587534421961 14.500000000000002 0.52508014415646043 -66.84999999999998
decision_type=2 2 2 2 2 2 2 2
left_child=1 7 3 -3 5 6 -2 -1
right_child=4 2 -4 -5 -6 -7 -8 -9
leaf_value=-0.014792002079905317 0.0042780289858117566 -0.010494094952813005 -0.028909452487252459 0.011882616864598542 0.012873239561513422 0.030035641103364787 0.024771389576774324 -0.030149197990353177
leaf_weight=26.634026169776917 20.128480821847916 30.887308984994888 30.720933020114899 31.018977805972099 32.319057255983353 240.00750058889389 23.996918335556984 234.47154901921749
leaf_count=137 101 132 162 132 159 1254 119 1353
internal_value=0 -0.0241798 -0.0100513 0.000730797 0.0269797 0.0283252 0.0168608 -0.0288995
internal_weight=670.185 353.733 92.6272 61.9063 316.452 284.133 44.1254 261.106
internal_count=3549 1916 426 264 1633 1474 220 1490
is_linear=0
shrinkage=0.025


Tree=34
num_leaves=10
num_cat=0
split_feature=17 75 9 87 49 82 94 49 73
split_gain=685.804 23.9503 14.4156 20.0673 7.6541 8.19117 9.57757 5.23517 1.96289
threshold=62.000000000000007 159.50000000000003 15.500000000000002 119.50000000000001 89.500000000000014 0.77405575413483441 0.357154854943808 14.500000000000002 80.724153982552181
decision_type=2 2 2 2 2 2 2 2 10
left_child=4 2 7 -4 5 6 -1 -2 -5
right_child=1 -3 3 8 -6 -7 -8 -9 -10
leaf_value=0.0066850169772778578 -0.030477540892894502 -0.00090661298087966178 0.00056484431278499973 -0.013039409350532473 0.029684856976558933 0.0046101094400296623 0.027744901559429148 -0.012864692798907788 -0.029848511508653797
leaf_weight=22.600857585668564 218.40506221354008 26.401222825050354 31.498107001185417 21.133404314517975 210.88258178532124 23.583853334188461 57.782657206058502 22.422051548957825 27.097810387611389
leaf_count=101 1285 129 140 101 1157 104 280 119 133
internal_value=0 -0.0240819 -0.0259397 -0.0150859 0.0264941 0.018934 0.0225911 -0.0291429 -0.0244469
internal_weight=661.808 346.958 320.556 79.7293 314.85 103.967 80.3835 240.827 48.2312
internal_count=3549 1907 1778 374 1642 485 381 1404 234
is_linear=0
shrinkage=0.025


Tree=35
num_leaves=11
num_cat=0
split_feature=49 9 93 73 59 96 78 94 43 89
split_gain=662.153 34.348 30.5788 12.9372 8.09254 14.8215 24.7346 14.3639 4.33699 8.13391
threshold=19.500000000000004 15.500000000000002 26.725000000000005 77.993970214384262 7.6931111111111123 151.01000000000008 26.622190134430522 0.36894256769604544 143.50000000000003 28.436147550034327
decision_type=2 2 2 10 8 2 2 2 2 2
left_child=1 8 3 -3 5 7 -7 -2 -1 -10
right_child=4 2 -4 -5 -6 6 -8 -9 9 -11
leaf_value=-0.030290073826538769 0.006351027832167325 0.013560260736267907 -0.028477583904148382 -0.0081397338597137513 0.030703114149197016 0.023696761400568072 -0.0095173856957034633 0.030559054544843714 -0.025521386418115594 -0.0024634613933560336
leaf_weight=213.03355942666531 22.915199190378189 23.873151004314423 30.219326540827751 37.353906646370888 163.14278250932693 23.198652550578117 23.680538773536682 77.920872032642365 20.648682802915573 17.535344243049622
leaf_count=1263 116 100 163 162 876 122 115 412 123 97
internal_value=-2.28878e-06 -0.0238105 -0.00991414 0.000668578 0.0261954 0.0203583 0.00757053 0.0256413 -0.028567 -0.0165016
internal_weight=653.522 342.664 91.4464 61.2271 310.858 147.715 46.8792 100.836 251.218 38.184
internal_count=3549 1908 425 262 1641 765 237 528 1483 220
is_linear=0
shrinkage=0.025


Tree=36
num_leaves=10
num_cat=0
split_feature=17 87 9 93 98 49 106 102 49
split_gain=639.851 23.5873 16.4184 21.1306 16.526 7.91043 8.20712 6.7496 5.3137
threshold=62.000000000000007 280.00000000000006 15.500000000000002 26.725000000000005 -29.510556964331425 89.500000000000014 -1.1285000000000001 16.400000000000009 14.500000000000002
decision_type=2 2 2 2 2 2 2 2 2
left_child=5 2 8 4 -4 6 -1 -8 -2
right_child=1 -3 3 -5 -6 -7 7 -9 -10
leaf_value=0.0043319505993061709 -0.03001005193975885 0.00059732506495894296 -0.0162922013730624 -0.028524440590074203 0.010664479181870544 0.029167483890941821 0.0083505301040451285 0.026840477474265264 -0.012371410367761494
leaf_weight=24.224854499101639 215.96993501484394 23.11370250582695 22.520562350749969 30.113395929336548 24.499881148338318 204.63629248738289 23.758314684033394 54.378563687205315 22.019110098481178
leaf_count=108 1318 101 101 164 104 1157 111 266 119
internal_value=-2.44585e-06 -0.02356 -0.0253213 -0.0138233 -0.00252342 0.0259058 0.0183072 0.0220888 -0.0286765
internal_weight=645.235 338.237 315.123 77.1338 47.0204 306.998 102.362 78.1369 237.989
internal_count=3549 1907 1806 369 205 1642 485 377 1437
is_linear=0
shrinkage=0.025


Tree=37
num_leaves=11
num_cat=0
split_feature=17 75 9 87 50 82 94 50 73 86
split_gain=617.751 23.3922 13.9584 19.3482 7.98437 8.23586 9.26028 5.33795 2.02209 0.385798
threshold=62.000000000000007 159.50000000000003 15.500000000000002 119.50000000000001 10.500000000000002 0.77405575413483441 0.357154854943808 85.500000000000014 80.724153982552181 -27.799938214784046
decision_type=2 2 2 2 2 2 2 2 10 2
left_child=4 2 7 -4 -1 6 -6 -2 -5 -8
right_child=1 -3 3 8 5 -7 9 -9 -10 -11
leaf_value=0.028906859723140589 -0.012178125465914749 -0.00034496091496854901 0.00083759020410093573 -0.012515240146255106 0.0061664498203107569 0.0037965579299336035 0.015209019410732548 -0.029831496016152544 -0.029250137427943232 0.030657271084101875
leaf_weight=201.40507046878338 21.890363544225693 25.983004316687584 31.267599850893021 20.781379416584969 22.394294232130051 23.263161033391953 19.981276169419289 207.52907437086105 26.372954472899437 36.033257201313972
leaf_count=1157 119 129 140 101 101 104 102 1285 133 178
internal_value=-3.90915e-06 -0.0233031 -0.0251964 -0.0145039 0.0256126 0.0180144 0.0217223 -0.0284534 -0.0238297 0.0268855
internal_weight=636.901 333.824 307.841 78.4219 303.077 101.672 78.4088 229.419 47.1543 56.0145
internal_count=3549 1907 1778 374 1642 485 381 1404 234 280
is_linear=0
shrinkage=0.025


Tree=38
num_leaves=10
num_cat=0
split_feature=49 9 93 83 59 96 77 94 102
split_gain=596.908 33.3277 29.2021 12.8502 8.58828 14.7945 24.161 14.4283 4.6401
threshold=19.500000000000004 15.500000000000002 26.725000000000005 10.618507232084154 7.6931111111111123 151.01000000000008 74.013973958606485 0.36894256769604544 -66.84999999999998
decision_type=2 2 2 2 8 2 2 2 2
left_child=1 8 3 -3 5 7 -7 -2 -1
right_child=4 2 -4 -5 -6 6 -8 -9 -10
leaf_value=-0.013214046451002033 0.0054824236032825048 -0.0096383122549850968 -0.027863088967080035 0.011639776769106006 0.029984667801741943 -0.0091453646248058316 0.024087074666690859 0.029806692989378603 -0.029269687428906913
leaf_weight=25.231084808707237 22.384248614311218 30.8792584836483 29.132527887821198 30.080737516283989 156.37555976212025 25.202778086066246 20.499416768550873 74.709258988499641 214.32505966722965
leaf_count=137 116 133 163 129 876 125 112 412 1346
internal_value=-3.60852e-06 -0.0230468 -0.00934375 0.000909892 0.0253403 0.019395 0.00661689 0.0247665 -0.0278936
internal_weight=628.82 329.649 90.0925 60.96 299.171 142.796 45.7022 97.0935 239.556
internal_count=3549 1908 425 262 1641 765 237 528 1483
is_linear=0
shrinkage=0.025


Tree=39
num_leaves=10
num_cat=0
split_feature=17 75 9 87 49 106 102 49 73
split_gain=576.827 22.6801 13.7591 19.0006 8.193 8.27022 6.6549 5.46972 2.10829
threshold=62.000000000000007 159.50000000000003 15.500000000000002 119.50000000000001 89.500000000000014 -1.1285000000000001 16.400000000000009 14.500000000000002 80.724153982552181
decision_type=2 2 2 2 2 2 2 2 10
left_child=4 2 7 -4 5 -1 -7 -2 -5
right_child=1 -3 3 8 -6 6 -8 -9 -10
leaf_value=0.0035349696488139442 -0.029431591304861324 -0.0001540719982381848 0.0010698807286758829 -0.01214148215210962 0.028430149409165717 0.0077330866989007169 0.026046508291286109 -0.011672965516300175 -0.028896635549208911
leaf_weight=23.878215432167053 200.43953354656696 25.757936879992485 31.130119726061821 20.549339085817337 195.28319281339645 23.424530074000359 52.812161415815353 21.475454211235046 25.91576175391674
leaf_count=108 1285 129 140 101 1157 111 266 119 133
internal_value=-1.33107e-06 -0.0228076 -0.024713 -0.0141039 0.0250643 0.0174352 0.0212726 -0.0280191 -0.0234347
internal_weight=620.666 325.268 299.51 77.5952 295.398 100.115 76.2367 221.915 46.4651
internal_count=3549 1907 1778 374 1642 485 377 1404 234
is_linear=0
shrinkage=0.025


Tree=40
num_leaves=10
num_cat=0
split_feature=103 9 93 83 19 106 96 43 67
split_gain=557.112 33.2085 29.2215 13.6547 7.97458 11.6866 5.46653 5.00354 9.70146
threshold=-15.499999999999998 15.500000000000002 26.725000000000005 10.618507232084154 90.500000000000014 -1.1285000000000001 151.01000000000008 143.50000000000003 103.17000000000003
decision_type=2 2 2 2 2 2 2 2 2
left_child=1 7 3 -3 5 -2 -7 -1 -9
right_child=4 2 -4 -5 -6 6 -8 8 -10
leaf_value=-0.029115899372430365 0.0016761773823324904 -0.0096875322505486135 -0.027584479801644003 0.012208930242486231 0.028347728602729244 0.027852553974203526 0.011067412510110524 -0.024641134451391922 0.00018234955585056612
leaf_weight=198.32474999129772 24.205647602677345 30.479032382369041 28.356088206171989 30.739228039979935 190.90343201160431 43.142555147409439 30.956699818372726 19.669922649860382 15.917641982436178
leaf_count=1270 109 132 162 132 1147 223 154 126 94
internal_value=-4.57908e-06 -0.0223876 -0.00874949 0.00136116 0.0249779 0.0173544 0.0220146 -0.0273074 -0.0148218
internal_weight=612.695 323.487 89.5743 61.2183 289.208 98.3049 74.0993 233.912 35.5876
internal_count=3549 1916 426 264 1633 486 377 1490 220
is_linear=0
shrinkage=0.025


Tree=41
num_leaves=11
num_cat=0
split_feature=17 75 9 87 49 82 94 49 73 86
split_gain=538.594 21.988 13.5708 18.7017 8.22152 8.32988 8.94995 5.68351 2.18536 0.754534
threshold=62.000000000000007 159.50000000000003 15.500000000000002 119.50000000000001 89.500000000000014 0.77405575413483441 0.357154854943808 14.500000000000002 80.724153982552181 -27.799938214784046
decision_type=2 2 2 2 2 2 2 2 10 2
left_child=4 2 7 -4 5 6 -1 -2 -5 -8
right_child=1 -3 3 8 -6 -7 9 -9 -10 -11
leaf_value=0.0055060336893864963 -0.02905490997244653 0 0.0013114520766175821 -0.01178785837083992 0.027953799993286167 0.0027927686724816582 0.01412448106975916 -0.011129140224058238 -0.028561732600846219 0.029783041869642396
leaf_weight=22.048964485526085 193.55587413907051 25.53424958884716 30.99161134660244 20.325629279017448 189.00839120149612 22.844617664813995 19.219282403588295 21.092814311385155 25.462325572967529 34.582363367080688
leaf_count=101 1285 129 140 101 1157 104 102 119 133 178
internal_value=-6.54667e-06 -0.0223238 -0.0242413 -0.0137124 0.0245331 0.0169262 0.020716 -0.0275982 -0.0230585 0.0259086
internal_weight=604.666 316.963 291.428 76.7796 287.704 98.6952 75.8506 214.649 45.788 53.8016
internal_count=3549 1907 1778 374 1642 485 381 1404 234 280
is_linear=0
shrinkage=0.025


Tree=42
num_leaves=11
num_cat=0
split_feature=49 9 93 73 59 96 77 94 28 75
split_gain=520.525 32.0499 27.9174 12.126 9.38588 14.7067 23.6368 14.7398 5.50123 9.63528
threshold=19.500000000000004 15.500000000000002 26.725000000000005 77.993970214384262 7.6931111111111123 151.01000000000008 74.013973958606485 0.36894256769604544 143.50000000000003 89.500000000000014
decision_type=2 2 2 10 8 2 2 2 2 2
left_child=1 8 3 -3 5 7 -7 -2 -1 -10
right_child=4 2 -4 -5 -6 6 -8 -9 9 -11
leaf_value=-0.028960524916942426 0.0042085480072668238 0.013734911197427858 -0.027196535130513146 -0.0073603855912282943 0.029146870603987841 -0.010130810808125251 0.023180982741742018 0.028887390077698884 -0.024186044687551322 0.00068040982405048148
leaf_weight=189.95780567824841 21.606652662158012 23.744884178042412 27.857932522892952 36.811958581209183 147.66257359087467 24.650628313422203 19.480599641799927 70.490649744868279 18.964116111397743 15.636785119771956
leaf_count=1264 116 100 163 162 876 125 112 412 126 93
internal_value=-6.25186e-06 -0.0220795 -0.00863424 0.00128982 0.0242806 0.018143 0.00538557 0.0236382 -0.027059 -0.0142183
internal_weight=596.865 312.973 88.4148 60.5568 283.891 136.229 44.1312 92.0973 224.559 34.6009
internal_count=3549 1908 425 262 1641 765 237 528 1483 219
is_linear=0
shrinkage=0.025


Tree=43
num_leaves=11
num_cat=0
split_feature=17 87 9 93 98 49 82 94 49 86
split_gain=503.321 21.7289 15.6062 19.7308 15.537 8.40365 8.18749 8.67616 5.81588 0.832273
threshold=62.000000000000007 280.00000000000006 15.500000000000002 26.725000000000005 -29.510556964331425 89.500000000000014 0.77405575413483441 0.357154854943808 14.500000000000002 -27.799938214784046
decision_type=2 2 2 2 2 2 2 2 2 2
left_child=5 2 8 4 -4 6 7 -1 -2 -9
right_child=1 -3 3 -5 -6 -7 -8 9 -10 -11
leaf_value=0.0052396637253319554 -0.0286942557782928 0.0013464313271032268 -0.015312489629808499 -0.027337024816014424 0.010964275390036991 0.027520783697768437 0.0024280331452027847 0.013653099456363291 -0.010659779782469804 0.029266542213146698
leaf_weight=21.904273718595505 191.28147219121456 22.631758078932762 22.009203031659126 27.780926927924156 24.378557965159416 183.09951980412006 22.683662414550781 18.875656396150589 20.704007774591446 33.689208984375
leaf_count=101 1318 101 101 164 104 1157 104 102 119 178
internal_value=-5.78017e-06 -0.021859 -0.0236945 -0.0124746 -0.00173122 0.0240247 0.0163868 0.020187 -0.0272306 0.0253762
internal_weight=589.038 308.786 286.154 74.1687 46.3878 280.252 97.1528 74.4691 211.985 52.5649
internal_count=3549 1907 1806 369 205 1642 485 381 1437 280
is_linear=0
shrinkage=0.025


Tree=44
num_leaves=10
num_cat=0
split_feature=17 75 9 87 49 106 102 49 73
split_gain=486.348 21.4874 13.1731 18.0397 8.41864 8.23702 6.62237 5.81216 2.2283
threshold=62.000000000000007 159.50000000000003 15.500000000000002 119.50000000000001 89.500000000000014 -1.1285000000000001 16.400000000000009 14.500000000000002 80.724153982552181
decision_type=2 2 2 2 2 2 2 2 10
left_child=4 2 7 -4 5 -1 -7 -2 -5
right_child=1 -3 3 8 -6 6 -8 -9 -10
leaf_value=0.0024305880196102011 -0.028524646411795685 0.00035646875053038472 0.0015275852735757349 -0.011327432845583473 0.027298618561678169 0.0067063707714243997 0.024901793943734513 -0.010491437629608327 -0.028051167632168646
leaf_weight=23.366377294063568 183.41421066224575 25.143308356404305 30.774552598595619 19.991085931658745 180.05398909747601 22.778671979904175 50.36075533926487 20.591962695121765 24.754988163709641
leaf_count=108 1285 129 140 101 1157 111 266 119 133
internal_value=-3.84997e-06 -0.0216288 -0.0235867 -0.0132028 0.0237713 0.0161451 0.0200587 -0.0270109 -0.0225193
internal_weight=581.23 304.67 279.527 75.5206 276.56 96.5058 73.1394 204.006 44.7461
internal_count=3549 1907 1778 374 1642 485 377 1404 234
is_linear=0
shrinkage=0.025


Tree=45
num_leaves=11
num_cat=0
split_feature=49 93 87 94 91 103 103 82 53 54
split_gain=470.022 25.4655 9.53741 22.5038 16.9183 8.25953 8.55155 1.22485 0.515513 5.32761
threshold=19.500000000000004 -2116.3400000000006 143.50000000000003 0.37194565995377876 603.9000000000002 -22.349999999999998 -62.749999999999993 0.77405575413483441 8.5428136967786745 90.538104388917588
decision_type=2 2 2 2 2 2 2 2 10 10
left_child=1 -1 3 -2 7 6 -3 -5 -8 -10
right_child=2 5 -4 4 -6 -7 8 -9 9 -11
leaf_value=0.006633443867049487 -0.0050981605046210741 -0.0082850483611732282 0.029459988044546765 0.028963499490554795 0.004393132295145109 -0.0040410326776197285 -0.029299904749717692 0.015224735932551399 -0.023538768239108582 -0.0058357075219201537
leaf_weight=16.896003186702728 20.41889962553978 25.981726706027985 117.98494748771191 78.387808486819267 30.324755802750587 15.980484485626219 111.20926706492901 25.704559132456779 114.34897136688232 16.415705114603043
leaf_count=78 107 153 743 473 174 97 760 144 719 101
internal_value=-6.98642e-06 -0.0213939 0.0235274 0.018211 0.0218256 -0.0231563 -0.0241922 0.0264471 -0.0256878 -0.0216316
internal_weight=573.653 300.832 272.821 154.836 134.417 283.936 267.956 104.092 241.974 130.765
internal_count=3549 1908 1641 898 791 1830 1733 617 1580 820
is_linear=0
shrinkage=0.025


Tree=46
num_leaves=11
num_cat=0
split_feature=17 87 9 93 87 49 82 94 49 86
split_gain=454.348 20.7876 15.9203 19.7407 14.5016 8.62398 8.13148 8.25062 5.8792 1.09172
threshold=62.000000000000007 280.00000000000006 15.500000000000002 26.725000000000005 124.50000000000001 89.500000000000014 0.77405575413483441 0.357154854943808 14.500000000000002 -27.799938214784046
decision_type=2 2 2 2 2 2 2 2 2 2
left_child=5 2 8 4 -4 6 7 -1 -2 -9
right_child=1 -3 3 -5 -6 -7 -8 9 -10 -11
leaf_value=0.0049255490158931292 -0.028214845405430497 0.0015328098043442518 0.011816318036621712 -0.026867542397788293 -0.013655119419011444 0.026891942066825655 0.0017990375993802222 0.012834888848009294 -0.010126062607393106 0.028620193112725179
leaf_weight=21.752185434103012 181.61238406598568 22.485747218132019 22.7511997371912 26.801031157374382 23.131537646055222 174.36880840361118 22.418967425823212 18.300264343619347 20.279720857739449 32.497351348400116
leaf_count=101 1318 101 96 164 109 1157 104 102 119 178
internal_value=-4.9369e-06 -0.021162 -0.0230237 -0.0117224 -0.00105581 0.0232812 0.0156132 0.0194586 -0.0266986 0.0246379
internal_weight=566.399 297.062 274.576 72.6838 45.8827 269.338 94.9688 72.5498 201.892 50.7976
internal_count=3549 1907 1806 369 205 1642 485 381 1437 280
is_linear=0
shrinkage=0.025


Tree=47
num_leaves=10
num_cat=0
split_feature=17 75 9 93 13 49 106 49 86
split_gain=439.094 20.7088 13.4238 15.2211 12.0371 8.62907 8.20463 5.87108 3.5481
threshold=62.000000000000007 159.50000000000003 15.500000000000002 26.725000000000005 172.50000000000003 89.500000000000014 -1.1285000000000001 14.500000000000002 -17.971563767747686
decision_type=2 2 2 2 2 2 2 2 2
left_child=5 2 7 4 -4 6 -1 -2 -8
right_child=1 -3 3 -5 -6 -7 8 -9 -10
leaf_value=0.0017809627464386161 -0.028051605894378603 0.00068910435192142609 -0.015112236739961555 -0.026478095892507016 0.0075988640285124948 0.026682050422814386 0.024012212789615881 -0.0099654108898883792 0.0096317530862117234
leaf_weight=23.052997797727585 174.02538983523846 24.821717694401741 22.861152127385139 25.263090789318085 25.932785183191299 171.42342068254948 43.005733385682106 20.173436850309372 28.278451204299927
leaf_count=108 1285 129 106 157 111 1157 230 119 147
internal_value=-2.67578e-06 -0.0209411 -0.0229276 -0.0124884 -0.00341098 0.023039 0.0153841 -0.0264827 0.0193455
internal_weight=558.838 293.078 268.256 74.057 48.7939 265.761 94.3372 194.199 71.2842
internal_count=3549 1907 1778 374 217 1642 485 1404 377
is_linear=0
shrinkage=0.025


Tree=48
num_leaves=12
num_cat=0
split_feature=103 9 85 81 19 106 43 67 96 57 64
split_gain=424.892 31.2895 24.4259 41.9132 8.59096 11.231 6.24986 10.4175 5.98343 1.08733 0.251151
threshold=-15.499999999999998 15.500000000000002 77.246271009102045 -181.34999999999997 90.500000000000014 -1.1285000000000001 143.50000000000003 105.39500000000001 151.01000000000008 82.879999999999924 84.315000000000069
decision_type=2 2 2 2 2 2 2 2 2 2 2
left_child=1 6 3 -3 5 -2 9 -8 -7 -1 -6
right_child=4 2 -4 -5 10 8 7 -9 -10 -11 -12
leaf_value=-0.028727891858130059 7.0416197946354699e-05 0.027436888743932193 -0.024371659058606936 -0.013157982810761137 0.013960766653301366 0.026227950913512651 -0.023146787343540622 0.003006188812464301 0.0090352664055557974 -0.012274447783990601 0.027672167689195771
leaf_weight=160.0312010794878 23.421095982193947 20.57825967669487 28.240603595972061 37.054083198308945 17.85246467590332 39.535828799009323 17.393974661827091 14.512964829802511 29.20683665573597 13.837800964713095 149.85854624211788
leaf_count=1172 109 86 152 188 120 223 127 93 154 98 1027
internal_value=-4.73728e-06 -0.0205583 -0.00728146 0.00233012 0.0230051 0.0152748 -0.0257829 -0.0123876 0.0200651 -0.0278121 0.0266735
internal_weight=551.524 291.649 85.8729 57.6323 259.875 92.1638 205.776 31.9069 68.7427 173.869 167.711
internal_count=3549 1916 426 274 1633 486 1490 220 377 1270 1147
is_linear=0
shrinkage=0.025


Tree=49
num_leaves=11
num_cat=0
split_feature=49 9 93 83 59 96 78 94 28 63
split_gain=410.881 30.5578 25.2803 11.7344 10.7956 15.0006 23.3125 15.1768 6.53612 10.5228
threshold=19.500000000000004 15.500000000000002 26.725000000000005 10.618507232084154 7.6931111111111123 151.01000000000008 26.622190134430522 0.36894256769604544 143.50000000000003 24.500000000000004
decision_type=2 2 2 2 8 2 2 2 2 2
left_child=1 8 3 -3 5 7 -7 -2 -1 -10
right_child=4 2 -4 -5 -6 6 -8 -9 9 -11
leaf_value=-0.027879716046964011 0.0022272111880920599 -0.00837014489472181 -0.025938904010707094 0.012149870413798169 0.027886472801476478 0.02051287782111166 -0.013237450715096317 0.027527693741399257 -0.023070942491441093 0.0032706321220420881
leaf_weight=168.90443903207779 20.378428161144257 30.186874330043793 25.373308569192886 29.562893226742744 133.37518133223057 19.550556614995003 21.821662589907646 63.554235547780991 17.127712115645412 14.407597705721853
leaf_count=1264 116 133 163 129 876 122 115 412 125 94
internal_value=-3.39077e-06 -0.0205132 -0.00735034 0.00189831 0.022588 0.0160755 0.00314956 0.0218836 -0.0257761 -0.0121672
internal_weight=544.243 285.563 85.1231 59.7498 258.68 125.305 41.3722 83.9327 200.44 31.5353
internal_count=3549 1908 425 262 1641 765 237 528 1483 219
is_linear=0
shrinkage=0.025


Tree=50
num_leaves=11
num_cat=0
split_feature=103 9 93 83 19 106 102 96 49 64
split_gain=397.236 30.3878 25.1705 12.2888 8.76344 11.0361 6.31859 5.86303 1.81007 0.360341
threshold=-15.499999999999998 15.500000000000002 26.725000000000005 10.618507232084154 90.500000000000014 -1.1285000000000001 -66.84999999999998 151.01000000000008 14.500000000000002 84.315000000000069
decision_type=2 2 2 2 2 2 2 2 2 2
left_child=1 6 3 -3 5 -2 -1 -7 -8 -6
right_child=4 2 -4 -5 9 7 8 -9 -10 -11
leaf_value=-0.0094917801603820948 -8.3270998649758585e-05 -0.0085746184339578514 -0.025819569256628212 0.012363138222975275 0.013535036464372586 0.025764320946301201 -0.028255746097964458 0.0086985527655965549 -0.013041536272443165 0.027314648647168718
leaf_weight=21.895252630114555 23.260296657681465 29.872315362095833 24.871228784322739 30.302622601389885 17.467271655797958 38.505031630396843 158.22172966599464 28.91123940050602 18.888249054551125 144.83124753832817
leaf_count=137 109 132 162 132 120 223 1237 154 116 1027
internal_value=-4.45852e-06 -0.0201352 -0.00703892 0.00207034 0.0225417 0.0147738 -0.02541 0.0195862 -0.0270495 0.0262954
internal_weight=537.026 284.051 85.0462 60.1749 252.975 90.6766 199.005 67.4163 177.11 162.299
internal_count=3549 1916 426 264 1633 486 1490 377 1353 1147
is_linear=0
shrinkage=0.025


Tree=51
num_leaves=11
num_cat=0
split_feature=17 83 8 103 49 82 94 98 9 86
split_gain=384.211 20.1396 10.0608 9.04642 8.79862 8.01376 8.24043 6.59062 10.3969 1.49807
threshold=62.000000000000007 22.879815223386654 2001.9413760000002 -62.749999999999993 89.500000000000014 0.77405575413483441 0.357154854943808 -12.964656438223761 15.500000000000002 -27.799938214784046
decision_type=2 2 2 2 2 2 2 2 2 2
left_child=4 2 3 -2 5 6 -1 -5 -9 -8
right_child=1 -3 -4 7 -6 -7 9 8 -10 -11
leaf_value=0.0039999713555252071 -0.0063992482356886793 0.0065898993435630484 -0.00079927850399496919 -0.026617373117574658 0.025914657879179449 0.00086574481896335438 0.011658127718621143 -0.020862339620502501 0.0032903245252467852 0.027831702087818089
leaf_weight=21.271678850054741 23.967052184045315 14.432129189372061 14.300764136016367 182.95232492685318 160.4092129021883 21.987004190683365 17.421058639883995 27.41865761578083 14.877393737435339 30.853431209921837
leaf_count=101 148 84 90 1287 1157 104 102 221 77 178
internal_value=-4.18559e-06 -0.020106 -0.0216729 -0.0228216 0.0221226 0.0144531 0.018369 -0.0243812 -0.0128642 0.0236839
internal_weight=529.891 277.948 263.516 249.215 251.942 91.5332 69.5462 225.248 42.2961 48.2745
internal_count=3549 1907 1823 1733 1642 485 381 1585 298 280
is_linear=0
shrinkage=0.025


Tree=52
num_leaves=11
num_cat=0
split_feature=49 9 93 8 59 96 77 94 43 67
split_gain=371.287 29.9818 24.2473 11.6388 11.1916 14.6842 22.8256 15.2356 6.8749 10.8619
threshold=19.500000000000004 15.500000000000002 26.725000000000005 1002.7516160000001 7.6931111111111123 151.01000000000008 74.013973958606485 0.36894256769604544 143.50000000000003 110.97500000000001
decision_type=2 2 2 2 8 2 2 2 2 2
left_child=1 8 3 -3 5 7 -7 -2 -1 -10
right_child=4 2 -4 -5 -6 6 -8 -9 9 -11
leaf_value=-0.027455181193515782 0.0014966898724376749 -0.0064486727870949143 -0.025436104611354933 0.01440228902853753 0.027379513087408342 -0.01264217666476909 0.021251446695174894 0.026980755106612738 -0.02259531231982553 0.0043351499870932595
leaf_weight=160.35439951717854 19.938822016119957 36.222340136766434 24.348791405558586 23.236180558800697 127.42742004990578 23.252464964985847 17.202824831008911 60.649124622344971 16.644106529653076 13.856230124831198
leaf_count=1263 116 162 163 100 876 125 112 412 129 91
internal_value=0 -0.0198644 -0.00682019 0.00214613 0.021912 0.0152786 0.00246769 0.0211606 -0.0252593 -0.011403
internal_weight=523.133 274.662 83.8073 59.4585 248.471 121.043 40.4553 80.5879 190.855 30.5003
internal_count=3549 1908 425 262 1641 765 237 528 1483 220
is_linear=0
shrinkage=0.025


Tree=53
num_leaves=11
num_cat=0
split_feature=17 75 9 87 87 94 91 49 73 82
split_gain=359.149 19.5147 13.13 17.4715 9.00603 24.7719 18.3606 6.56044 2.90134 2.61786
threshold=62.000000000000007 159.50000000000003 15.500000000000002 119.50000000000001 148.50000000000003 0.37194565995377876 603.9000000000002 14.500000000000002 80.724153982552181 0.77405575413483441
decision_type=2 2 2 2 2 2 2 2 10 2
left_child=4 2 7 -4 5 -1 9 -2 -5 -7
right_child=1 -3 3 8 -6 6 -8 -9 -10 -11
leaf_value=-0.0074451083875067938 -0.027203495396731021 0.001544666328545454 0.0029956879109739112 -0.0095071442006814458 0.027906950778722257 0.028640046462206532 0.0024688102207306652 -0.008385241225721653 -0.026914293753589315 0.013314351544710522
leaf_weight=20.411823138594627 156.55301836133003 23.826965361833572 29.82340532541275 18.811940476298332 101.03812666237354 71.330975979566574 28.77136193215847 18.932965233922005 22.963598549365997 23.7300915569067
leaf_count=114 1285 129 140 101 716 489 179 119 133 144
internal_value=0 -0.0196735 -0.0217196 -0.011419 0.0216836 0.0165187 0.0206238 -0.0254756 -0.0209833 0.0256958
internal_weight=516.194 270.912 247.085 71.5989 245.282 144.244 123.832 175.486 41.7755 95.0611
internal_count=3549 1907 1778 374 1642 926 812 1404 234 633
is_linear=0
shrinkage=0.025


Tree=54
num_leaves=11
num_cat=0
split_feature=103 9 93 73 19 106 67 83 96 64
split_gain=347.357 29.4586 24.1483 11.8036 9.09779 10.9307 7.06708 28.8214 5.88739 0.636099
threshold=-15.499999999999998 15.500000000000002 26.725000000000005 77.993970214384262 90.500000000000014 -1.1285000000000001 139.01000000000002 11.970924133811232 151.01000000000008 84.315000000000069
decision_type=2 2 2 10 2 2 2 2 2 2
left_child=1 6 3 -3 5 -2 -1 -8 -7 -6
right_child=4 2 -4 -5 9 8 7 -9 -10 -11
leaf_value=-0.027782449550992051 -0.00091547166207627299 0.014582583405087994 -0.025264381295066887 -0.0063401139264417086 0.012627681157109993 0.025019621819017582 0.01256609058090476 -0.025775502475415359 0.0079201403146369458 0.026660291828898994
leaf_weight=139.80134427547455 22.8228809684515 23.771754041314125 23.69654868543148 35.895685032010078 16.657605454325676 36.650211855769157 14.522855639457701 32.131333559751511 28.201412916183472 135.37628573179245
leaf_count=1142 109 102 162 162 120 223 97 251 154 1027
internal_value=0 -0.0192923 -0.00639081 0.00243992 0.0216606 0.013807 -0.02473 -0.0137308 0.0187187 0.0255898
internal_weight=509.528 269.82 83.364 59.6674 239.708 87.6745 186.456 46.6542 64.8516 152.034
internal_count=3549 1916 426 264 1633 486 1490 348 377 1147
is_linear=0
shrinkage=0.025


Tree=55
num_leaves=11
num_cat=0
split_feature=17 83 8 103 87 94 91 87 102 76
split_gain=335.842 19.3195 9.87402 9.19559 9.09272 24.0081 18.1942 8.75679 1.74358 0.730801
threshold=62.000000000000007 22.879815223386654 2001.9413760000002 -62.749999999999993 148.50000000000003 0.37194565995377876 603.9000000000002 51.500000000000007 -13.049999999999999 312
decision_type=2 2 2 2 2 2 2 2 2 2
left_child=4 2 3 -2 5 -1 9 -5 -9 -7
right_child=1 -3 -4 7 -6 6 -8 8 -10 -11
leaf_value=-0.0075410043264268097 -0.005504534816210307 0.007029141051650198 -0.00012364716193855052 -0.004491029476489901 0.027573463368470427 0.01584081992411095 0.0021011619334779532 -0.026692570466601617 -0.014966122953341971 0.02837239884098694
leaf_weight=20.276203259825706 23.192846581339836 14.066187828779219 13.867118611931799 16.647940114140511 97.722174853086472 30.199505254626274 28.440976768732071 162.78028482943773 33.365417324006557 62.190046951174736
leaf_count=114 148 84 90 114 716 196 179 1215 256 437
internal_value=0 -0.0192656 -0.0208646 -0.0220451 0.0212485 0.0160574 0.0201795 -0.0236687 -0.0251319 0.0253254
internal_weight=502.749 263.92 249.854 235.986 238.829 141.107 120.831 212.794 196.146 92.3896
internal_count=3549 1907 1823 1733 1642 926 812 1585 1471 633
is_linear=0
shrinkage=0.025


Tree=56
num_leaves=11
num_cat=0
split_feature=103 9 93 83 19 106 67 83 96 59
split_gain=324.691 29.4471 23.6394 11.4421 9.24822 10.6361 7.24314 28.3187 5.93079 0.766945
threshold=-15.499999999999998 15.500000000000002 26.725000000000005 10.618507232084154 90.500000000000014 -1.1285000000000001 139.01000000000002 11.970924133811232 151.01000000000008 3.2517777777777783
decision_type=2 2 2 2 2 2 2 2 2 8
left_child=1 6 3 -3 5 -2 -1 -8 -7 -6
right_child=4 2 -4 -5 9 8 7 -9 -10 -11
leaf_value=-0.027544855169178047 -0.0011489304574554755 -0.0076861968815170947 -0.024924003755594837 0.012658143050262419 0.011409183840662142 0.024631254676061295 0.012663163672652461 -0.025508828962899424 0.0074876412719032106 0.026234877589685703
leaf_weight=135.14981989562511 22.68961837887764 29.397087723016739 23.003000840544701 29.929746314883232 14.102989569306372 35.757296442985535 14.472725808620451 31.166825458407402 27.838729932904243 133.02123089879751
leaf_count=1142 109 132 162 132 105 223 97 251 154 1042
internal_value=6.31363e-07 -0.0188688 -0.00595654 0.00272457 0.0212319 0.0133425 -0.0244169 -0.0132996 0.018256 0.0252519
internal_weight=496.529 263.119 82.3298 59.3268 233.41 86.2856 180.789 45.6396 63.596 147.124
internal_count=3549 1916 426 264 1633 486 1490 348 377 1147
is_linear=0
shrinkage=0.025


Tree=57
num_leaves=13
num_cat=0
split_feature=50 9 85 83 59 96 77 94 28 87 19 91
split_gain=313.989 28.8426 22.8311 32.7632 11.8309 14.4532 22.2588 14.9681 7.52196 11.587 0.613214 0.226936
threshold=80.500000000000014 15.500000000000002 77.246271009102045 9.8714879993865559 7.6931111111111123 151.01000000000008 74.013973958606485 0.36894256769604544 143.50000000000003 168.50000000000003 88.500000000000014 91.545000000000016
decision_type=2 2 2 2 8 2 2 2 2 2 2 2
left_child=4 8 3 -3 5 7 -7 -1 11 -10 -6 -2
right_child=1 2 -4 -5 10 6 -8 -9 9 -11 -12 -13
leaf_value=0.00062354352789711443 -0.012104060893031598 -0.013262633108429945 -0.023092478305269573 0.022316482631826208 0.012140502235886464 -0.013594979764288679 0.020419697869735732 0.026134227548098028 -0.021923228554242894 0.0063019300825231817 0.027816371327629381 -0.02765675009925251
leaf_weight=19.392179489135742 12.430160596966742 30.212680086493492 26.421147540211678 25.018401145935059 13.615354508161543 22.682792216539383 16.260482549667358 56.052884325385094 15.604267440736296 12.921559780836104 104.50315754115582 134.82203825563192
leaf_count=116 104 153 152 120 76 125 112 412 130 89 800 1160
internal_value=2.17198e-06 -0.0188411 -0.00603216 0.00332706 0.0208333 0.0139969 0.00125811 0.0200544 -0.0244458 -0.0100302 0.0265962 -0.0268009
internal_weight=489.937 257.43 81.6522 55.2311 232.507 114.388 38.9433 75.4451 175.778 28.5258 118.119 147.252
internal_count=3549 1908 425 273 1641 765 237 528 1483 219 876 1264
is_linear=0
shrinkage=0.025


Tree=58
num_leaves=11
num_cat=0
split_feature=17 75 9 91 49 106 49 102 96 64
split_gain=303.848 18.5615 13.1044 15.4593 9.41564 9.09647 7.00806 6.81248 0.930665 0.0122926
threshold=62.000000000000007 159.50000000000003 15.500000000000002 567.87500000000023 91.700000000000017 -1.1285000000000001 14.500000000000002 16.400000000000009 151.01000000000008 87.955000000000055
decision_type=2 2 2 2 2 2 2 2 2 2
left_child=4 2 6 -4 5 -1 -2 -7 -9 -6
right_child=1 -3 3 -5 9 7 -8 8 -10 -11
leaf_value=0.00062644630749806175 -0.026574221956349356 0.0021864075691507699 0.00015199133920058876 -0.022559383304647837 0.012435064654685489 0.0046980518655233283 -0.0072156795782653315 0.026502313040449012 0.013492942807481589 0.026722878544860225
leaf_weight=25.361100196838379 143.33002751320601 23.113016098737717 39.481421314179897 30.162941254675388 13.873015142977236 22.68743708729744 18.005993351340294 32.366994261741638 27.533491604030132 107.68236501514912
leaf_count=134 1285 129 189 185 105 127 119 222 168 886
internal_value=3.02772e-06 -0.0186527 -0.0207507 -0.0105031 0.0206255 0.0140407 -0.0247106 0.0178605 0.0220612 0.0256677
internal_weight=483.598 254.093 230.98 69.6444 229.504 107.949 161.336 82.5879 59.9005 121.555
internal_count=3549 1907 1778 374 1642 651 1404 517 390 991
is_linear=0
shrinkage=0.025


Tree=59
num_leaves=12
num_cat=0
split_feature=103 9 93 73 19 86 85 102 79 49 59
split_gain=293.813 28.3867 22.8838 11.0951 9.30295 8.87319 24.5553 7.59324 7.20633 2.6343 0.89821
threshold=-15.499999999999998 15.500000000000002 26.725000000000005 77.993970214384262 90.500000000000014 -14.926768776131956 18.383340397532098 -66.84999999999998 240.51500000000001 14.500000000000002 3.2517777777777783
decision_type=2 2 2 10 2 2 2 2 2 2 8
left_child=1 7 3 -3 5 6 -2 -1 -8 -9 -6
right_child=4 2 -4 -5 10 -7 8 9 -10 -11 -12
leaf_value=-0.0068915134266242951 -0.014968632770333116 0.014644758106782889 -0.024588207394844346 -0.0057382626199870817 0.010841147178100705 0.025734932628518482 0.025025384970141024 -0.027225373829940044 0.0047687022963023842 -0.011070708216479205 0.025767521273772034
leaf_weight=19.679274417459965 17.983806349337101 23.593681171536446 22.265185408294201 35.442923456430435 13.671371117234228 19.941588319838047 23.031027883291245 134.96959807723761 23.426152512431145 17.213916435837746 126.21319782733917
leaf_count=137 95 102 162 162 105 112 143 1237 136 116 1042
internal_value=1.11569e-05 -0.018275 -0.00560506 0.0028761 0.0206128 0.0127248 0.00709965 -0.0239266 0.0163154 -0.0258243 0.0247504
internal_weight=477.432 253.165 81.3018 59.0366 224.267 84.3826 64.441 171.863 46.4572 152.184 139.885
internal_count=3549 1916 426 264 1633 486 374 1490 279 1353 1147
is_linear=0
shrinkage=0.025


Tree=60
num_leaves=12
num_cat=0
split_feature=17 83 19 80 87 77 95 96 87 8 92
split_gain=284.345 18.2336 10.256 26.2277 9.59812 22.7478 29.8808 18.9843 7.72451 5.46305 0.830981
threshold=62.000000000000007 22.879815223386654 95.500000000000014 602.96000000000015 148.50000000000003 74.521832749143172 8.6590170940170967 151.01000000000008 51.500000000000007 1999.0777600000004 307.17500000000007
decision_type=2 2 2 2 2 2 2 2 2 2 2
left_child=4 2 3 8 5 6 7 10 -2 -10 -1
right_child=1 -3 -4 -5 -6 -7 -8 -9 9 -11 -12
leaf_value=0.025851283598048488 -0.0026673161483093261 0.0075237811375448551 -0.026406350733877176 0.0084323347035768059 0.026873672499942915 0.026166354382412261 -0.018095361133184017 -0.0080913220856398092 -0.024131846529415218 -0.0043568561894102688 0.010347750567366547
leaf_weight=27.683040447533131 17.064937822520733 13.555923007428644 97.151940308511257 22.892748631536961 90.243907161056995 57.279154703021049 19.979891024529934 14.494569033384321 84.161244221031666 12.798985958099363 13.938078969717024
leaf_count=196 122 84 800 144 716 435 110 82 666 91 103
internal_value=1.49179e-05 -0.0182609 -0.0198908 -0.0144825 0.0202205 0.0148924 0.00528522 0.0144501 -0.0192651 -0.0218877 0.0223797
internal_weight=471.244 247.626 234.07 136.918 223.619 133.375 76.0956 56.1157 114.025 96.9602 41.6211
internal_count=3549 1907 1823 1023 1642 926 491 381 879 757 299
is_linear=0
shrinkage=0.025


Tree=61
num_leaves=13
num_cat=0
split_feature=49 9 94 59 95 92 8 28 97 96 19 91
split_gain=274.88 28.1397 21.913 12.2197 15.423 21.011 10.2158 8.09491 11.6521 7.47537 0.821112 0.46092
threshold=19.500000000000004 15.500000000000002 0.52508014415646043 7.6931111111111123 8.6590170940170967 533.62000000000023 1002.0661760000002 143.50000000000003 67.148528869456754 151.01000000000008 88.500000000000014 91.545000000000016
decision_type=2 2 2 8 2 2 2 2 2 2 2 2
left_child=1 7 6 4 9 -6 -3 11 -9 -2 -5 -1
right_child=3 2 -4 10 5 -7 -8 8 -10 -11 -12 -13
leaf_value=-0.011354886673556929 0.024113540782609581 -0.0055738373150790374 -0.02419680854256398 0.01149056657973095 -0.015603725334708824 0.017867922298754658 0.014020707544824804 0.0072853344726749036 -0.02136131247008425 0.0047885907574094378 0.027317515614594209 -0.027241904024319193
leaf_weight=11.844067655503748 52.200047366321087 34.356519997119904 21.698823779821396 13.263243243098257 20.378003060817719 16.779545985162258 23.999841347336769 12.56374701112509 14.532208137214182 20.200227521359921 97.78805523365736 125.75151167064905
leaf_count=104 392 157 163 76 117 125 105 92 127 131 800 1160
internal_value=2.05145e-05 -0.0180433 -0.00539408 0.0200276 0.0130557 -0.000102856 0.00291575 -0.0238371 -0.00893495 0.0194117 0.0260253 -0.026338
internal_weight=465.356 244.747 80.0552 220.609 109.558 37.1575 58.3564 164.692 27.096 72.4003 111.051 137.596
internal_count=3549 1908 425 1641 765 242 262 1483 219 523 876 1264
is_linear=0
shrinkage=0.025


Tree=62
num_leaves=11
num_cat=0
split_feature=17 75 9 87 87 94 91 50 80 74
split_gain=266.129 17.9625 12.9636 17.1985 9.57992 22.5243 18.3307 7.09759 4.61316 4.29783
threshold=62.000000000000007 159.50000000000003 15.500000000000002 119.50000000000001 148.50000000000003 0.37194565995377876 603.9000000000002 85.500000000000014 65.315000000000012 -8.2586602535487739
decision_type=2 2 2 2 2 2 2 2 2 10
left_child=4 2 7 -4 5 -1 8 -2 -7 -5
right_child=1 -3 3 9 -6 6 -8 -9 -10 -11
leaf_value=-0.0084990611450847884 -0.0065817183960472109 0.0027221608445011699 0.0043900511857341172 -0.0068010903394726541 0.02657314509117888 0.010084504614040025 0.00048800259353495509 -0.026097215142463798 0.027679454369528581 -0.026126367281605348
leaf_weight=19.508524224162102 17.512365207076073 22.594162508845329 28.93504835665226 16.537147924304008 87.188456915318966 20.608351871371269 26.944234691560268 133.35431160777807 63.560703672468662 22.645722486078739
leaf_count=114 119 129 140 91 716 137 179 1285 496 143
internal_value=2.04543e-05 -0.0178685 -0.0200175 -0.00984412 0.0198285 0.0144944 0.0187451 -0.0241317 0.0242065 -0.0197194
internal_weight=459.389 241.579 218.985 68.1179 217.81 130.622 111.113 150.867 84.1691 39.1829
internal_count=3549 1907 1778 374 1642 926 812 1404 633 234
is_linear=0
shrinkage=0.025


Tree=63
num_leaves=12
num_cat=0
split_feature=103 9 94 73 19 106 67 83 82 64 64
split_gain=257.434 27.4198 21.7306 10.2966 9.42039 10.2981 8.29856 31.903 6.1082 1.30412 1.13585
threshold=-15.499999999999998 15.500000000000002 0.52508014415646043 77.993970214384262 90.500000000000014 -1.1285000000000001 139.01000000000002 11.659214616402112 0.77405575413483441 138.04500000000004 84.315000000000069
decision_type=2 2 2 10 2 2 2 2 2 2 2
left_child=1 6 3 -3 5 -2 -1 -8 9 -7 -6
right_child=4 2 -4 -5 10 8 7 -9 -10 -11 -12
leaf_value=-0.026785490075973112 -0.002271368653059378 0.014455637239759182 -0.024059168194998516 -0.005254543886863413 0.010799496378299234 0.02630452938081982 0.017324482391875531 -0.024749358907396886 0.0037392016343304364 0.010470673729637066 0.025318739958955162
leaf_weight=119.63319899141788 22.053353205323219 23.47239924967289 21.117231257259846 35.064325422048569 15.095941931009291 24.778965853154659 12.553563334047793 28.944154873490334 18.991540551185608 16.014477901160717 115.8381146043539
leaf_count=1142 109 102 162 162 120 167 87 261 104 106 1027
internal_value=1.95623e-05 -0.0175118 -0.00504751 0.00312523 0.0198171 0.0119085 -0.0233211 -0.0114735 0.0169494 0.0219651 0.024122
internal_weight=453.557 240.785 79.654 58.5367 212.772 81.8383 161.131 41.4977 59.785 40.7934 130.934
internal_count=3549 1916 426 264 1633 486 1490 348 377 273 1147
is_linear=0
shrinkage=0.025


Tree=64
num_leaves=13
num_cat=0
split_feature=17 102 103 77 86 94 73 88 9 59 19 101
split_gain=248.969 17.635 12.2067 9.97756 29.36 12.741 7.9059 13.3277 4.84679 3.52143 1.07368 4.58554
threshold=62.000000000000007 -68.499999999999986 -22.349999999999998 75.943459560092478 -17.971563767747686 0.72823610180192844 76.690677666707884 1402.4800000000002 16.500000000000004 3.1419413919413923 94.500000000000014 -3.9999999999999982
decision_type=2 2 2 2 2 2 8 2 2 8 2 10
left_child=3 -2 6 4 5 9 7 8 -3 -1 11 -8
right_child=1 2 -4 -5 -6 -7 10 -9 -10 -11 -12 -13
leaf_value=0.0090624347933490838 0.0016199916302938756 -0.023261427389154404 0.00060421067438724569 0.026439521834616959 -0.0082660366969084294 -0.0020393800309306503 -0.022042808394201672 0.0064482567096544874 -0.0036505042223402453 0.025774124726092192 -0.027970193168458585 -0.0034480865673174963
leaf_weight=17.520317949354649 25.868563279509544 32.324550345540047 16.325495861470699 83.517057925462723 26.270804949104786 13.362922444939612 29.371922723948956 15.013115674257277 13.081701047718523 71.519788429141045 89.31367964297533 14.176822654902933
leaf_count=127 163 292 109 718 147 91 262 102 65 559 802 112
internal_value=2.58394e-05 -0.0174926 -0.0198458 0.0194333 0.0140483 0.0199144 -0.0215573 -0.012308 -0.0185836 0.023169 -0.0251464 -0.0170195
internal_weight=447.667 235.476 209.607 212.191 128.674 102.403 193.282 60.4194 45.4063 89.0401 132.862 43.5487
internal_count=3549 1907 1744 1642 924 777 1635 459 357 686 1176 374
is_linear=0
shrinkage=0.025


Tree=65
num_leaves=11
num_cat=0
split_feature=103 9 93 83 86 86 94 67 95 59
split_gain=240.851 27.0286 21.2037 10.1535 9.87434 32.8528 16.5088 8.42155 32.4147 5.93431
threshold=-15.499999999999998 15.500000000000002 26.725000000000005 10.618507232084154 -14.926768776131956 -16.259762459626469 0.73916784411398206 139.01000000000002 9.8833136466448845 2.771875000000001
decision_type=2 2 2 2 2 2 2 2 2 8
left_child=1 7 3 -3 5 6 9 -1 -9 -2
right_child=4 2 -4 -5 -6 -7 -8 8 -10 -11
leaf_value=-0.026580764625073652 0.0052170302283816548 -0.0066998666582792276 -0.023796783665989613 0.012630824457825807 0.027137185801145266 -0.016981051967586654 -0.0042244011815523348 0.018132325938976231 -0.024602852997381606 0.024527178058224654
leaf_weight=115.47343448549509 15.011778578162192 28.809252426028252 20.566978290677071 29.493160665035248 72.861517257988453 14.455028705298899 15.306594692170618 12.248656637966631 28.348177529871464 89.660672396421432
leaf_count=1142 106 132 162 132 606 92 98 88 260 731
internal_value=1.95049e-05 -0.0171365 -0.00476041 0.00326464 0.0194208 0.0143976 0.0187262 -0.0230333 -0.0110798 0.0221447
internal_weight=442.235 234.94 78.8694 58.3024 207.296 134.434 119.979 156.07 40.5968 104.672
internal_count=3549 1916 426 264 1633 1027 935 1490 348 837
is_linear=0
shrinkage=0.025


Tree=66
num_leaves=13
num_cat=0
split_feature=17 75 9 87 59 96 78 93 49 74 19 89
split_gain=232.725 17.3555 12.5956 16.909 10.004 14.3004 19.967 13.4056 7.26798 4.68941 0.764648 0.142492
threshold=62.000000000000007 159.50000000000003 15.500000000000002 119.50000000000001 7.6931111111111123 151.01000000000008 26.622190134430522 -176.35999999999999 14.500000000000002 -9.0837596648387144 88.500000000000014 48.474808059831297
decision_type=2 2 2 2 8 2 2 2 2 10 2 2
left_child=4 2 8 -4 5 7 -7 -1 11 -5 -6 -2
right_child=1 -3 3 9 10 6 -8 -9 -10 -11 -12 -13
leaf_value=0.00177281297764425 -0.026457550609733468 0.0032121796456303295 0.0047820352944411421 -0.0059611382990358277 0.010678689750054926 0.017607023017245954 -0.015266208017750095 0.026030461431512938 -0.0058456315774986266 -0.025848063906680901 0.025954906239541654 -0.010571019851853949
leaf_weight=21.301751345396042 113.8952122181654 22.091169230639935 28.638519033789635 15.917850993573664 12.806717440485953 16.283383630216122 20.242497816681862 45.032779432833195 16.909103013575077 22.242539323866367 91.011837609112263 10.082475289702414
leaf_count=153 1187 129 140 89 76 122 116 371 119 145 804 98
internal_value=1.43849e-05 -0.0171191 -0.0193181 -0.00930377 0.0190289 0.0124317 -0.000195545 0.018946 -0.0235675 -0.0192621 0.0246707 -0.0256448
internal_weight=436.456 229.777 207.686 66.7989 206.679 102.86 36.5259 66.3345 140.887 38.1604 103.819 123.978
internal_count=3549 1907 1778 374 1642 762 238 524 1404 234 880 1285
is_linear=0
shrinkage=0.025


Tree=67
num_leaves=11
num_cat=0
split_feature=103 9 93 86 86 94 83 67 95 59
split_gain=225.307 26.2421 20.6292 9.92904 31.7781 16.16 9.70526 8.55945 32.0785 5.91649
threshold=-15.499999999999998 15.500000000000002 26.725000000000005 -14.926768776131956 -16.259762459626469 0.73916784411398206 10.618507232084154 139.01000000000002 9.8445552318373419 2.771875000000001
decision_type=2 2 2 2 2 2 2 2 2 8
left_child=1 7 6 4 5 9 -3 -1 -9 -2
right_child=3 2 -4 -5 -6 -7 -8 8 -10 -11
leaf_value=-0.026372272290905597 0.0049339482403690195 -0.0064839563781621361 -0.023585182987694783 0.026860938743122925 -0.016790994355723819 -0.0043562118907537169 0.012446672082777714 0.018368330571596866 -0.02438199275670902 0.024220777566176958
leaf_weight=111.23476910591125 14.840238973498343 28.670360207557678 20.096244312822819 70.428461126983166 14.486707955598829 15.216089382767676 29.431761562824249 12.130349315702913 27.551055558025837 87.008002258837223
leaf_count=1142 106 132 162 606 92 98 132 87 261 731
internal_value=1.41577e-05 -0.0167804 -0.0045873 0.0190222 0.0139774 0.0183373 0.00329218 -0.0227326 -0.0106645 0.0217963
internal_weight=431.094 229.115 78.1984 201.979 131.551 117.064 58.1021 150.916 39.6814 101.848
internal_count=3549 1916 426 1633 1027 935 264 1490 348 837
is_linear=0
shrinkage=0.025


Tree=68
num_leaves=11
num_cat=0
split_feature=17 83 19 80 77 85 94 87 8 98
split_gain=217.704 17.0684 10.798 24.8328 10.1354 25.0103 11.592 8.1823 6.13152 5.13407
threshold=62.000000000000007 22.879815223386654 95.500000000000014 602.96000000000015 75.943459560092478 17.990666811378386 0.72823610180192844 51.500000000000007 1999.6144640000002 -23.713686313079176
decision_type=2 2 2 2 2 2 2 2 2 2
left_child=4 2 3 7 5 -1 9 -2 -9 -7
right_child=1 -3 -4 -5 -6 6 -8 8 -10 -11
leaf_value=-0.0078208482467212338 -0.00082294767255753189 0.0085452029728468031 -0.025469254672642105 0.0095386686835511048 0.025901406675270189 0.024389990093376085 -0.0021842570123699542 -0.02313694818858111 -0.0022430812607766716 0.0046077805164322395
leaf_weight=25.091344855725765 15.824135884642599 12.741983145475386 85.767522647976875 22.018153585493565 77.892971932888031 72.661424361169338 13.249685101211069 76.313959501683712 11.424867257475851 12.506856694817541
leaf_count=141 122 84 800 144 718 608 91 671 86 84
internal_value=9.01389e-06 -0.0167632 -0.0184628 -0.0128665 0.0186368 0.0132063 0.0187102 -0.0178729 -0.0207108 0.0219293
internal_weight=425.493 224.091 211.349 125.581 201.402 123.509 98.418 103.563 87.7388 85.1683
internal_count=3549 1907 1823 1023 1642 924 783 879 757 692
is_linear=0
shrinkage=0.025


Tree=69
num_leaves=12
num_cat=0
split_feature=103 9 85 81 86 86 94 28 77 13 57
split_gain=210.507 25.988 20.3266 31.1147 9.96875 30.5342 15.5008 8.86571 13.2632 5.95383 2.55277
threshold=-15.499999999999998 15.500000000000002 77.246271009102045 -184.81500000000003 -14.926768776131956 -16.259762459626469 0.73916784411398206 143.50000000000003 17.665041827508862 395.50000000000006 82.879999999999924
decision_type=2 2 2 2 2 2 2 2 2 2 2
left_child=1 7 3 -3 5 6 9 10 -9 -2 -1
right_child=4 2 -4 -5 -6 -7 -8 8 -10 -11 -12
leaf_value=-0.026390285380283048 0.024488332525054307 0.025956823930430323 -0.021231779200371524 -0.0099700289659213712 0.026593328791155925 -0.016481916348133462 -0.0042117476707173767 -0.020415032571669871 0.011060396506064524 0.0068494400665411216 -0.0076708264022094857
leaf_weight=111.57207646220922 78.813601806759834 19.91249118745327 23.924166262149811 33.474968492984772 68.011383511126041 14.547745563089846 15.264322996139525 13.430989645421507 10.894539915025232 20.121169924736023 10.398684293031691
leaf_count=1173 699 85 152 189 606 92 98 136 83 138 98
internal_value=1.1955e-05 -0.0164081 -0.004265 0.00446248 0.0186293 0.0135666 0.0179462 -0.0224557 -0.00675075 0.0214271 -0.025179
internal_weight=420.366 223.608 77.3116 53.3875 196.758 128.747 114.199 146.296 24.3255 98.9348 121.971
internal_count=3549 1916 426 274 1633 1027 935 1490 219 837 1271
is_linear=0
shrinkage=0.025


Tree=70
num_leaves=13
num_cat=0
split_feature=49 9 94 59 95 106 63 28 64 96 87 19
split_gain=203.545 25.6264 19.5355 12.8903 15.1618 20.9022 9.36418 9.11093 12.9422 7.62623 1.78027 1.31771
threshold=19.500000000000004 15.500000000000002 0.52508014415646043 7.6931111111111123 8.6590170940170967 27.127000000000002 29.500000000000004 143.50000000000003 346.08499999999998 151.01000000000008 52.500000000000007 88.500000000000014
decision_type=2 2 2 8 2 2 2 2 2 2 2 2
left_child=1 7 6 4 9 -6 -3 10 -9 -2 -1 -5
right_child=3 2 -4 11 5 -7 -8 8 -10 -11 -12 -13
leaf_value=-0.0078293801664774242 0.022770435583600031 0.012248643995937891 -0.023125549796230795 0.0099660394527497625 -0.021289804030137898 0.013171944918404378 -0.0064677680981955867 -0.020315832392333533 0.010816478649018279 0.0030623209064986772 -0.026401616379068182 0.026271157628416687
leaf_weight=9.0949586331844312 46.260257951915264 29.521659031510353 19.376976512372494 12.405355207622049 14.619198799133299 20.085292138159275 27.766856178641319 13.195711247622969 10.991351053118704 18.819236330688 108.75505978614092 84.076054491102695
leaf_count=85 392 133 163 76 86 156 129 134 85 131 1179 800
internal_value=7.87729e-06 -0.0163976 -0.00432026 0.0182544 0.0110264 -0.00213494 0.00334596 -0.0225308 -0.00665332 0.0177322 -0.0253657 0.0247936
internal_weight=414.968 218.703 76.6655 196.265 99.784 34.7045 57.2885 142.037 24.1871 65.0795 117.85 96.4814
internal_count=3549 1908 425 1641 765 242 262 1483 219 523 1264 876
is_linear=0
shrinkage=0.025


Tree=71
num_leaves=12
num_cat=0
split_feature=17 102 49 94 9 49 87 77 95 96 92
split_gain=196.921 16.8526 11.6741 16.3302 21.7615 13.5286 10.34 22.4182 25.7487 17.5607 1.58789
threshold=62.000000000000007 -68.499999999999986 6.950000000000002 0.52206497361872428 15.500000000000002 14.500000000000002 148.50000000000003 74.521832749143172 8.6590170940170967 151.01000000000008 307.17500000000007
decision_type=2 2 2 2 2 2 2 2 2 2 2
left_child=6 -2 -3 4 5 -4 7 8 9 10 -1
right_child=1 2 3 -5 -6 -7 -8 -9 -10 -11 -12
leaf_value=0.024486915185290323 0.002636387321525626 -0.026526467535554096 -0.022000737575897527 -0.025336287288831777 0.010448205629775846 0.0054657979921792577 0.02543509129030604 0.024660019381699545 -0.018574998649567891 -0.0094776962933261627 0.007901672217056217
leaf_weight=24.103316590189934 24.752445504069328 74.440311469137669 37.222494676709175 37.805686540901661 29.101567253470421 12.754503384232519 75.521688476204872 48.710331380367279 19.564841978251934 13.608216576278208 12.225278370082377
leaf_count=196 163 729 427 376 127 85 716 435 110 82 103
internal_value=5.36624e-06 -0.0162226 -0.0186802 -0.0127795 -0.00559695 -0.015086 0.0180703 0.0125037 0.0028671 0.0122394 0.0205973
internal_weight=409.811 216.077 191.325 116.884 79.0786 49.977 193.734 118.212 69.5017 49.9368 36.3286
internal_count=3549 1907 1744 1015 639 512 1642 926 491 381 299
is_linear=0
shrinkage=0.025


Tree=72
num_leaves=11
num_cat=0
split_feature=103 9 85 81 86 86 94 67 83 13
split_gain=190.478 24.8532 19.0922 29.2744 10.1284 29.1818 14.9627 9.07952 34.1267 6.10243
threshold=-15.499999999999998 15.500000000000002 77.246271009102045 -184.81500000000003 -14.926768776131956 -16.259762459626469 0.73916784411398206 139.01000000000002 11.433597461097458 395.50000000000006
decision_type=2 2 2 2 2 2 2 2 2 2
left_child=1 7 3 -3 5 6 9 -1 -9 -2
right_child=4 2 -4 -5 -6 -7 -8 8 -10 -11
leaf_value=-0.025906393314154882 0.024078996002317037 0.025214945083074022 -0.020694718899913159 -0.009707869563073547 0.026235432431098556 -0.016371735889186594 -0.0043940523621993069 0.021304903686823903 -0.023914832973248826 0.0062448355946011624
leaf_weight=101.87274522334337 75.235462978482246 19.922433942556381 23.264900662004948 33.051127083599567 64.748105190694332 14.496903166174887 15.102233938872812 11.049743749201296 26.295126534998417 19.638565234839916
leaf_count=1142 699 85 152 189 606 92 98 77 271 138
internal_value=5.16959e-06 -0.0158924 -0.00401179 0.00442482 0.0180629 0.0129434 0.0173734 -0.0220165 -0.00954022 0.0209099
internal_weight=404.677 215.456 76.2385 52.9736 189.221 124.473 109.976 139.218 37.3449 94.874
internal_count=3549 1916 426 274 1633 1027 935 1490 348 837
is_linear=0
shrinkage=0.025


Tree=73
num_leaves=14
num_cat=0
split_feature=17 75 73 92 87 77 95 96 66 13 9 92 62
split_gain=184.023 16.2201 12.3277 25.0077 10.3066 21.7728 24.5302 17.0806 9.2434 4.22149 12.539 1.66681 0.957333
threshold=62.000000000000007 159.50000000000003 76.690677666707884 782.6450000000001 148.50000000000003 74.521832749143172 8.6590170940170967 151.01000000000008 82.221351361203276 294.50000000000006 15.500000000000002 307.17500000000007 -7.18711504129866
decision_type=2 2 8 2 2 2 2 2 10 2 2 2 10
left_child=4 2 3 8 5 6 7 11 12 -4 -11 -1 -2
right_child=1 -3 9 -5 -6 -7 -8 -9 -10 10 -12 -13 -14
leaf_value=0.024260576624218506 -0.025778830097493811 0.0039977518622521723 -0.026470753437876263 0.01752727987626158 0.025160671657956903 0.024340424873446991 -0.018172859420448412 -0.0094681343197518808 -9.0220840944393751e-05 -0.022603324990971396 0.0045158322096858026 0.0075670269449276675 -0.0097371132000702125
leaf_weight=23.512379296123981 25.353476777672764 21.118958532810211 82.885008089244366 13.467660777270792 72.975326158106327 47.058984182775021 19.662833206355572 13.52372671663761 16.689144857227802 23.830453723669052 14.419619239866732 12.001691550016401 12.929057866334917
leaf_count=196 207 129 851 89 716 435 110 82 141 295 79 103 116
internal_value=5.17293e-06 -0.0158733 -0.0181456 -0.00868504 0.0176961 0.0121227 0.00263634 0.011936 -0.0160744 -0.0229147 -0.0129819 0.0203109 -0.0221696
internal_weight=399.428 210.693 189.574 68.4393 188.735 115.76 68.7006 49.0378 54.9717 121.135 38.2501 35.5141 38.2825
internal_count=3549 1907 1778 553 1642 926 491 381 464 1225 374 299 323
is_linear=0
shrinkage=0.025


Tree=74
num_leaves=13
num_cat=0
split_feature=103 9 93 86 86 94 21 28 64 59 57 89
split_gain=178.155 24.3624 18.6488 10.0672 28.1759 14.465 9.38056 9.15718 13.5351 6.1735 2.69794 1.09465
threshold=-15.499999999999998 15.500000000000002 26.725000000000005 -14.926768776131956 -16.259762459626469 0.73916784411398206 2.5000000000000004 143.50000000000003 369.03499999999991 2.771875000000001 82.879999999999924 52.120324049623477
decision_type=2 2 2 2 2 2 2 2 2 8 2 2
left_child=1 7 6 4 5 9 -3 10 -9 -2 -1 -11
right_child=3 2 -4 -5 -6 -7 -8 8 -10 11 -12 -13
leaf_value=-0.025927085181692001 0.0035267252107917357 -0.008450024645117923 -0.02271176282235372 0.025971491850213142 -0.016162098438999861 -0.0043509424450407942 0.010804732980404925 -0.019915493042391971 0.012379664215420701 0.012706817689876214 -0.006884808707934416 0.025976636307435491
leaf_weight=101.99322105944157 13.939137563109396 20.990656942129135 18.275837481021881 62.479187503457069 14.506818160414694 15.06843753159046 36.144791305065155 12.702138118445875 10.345739014446734 22.441286854445934 9.8068690299987775 55.946540087461472
leaf_count=1173 106 102 162 606 92 98 162 138 81 195 98 536
internal_value=3.46078e-06 -0.0155498 -0.00377681 0.0176951 0.0125773 0.0170279 0.00357987 -0.0217453 -0.00570709 0.020587 -0.0246444 0.0231974
internal_weight=394.641 210.259 75.4113 184.381 121.902 107.395 57.1354 134.848 23.0479 92.327 111.8 78.3878
internal_count=3549 1916 426 1633 1027 935 264 1490 219 837 1271 731
is_linear=0
shrinkage=0.025


Tree=75
num_leaves=14
num_cat=0
split_feature=49 9 85 83 59 95 92 28 64 96 88 19 96
split_gain=172.326 24.0117 18.0718 26.8118 12.9569 14.3724 18.274 9.39691 13.4278 7.51995 2.27903 1.56984 0.117378
threshold=19.500000000000004 15.500000000000002 77.246271009102045 9.8714879993865559 7.6931111111111123 8.6590170940170967 533.62000000000023 143.50000000000003 376.84000000000009 151.01000000000008 290.47499999999997 88.500000000000014 -105.86
decision_type=2 2 2 2 8 2 2 2 2 2 2 2 2
left_child=1 7 3 -3 5 9 -7 10 -9 12 -1 -6 -2
right_child=4 2 -4 -5 11 6 -8 8 -10 -11 -12 -13 -14
leaf_value=-0.0065141291384689789 0.0097917259290017447 -0.011315065510920487 -0.020264895599120706 0.021661842580978981 0.0091446658041597455 -0.016882623803584164 0.015748835577239901 -0.019833313260555829 0.012383943292071944 0.0022703833791565928 -0.025985642118642988 0.025724697162757104 0.024300897423205719
leaf_weight=8.3890522643923742 11.154310725629328 28.13172671943903 22.687538772821426 24.029141075909138 11.939809314906595 19.492222599685192 14.151344999670981 12.607154734432699 10.318023189902304 18.16595845669508 99.5250314027071 77.216592863202095 31.964270368218422
leaf_count=88 98 153 152 120 76 117 125 139 80 131 1176 800 294
internal_value=0 -0.0155445 -0.00384664 0.00439876 0.0173312 0.0100288 -0.00283053 -0.0218301 -0.00562255 0.0168069 -0.0248496 0.0241344 0.022007
internal_weight=389.772 205.688 74.8484 52.1609 184.085 94.9281 33.6436 130.839 22.9252 61.2845 107.914 89.1564 43.1186
internal_count=3549 1908 425 273 1641 765 242 1483 219 523 1264 876 392
is_linear=0
shrinkage=0.025


Tree=76
num_leaves=12
num_cat=0
split_feature=17 102 49 94 9 75 87 77 95 92 82
split_gain=166.832 15.9174 11.8076 16.2497 19.5619 14.2684 10.3129 21.2411 22.7434 10.5258 4.57875
threshold=62.000000000000007 -68.499999999999986 6.950000000000002 0.52206497361872428 15.500000000000002 99.500000000000014 148.50000000000003 74.521832749143172 8.6590170940170967 374.15500000000003 0.7287264092201704
decision_type=2 2 2 2 2 2 2 2 2 2 2
left_child=6 -2 -3 4 5 -4 7 8 9 10 -1
right_child=1 2 3 -5 -6 -7 -8 -9 -10 -11 -12
leaf_value=0.023793155900152286 0.0030827589138202587 -0.026017980373415892 -0.02047530986591313 -0.024852871585298759 0.010336765749489723 0.010065863081170044 0.024800785454565082 0.023944189995226517 -0.017674640410103748 -0.0062462344218451853 0.0036356626218925327
leaf_weight=22.102185815572739 24.066842906177044 68.871510706841946 37.561717480421066 34.928042262792587 29.044300109148026 8.8900453224778158 69.460276059806347 44.952258080244064 19.763201273977757 12.685538895428179 12.752301298081873
leaf_count=194 163 729 432 376 127 80 716 435 110 104 83
internal_value=5.20368e-06 -0.0153672 -0.0178738 -0.0118655 -0.0046554 -0.0141715 0.017173 0.0115756 0.00219547 0.0113993 0.0178622
internal_weight=385.078 203.362 179.296 110.424 75.4961 46.4518 181.716 112.255 67.3032 47.54 34.8545
internal_count=3549 1907 1744 1015 639 512 1642 926 491 381 277
is_linear=0
shrinkage=0.025


Tree=77
num_leaves=13
num_cat=0
split_feature=103 9 93 86 86 94 28 64 73 59 57 102
split_gain=161.528 23.2073 17.6708 10.155 27.0205 13.9062 9.15551 13.5331 8.26073 6.7465 3.56621 0.414753
threshold=-15.499999999999998 15.500000000000002 26.725000000000005 -14.926768776131956 -16.259762459626469 0.71065161285356993 143.50000000000003 386.26000000000005 77.993970214384262 2.771875000000001 86.579999999999998 58.300000000000004
decision_type=2 2 2 2 2 2 2 2 10 8 2 2
left_child=1 6 8 4 5 9 10 -8 -3 -2 -1 -11
right_child=3 2 -4 -5 -6 -7 7 -9 -10 11 -12 -13
leaf_value=-0.025668208953596179 0.0030409897570644324 0.013711851509572347 -0.022358634832398597 0.025646842427994455 -0.016087903384124875 -0.0019314911051956998 -0.019641197490711207 0.012891644486571395 -0.0041757706884603023 0.025190688770640499 -0.0048125808605015662 0.0098295640095015929
leaf_weight=97.472515374422073 13.586340509355066 22.975698441267014 17.563181295990944 59.459189169108868 14.441053278744219 19.676477193832397 12.37364983558655 10.105637364089487 33.858404353260994 59.609600938856602 8.4586161449551565 10.815113469958304
leaf_count=1185 105 102 162 606 92 140 141 78 162 579 86 111
