tree
version=v4
num_class=1
num_tree_per_iteration=1
label_index=0
max_feature_idx=93
objective=binary sigmoid:1
feature_names=wall_ns side_id level tte_bucket p_yes ml_edge bucket_threshold tte_s yes_ask no_ask entry_cost market_implied_yes_ask signal_strike_dist_bps rti_vs_strike_bps rti_change_30s rti_change_60s kalshi_spread hour_utc day_of_week_utc has_rti has_tick trade_last_age_s trade_last_yes_price trade_last_no_price trade_30s_count trade_30s_volume trade_30s_vwap_yes trade_30s_vwap_no trade_30s_yes_taker_vol trade_30s_no_taker_vol trade_30s_net_yes_pressure trade_30s_yes_taker_share trade_30s_avg_size trade_30s_signal_side_pressure trade_30s_entry_vs_vwap trade_30s_signal_side_vwap_edge trade_60s_count trade_60s_volume trade_60s_vwap_yes trade_60s_vwap_no trade_60s_yes_taker_vol trade_60s_no_taker_vol trade_60s_net_yes_pressure trade_60s_yes_taker_share trade_60s_avg_size trade_60s_signal_side_pressure trade_60s_entry_vs_vwap trade_60s_signal_side_vwap_edge trade_300s_count trade_300s_volume trade_300s_vwap_yes trade_300s_vwap_no trade_300s_yes_taker_vol trade_300s_no_taker_vol trade_300s_net_yes_pressure trade_300s_yes_taker_share trade_300s_avg_size trade_300s_signal_side_pressure trade_300s_entry_vs_vwap trade_300s_signal_side_vwap_edge trade_900s_count trade_900s_volume trade_900s_vwap_yes trade_900s_vwap_no trade_900s_yes_taker_vol trade_900s_no_taker_vol trade_900s_net_yes_pressure trade_900s_yes_taker_share trade_900s_avg_size trade_900s_signal_side_pressure trade_900s_entry_vs_vwap trade_900s_signal_side_vwap_edge trade_has_prior trade_30s_price_momentum trade_60s_price_momentum trade_300s_price_momentum trade_900s_price_momentum trade_volume_burst_30s_vs_5m trade_count_burst_30s_vs_5m trade_pressure_accel_30s_vs_5m trade_staleness_penalty asset_BTC asset_ETH asset_SOL asset_XRP asset_nan ml_side_NO ml_side_YES ml_side_nan side_NO side_YES side_nan quality_tier_B quality_tier_nan
feature_infos=[1.7775069012798758e+18:1.7775287369783841e+18] [0:1] [85:99] [0:7] [0:1] [8.6736173798840355e-18:0.80590361445783132] [0:0.080000000000000002] [0:867] [1:99] [1:99] [85:99] [0.01:0.98999999999999999] [-145:72] none none none [0:59] [0:23] [2:3] none none [9.0080000000000008e-06:75.479785863999993] [0.10000000000000001:99.799999999999997] [0.20000000000000001:99.900000000000006] [0:1092] [0:49488.830000000598] [1.2693617021276384:99.765073374118501] [0.2349266258803957:98.730638297872076] [0:25898.020000000011] [0:30674.269999999811] [-15923.759999999998:19399.610000000011] [0:1.0000000000001033] [0.68000000000000682:157.26642857142932] [-19399.610000000011:15923.759999999998] [-5.0323042410645087:97.73063829787236] [-58.801057711824399:6.306952479946716] [0:1702] [0:77440.620000000519] [1.5134615384615209:99.75301523242976] [0.24698476757000309:98.486538461538274] [0:48689.980000000003] [0:49372.489999999874] [-23959.650000000001:32335.970000000016] [0:1.0000000000000004] [1.5:141.07954545454547] [-32335.970000000016:23959.650000000001] [-4.4941891913098857:97.486538461538487] [-62.326261643044333:5.5638366124892968] [7:4641] [30.489999999999998:198514.2100000004] [3.6567934449893431:99.247751723924125] [0.75224827607606726:96.343206555010639] [6:103359.98] [2.4900000000000002:110527.6399999998] [-50554.249999999935:54638.070000000029] [0.0675990675990676:0.93100996589662943] [2.771818181818182:68.131121166415227] [-54638.070000000029:23268.620000000003] [-4.3410712477694204:95.343206555010639] [-64.885814656628824:5.0534280688037683] [7:9066] [30.489999999999998:389329.11000000068] [7.8016677204004488:95.982720223021801] [4.0172797769781683:92.198332279599526] [6:185956.62000000032] [2.4900000000000002:203372.48999999985] [-52506.179999999935:59271.580000000016] [0.0675990675990676:0.93100996589662943] [2.771818181818182:63.855004599815913] [-59271.580000000016:30858.66999999998] [3.0172797769781852:91.198332279599555] [-58.426971922121638:-3.0172797769781852] none [-80.900000000000006:74.899999999999991] [-91.400000000000006:91.400000000000006] [-93.099999999999994:91] [-66.799999999999997:59.100000000000001] [0:1] [0:1] [-16094.29200000001:13722.554999999998] [0.013075350417144801:0.99999099208114339] [0:1] [0:1] [0:1] [0:1] none [0:1] [0:1] none [0:1] [0:1] none none none
tree_sizes=853 1000 1002 1001 1006 1002 1006 1004 1004 1001 1002 1006 1006 1109 1110 1105 1104 1010 1099 1103 1108 1210 1110 1106 1011 1112 1095 1019 1114 1013 1114 1113 1328 1543 1435 1332 1331 1430 1331 1333 1330 1433 1335 1115 1438 1328 1327 1437 1542 1333 1321 1332 1546 1431 1110 1220 1216 1103 1211 1224 1117 1218 1116 1221 1115 1223 1215 1215 1225 1108 1116 1223 1233 1115 1227 1222 1018 1222 1328 1212 1101 1213 1112 1549 1530 1108 1006 1551 1542 1215 1005 1123 1428 1219 1007 1321 1125 1110 1322 1434 1206 1114 1218 1429 1436 1214 1217 1220 1328 1215 1110 1221 1111 1331 1108 1553 1326 1114 1327 1329 1548 1431 1331 1006 1436 1448 1335 1113 1339 1334 1338 1327 1558 1339 1545 1338 1548 1660 1433 1332 1116 1669 1440 1340 1549 1229 1453 1444 1670 1557

Tree=0
num_leaves=7
num_cat=0
split_feature=51 10 35 66 5 5
split_gain=12478.2 1442.48 811.297 723.742 70.1512 20.7821
threshold=8.4586560519772451 98.500000000000014 -0.61477641278388961 -23133.850000000009 0.10474728012424403 0.0047472801242440339
decision_type=2 2 10 2 2 2
left_child=-1 3 -3 5 -5 -2
right_child=1 2 -4 4 -6 -7
leaf_value=2.481483600469244 3.2225144368496923 3.5918599577576233 2.994543826497214 3.616185215493116 3.515078915151137 3.5636910770907373
leaf_weight=15.647333282977341 2.3457671701908107 7.9169641993939877 5.1980067975819093 874.70459003001451 9.5696637965738756 0.79969335347414006
leaf_count=587 88 297 195 32814 359 30
internal_value=3.56914 3.59978 3.20895 3.60951 3.6145 3.23912
internal_weight=916.182 900.535 13.115 887.42 884.274 3.14546
internal_count=34370 33783 492 33291 33173 118
is_linear=0
shrinkage=1


Tree=1
num_leaves=8
num_cat=0
split_feature=39 87 0 5 71 26 54
split_gain=6232.35 2979.45 855.36 77.6286 41.1681 32.5944 19.7605
threshold=6.0762594602777904 1.0000000180025095e-35 1.7775287114761585e+18 0.10474728012424403 -23.72739941196085 98.451377309575932 -989.37999999999965
decision_type=10 2 2 2 2 8 2
left_child=1 -1 3 6 -5 -3 -2
right_child=2 5 -4 4 -6 -7 -8
leaf_value=-0.61438457827759962 0.0016844099376066872 0.03702003107578563 -0.33857300118454275 0.020456215114529715 -0.10849458761975905 -0.062532890987665832 0.04996999466822391
leaf_weight=47.297310611233115 22.489071311429143 25.842731794342402 4.7670274972915641 6.5921749919652939 3.5320125780999643 1.0681773349642742 797.54861930198967
leaf_count=755 881 1013 105 235 126 15 31240
internal_value=-0.000313706 -0.410504 0.0405708 0.0467519 -0.0560886 0.0171975 0.048682
internal_weight=909.137 74.2082 834.929 830.162 10.1242 26.9109 820.038
internal_count=34370 1783 32587 32482 361 1028 32121
is_linear=0
shrinkage=0.05


Tree=2
num_leaves=8
num_cat=0
split_feature=39 86 0 5 71 0 47
split_gain=4281.88 1299.91 760.15 76.1392 38.5624 31.9247 22.525
threshold=6.0762594602777904 1.0000000180025095e-35 1.7775287114761585e+18 0.10474728012424403 -23.72739941196085 1.7775091119415521e+18 -36.384832398700496
decision_type=10 2 2 2 2 2 10
left_child=1 5 3 6 -5 -1 -2
right_child=2 -3 -4 4 -6 -7 -8
leaf_value=-0.06190042242475835 -0.019531264427370604 -0.37962692276429177 -0.29842073050190182 0.020207092739455295 -0.10408979788903171 0.03661965084495087 0.049359741525253624
leaf_weight=1.1258657276630426 7.1239578165113917 77.745265118777752 6.438149716705083 6.4662556163966656 3.9108600020408613 24.951016059145331 775.94999526627362
leaf_count=15 286 755 105 235 126 1013 31835
internal_value=-0.000306616 -0.28746 0.0400538 0.0464802 -0.0547302 0.0163872 0.0484946
internal_weight=903.711 103.822 799.889 793.451 10.3771 26.0769 783.074
internal_count=34370 1783 32587 32482 361 1028 32121
is_linear=0
shrinkage=0.05


Tree=3
num_leaves=8
num_cat=0
split_feature=38 86 0 5 71 26 47
split_gain=3294.75 772.148 673.463 74.5526 36.0473 31.3562 22.1557
threshold=93.892362324769536 1.0000000180025095e-35 1.7775287114761585e+18 0.10474728012424403 -23.72739941196085 98.451377309575932 -36.384832398700496
decision_type=8 2 2 2 2 8 10
left_child=2 5 3 6 -5 -2 -1
right_child=1 -3 -4 4 -6 -7 -8
leaf_value=-0.018973635078293624 0.036330795209266423 -0.28297305181630789 -0.26216433650616316 0.019962192228899563 -0.099696140314935011 -0.061251506342756737 0.049206740865878694
leaf_weight=7.2571417670696965 24.35281573608518 101.71544169634581 8.2940428331494314 6.3440883904695511 4.3095081970095617 1.185353212058543 740.10901181958616
leaf_count=286 1024 755 105 235 126 15 31824
internal_value=-0.000401641 -0.22622 0.0395286 0.0462002 -0.0532759 0.0158406 0.0483029
internal_weight=893.567 127.254 766.314 758.02 10.6536 25.5382 747.366
internal_count=34370 1794 32576 32471 361 1039 32110
is_linear=0
shrinkage=0.05


Tree=4
num_leaves=8
num_cat=0
split_feature=39 0 86 5 0 59 47
split_gain=2693.42 598.013 514.63 72.8904 30.5709 25.391 21.7936
threshold=6.0762594602777904 1.7775287114761585e+18 1.0000000180025095e-35 0.10474728012424403 1.7775091119415521e+18 -23.461222528019565 -36.384832398700496
decision_type=10 2 2 2 2 2 10
left_child=2 3 4 6 -1 -5 -2
right_child=1 -3 -4 5 -6 -7 -8
leaf_value=-0.060587055414642293 -0.018430499915075692 -0.23094617640885973 -0.22901856167059256 0.017448727599810407 0.035818159171427631 -0.085267366080669427 0.049054114451305919
leaf_weight=1.2465670332312608 7.3887701071798793 10.242304578423498 121.15377947688103 5.1393763795495033 23.278332179412246 5.8122481964528543 706.43642661720514
leaf_count=15 286 105 755 194 1013 167 31835
internal_value=-0.000518016 0.039012 -0.18966 0.0459181 0.0147885 -0.0517433 0.0481106
internal_weight=880.698 735.019 145.679 724.777 24.5249 10.9516 713.825
internal_count=34370 32587 1783 32482 1028 361 32121
is_linear=0
shrinkage=0.05


Tree=5
num_leaves=8
num_cat=0
split_feature=39 0 86 10 26 54 0
split_gain=2271.39 533.828 374.95 35.1052 29.8899 17.1084 12.4952
threshold=6.0762594602777904 1.7775287114761585e+18 1.0000000180025095e-35 87.500000000000014 98.451377309575932 -989.37999999999965 1.777519729756383e+18
decision_type=10 2 2 2 8 2 2
left_child=2 3 4 6 -1 -5 -2
right_child=1 -3 -4 5 -6 -7 -8
leaf_value=0.03541863622888608 -0.053678992626595527 -0.20476293719263605 -0.19433176471411814 0.0011420264939102122 -0.059908050595688024 0.048423563916872241 0.016552168867223018
leaf_weight=22.496539521962408 4.8801748454570753 12.198944874107836 136.95724152773619 20.195437081158161 1.3094225898385037 663.1281444132328 4.7449278850108385
leaf_count=1013 187 105 755 874 15 31232 189
internal_value=-0.000634161 0.0384949 -0.164468 0.0456293 0.0140052 0.0470628 -0.0282644
internal_weight=865.911 705.148 160.763 692.949 23.806 683.324 9.6251
internal_count=34370 32587 1783 32482 1028 32106 376
is_linear=0
shrinkage=0.05


Tree=6
num_leaves=8
num_cat=0
split_feature=39 0 86 5 71 0 47
split_gain=1959.14 479.695 287.694 71.2103 31.9812 29.2069 21.658
threshold=6.0762594602777904 1.7775287114761585e+18 1.0000000180025095e-35 0.10474728012424403 -23.72739941196085 1.7775091119415521e+18 -36.384832398700496
decision_type=10 2 2 2 2 2 10
left_child=2 3 5 6 -5 -1 -2
right_child=1 -3 -4 4 -6 -7 -8
leaf_value=-0.059215555680468934 -0.01853795864451941 -0.18304435197240143 -0.17007672138507277 0.019564723376292868 -0.092225161490515656 0.035019750417424604 0.048749907749537802
leaf_weight=1.3738236576318765 7.3623235374689093 14.098102524876593 149.72169214487076 6.1480624079704285 5.0395722165703756 21.748073119670153 644.51374495960772
leaf_count=15 286 105 755 235 126 1013 31835
internal_value=-0.000724569 0.0379874 -0.146172 0.0453368 -0.0505528 0.013233 0.0477214
internal_weight=850.005 677.162 172.844 663.064 11.1876 23.1219 651.876
internal_count=34370 32587 1783 32482 361 1028 32121
is_linear=0
shrinkage=0.05


Tree=7
num_leaves=8
num_cat=0
split_feature=39 0 86 5 71 26 54
split_gain=1716.45 433.946 228.947 69.439 29.7744 28.5232 22.2733
threshold=6.0762594602777904 1.7775287114761585e+18 1.0000000180025095e-35 0.10474728012424403 -23.72739941196085 98.451377309575932 -989.37999999999965
decision_type=10 2 2 2 2 8 2
left_child=2 3 5 6 -5 -1 -2
right_child=1 -3 -4 4 -6 -7 -8
leaf_value=0.034621689545861464 -0.0033810380640964424 -0.16505591431135985 -0.15213323853339228 0.019330744164261577 -0.088023097003263218 -0.058510715119358681 0.049195938850873616
leaf_weight=21.031405877321962 19.542809849604964 15.893241763114927 159.90128029882908 6.0352575145661831 5.482082359492777 1.4396619424223889 603.00909832306206
leaf_count=1013 881 105 755 235 126 15 31240
internal_value=-0.000844774 0.0374734 -0.132257 0.0450338 -0.0489283 0.0124732 0.0475181
internal_weight=832.335 649.962 182.372 634.069 11.5173 22.4711 622.552
internal_count=34370 32587 1783 32482 361 1028 32121
is_linear=0
shrinkage=0.05


Tree=8
num_leaves=8
num_cat=0
split_feature=39 0 86 10 50 54 0
split_gain=1521.88 395.065 187.19 34.0887 27.8397 17.2671 11.8214
threshold=6.0762594602777904 1.7775287114761585e+18 1.0000000180025095e-35 87.500000000000014 93.381850923894746 -989.37999999999965 1.777519729756383e+18
decision_type=10 2 2 2 2 2 2
left_child=2 3 4 6 -1 -5 -2
right_child=1 -3 -4 5 -6 -7 -8
leaf_value=0.034224646732763896 -0.051992678010262861 -0.15009698792032081 -0.13830898586517124 0.00012059449544617592 -0.057794714272027682 0.047886270823791786 0.016295582342597478
leaf_weight=20.345084264874462 5.1126035396009666 17.554372698068619 167.8644115626812 19.602365761995316 1.5068186447024334 577.27909537963569 4.6248297560960054
leaf_count=1013 187 105 755 874 15 31232 189
internal_value=-0.00095135 0.0369661 -0.121306 0.0447258 0.0117267 0.0463454 -0.0277353
internal_weight=813.89 624.173 189.716 606.619 21.8519 596.881 9.73743
internal_count=34370 32587 1783 32482 1028 32106 376
is_linear=0
shrinkage=0.05


Tree=9
num_leaves=8
num_cat=0
split_feature=39 0 86 5 71 0 54
split_gain=1361.98 361.73 156.26 67.8972 27.7064 27.1575 21.9
threshold=6.0762594602777904 1.7775287114761585e+18 1.0000000180025095e-35 0.10474728012424403 -23.72739941196085 1.7775091119415521e+18 -989.37999999999965
decision_type=10 2 2 2 2 2 2
left_child=2 3 5 6 -5 -1 -2
right_child=1 -3 -4 4 -6 -7 -8
leaf_value=-0.057068795607908118 -0.0032417452844989039 -0.13757113228265139 -0.12732595509048142 0.018951720738261433 -0.084593857637445591 0.033828805492300044 0.048931622676216896
leaf_weight=1.5751644596457506 19.616628877818584 19.064292311668396 173.9196143001318 5.8539807591587305 5.8612339757382852 19.68771699629724 549.45439695566893
leaf_count=15 881 105 755 235 126 1013 31240
internal_value=-0.00103689 0.0364668 -0.112456 0.0444115 -0.0479527 0.0109945 0.0471082
internal_weight=795.033 599.851 195.182 580.786 11.7152 21.2629 569.071
internal_count=34370 32587 1783 32482 361 1028 32121
is_linear=0
shrinkage=0.05


Tree=10
num_leaves=8
num_cat=0
split_feature=39 5 86 5 5 71 47
split_gain=1227.44 332.848 132.6 66.035 26.4777 25.756 21.8373
threshold=6.0762594602777904 2.8605928183331537e-05 1.0000000180025095e-35 0.10474728012424403 2.8605928183331537e-05 -23.72739941196085 -36.384832398700496
decision_type=10 2 2 2 2 2 10
left_child=2 -2 4 6 -1 -5 -3
right_child=1 3 -4 5 -6 -7 -8
leaf_value=-0.056334241543989472 -0.12699595538790251 -0.019709598641492115 -0.1183871781997077 0.018728195802177799 0.033434355543629446 -0.080619911232185731 0.048116349815860451
leaf_weight=1.6445608064532304 20.415136814117432 7.0798542052507392 178.32993629574776 5.7496557775884867 19.057977005839348 6.3235715143382532 536.71169485524297
leaf_count=15 105 286 755 235 1013 126 31835
internal_value=-0.00113943 0.0359649 -0.105153 0.0440884 0.0102776 -0.046257 0.0468933
internal_weight=775.312 576.28 199.032 555.865 20.7025 12.0732 543.792
internal_count=34370 32587 1783 32482 1028 361 32121
is_linear=0
shrinkage=0.05


Tree=11
num_leaves=8
num_cat=0
split_feature=39 5 86 5 26 71 54
split_gain=1112.47 307.574 114.026 64.1542 25.8012 23.9328 22.3043
threshold=6.0762594602777904 2.8605928183331537e-05 1.0000000180025095e-35 0.10474728012424403 98.451377309575932 -23.72739941196085 -989.37999999999965
decision_type=10 2 2 2 8 2 2
left_child=2 -2 4 6 -1 -5 -3
right_child=1 3 -4 5 -6 -7 -8
leaf_value=0.033041491023646417 -0.11799015052707851 -0.0043146333352760474 -0.11096916158473979 0.018508489403142984 -0.055592349643839571 -0.076790132869183222 0.048659123355841223
leaf_weight=18.454591969028119 21.605616956949234 19.053240314126015 181.32204204797745 5.6482896115630865 1.7148604989051808 6.7935279756784421 500.48707514256239
leaf_count=1013 105 881 755 235 15 126 31240
internal_value=-0.00125023 0.035461 -0.0990202 0.0437552 0.00957676 -0.0445575 0.0466716
internal_weight=755.079 553.588 201.491 531.982 20.1695 12.4418 519.54
internal_count=34370 32587 1783 32482 1028 361 32121
is_linear=0
shrinkage=0.05


Tree=12
num_leaves=8
num_cat=0
split_feature=39 0 87 5 26 55 54
split_gain=1013.23 285.277 99.1307 62.2711 25.1291 23.07 22.0523
threshold=6.0762594602777904 1.7775287114761585e+18 1.0000000180025095e-35 0.10474728012424403 98.451377309575932 0.51982304973637938 -989.37999999999965
decision_type=10 2 2 2 8 2 2
left_child=2 3 -1 6 -4 -5 -2
right_child=1 -3 4 5 -6 -7 -8
leaf_value=-0.10471352963360372 -0.0041615974874593094 -0.1102547633806857 0.032650394837230763 -0.080926014023736517 -0.054844443939840261 0.012187215322945864 0.048517935490450727
leaf_weight=183.09256525337696 19.131895566359162 22.638958990573883 17.876351805403832 4.8003939595073453 1.7859090864658345 8.0182239431887847 477.45720264967531
leaf_count=755 881 105 1013 130 15 231 31240
internal_value=-0.00134692 0.0349646 -0.0937963 0.0434168 0.00889286 -0.0428661 0.0464463
internal_weight=734.802 532.047 202.755 509.408 19.6623 12.8186 496.589
internal_count=34370 32587 1783 32482 1028 361 32121
is_linear=0
shrinkage=0.05


Tree=13
num_leaves=9
num_cat=0
split_feature=39 5 9 5 71 47 86 74
split_gain=926.361 265.407 88.409 60.8678 22.0751 21.7247 6.51651 11.2517
threshold=6.0762594602777904 2.8605928183331537e-05 5.5000000000000009 0.10474728012424403 -23.72739941196085 -36.384832398700496 1.0000000180025095e-35 0.8000000000000006
decision_type=10 2 2 2 2 10 2 10
left_child=2 -2 6 5 -5 -3 7 -1
right_child=1 3 -4 4 -6 -7 -8 -9
leaf_value=-0.048641159956201621 -0.10355557294447243 -0.020136681604181944 0.027010013800222235 0.018515627362270266 -0.071822171601635024 0.047605988619186135 -0.09936648607276008 0.017756536964788027
leaf_weight=2.506938971579074 23.521369770169258 6.9778141323477021 11.313111573457716 5.6516217682510614 7.4410446062684041 467.74663700722158 183.81282113492489 5.3595965355634689
leaf_count=53 105 286 662 235 126 31835 755 313
internal_value=-0.00145086 0.0344643 -0.0892917 0.0430658 -0.0416952 0.0462154 -0.0971548 -0.0187848
internal_weight=714.331 511.338 202.992 487.817 13.0927 474.724 191.679 7.86654
internal_count=34370 32587 1783 32482 361 32121 1121 366
is_linear=0
shrinkage=0.05


Tree=14
num_leaves=9
num_cat=0
split_feature=39 0 9 5 54 55 86 74
split_gain=848.631 247.579 80.7264 59.0155 22.3922 21.6229 5.09981 10.8907
threshold=6.0762594602777904 1.7775287114761585e+18 5.5000000000000009 0.10474728012424403 -989.37999999999965 0.51982304973637938 1.0000000180025095e-35 0.8000000000000006
decision_type=10 2 2 2 2 2 2 10
left_child=2 3 6 4 -2 -5 7 -1
right_child=1 -3 -4 5 -6 -7 -8 -9
leaf_value=-0.04777793679870717 -0.0051658224523478766 -0.097708334259374433 0.026666856897908004 -0.076142306073608945 0.048231464247059569 0.012515984791306712 -0.094743165216572445 0.017553485791292133
leaf_weight=2.6028646975755683 18.619591239839792 24.260958731174469 11.021847851574419 5.3331783246248952 435.11630693543702 8.1397656667977554 183.63250306248665 5.2685005571693182
leaf_count=53 881 105 662 130 31240 231 755 313
internal_value=-0.00154287 0.0339656 -0.0852551 0.0427073 0.0459761 -0.040066 -0.0927004 -0.018696
internal_weight=693.996 491.47 202.526 467.209 453.736 13.4729 191.504 7.87137
internal_count=34370 32587 1783 32482 32121 361 1121 366
is_linear=0
shrinkage=0.05


Tree=15
num_leaves=9
num_cat=0
split_feature=9 0 46 5 74 55 30 30
split_gain=780.915 231.493 82.2563 57.6227 26.6476 20.1767 2.02141 5.04373
threshold=5.5000000000000009 1.7775287114761585e+18 1.2877311761869452 0.10474728012424403 54.45000000000001 0.51982304973637938 544.59500000000855 1393.3200000000072
decision_type=2 2 10 2 10 2 2 2
left_child=2 3 6 4 -2 -5 -1 -8
right_child=1 -3 -4 5 -6 -7 7 -9
leaf_value=-0.091838413073031616 0.047275538677953095 -0.09256724098163692 0.027450803048391127 -0.073002247309872523 -0.03063953759964836 0.012299093515782691 0.010890815336591702 -0.036861784603087484
leaf_weight=179.07489170785993 429.22849849611521 24.866947755217552 11.803744729608296 5.7049777880311003 4.8281484069302669 8.0478338226675969 2.7251934818923456 7.5367227643728256
leaf_count=858 31684 105 865 130 301 231 165 31
internal_value=-0.00163097 0.0334766 -0.0818112 0.0423449 0.0457384 -0.0389228 -0.0896582 -0.0250641
internal_weight=673.817 472.676 201.141 447.809 434.057 13.7528 189.337 10.2619
internal_count=34370 32451 1919 32346 31985 361 1054 196
is_linear=0
shrinkage=0.05


Tree=16
num_leaves=9
num_cat=0
split_feature=39 0 9 5 54 71 73 86
split_gain=718.52 216.812 67.019 56.1901 23.0227 20.1932 4.6606 2.98156
threshold=6.0762594602777904 1.7775287114761585e+18 5.5000000000000009 0.10474728012424403 -989.37999999999965 -23.72739941196085 1.5000000000000007 1.0000000180025095e-35
decision_type=10 2 2 2 2 2 10 2
left_child=2 3 6 4 -2 -5 -1 -8
right_child=1 -3 -4 5 -6 -7 7 -9
leaf_value=-0.086721184761303333 -0.0066312183724566822 -0.088016100313479104 0.025727230902367022 0.018754295232684647 0.047936552921229059 -0.065833172867218473 0.010977990844102122 -0.025062024976616217
leaf_weight=183.7715680450201 17.907292285934091 25.349123552441597 10.261025726795195 5.7595148272812358 397.09247392695397 8.2810699045658094 2.7530754804611206 2.6831812858581534
leaf_count=943 881 105 662 235 31240 126 167 11
internal_value=-0.00173288 0.0329687 -0.0785831 0.0419588 0.0454813 -0.0377671 -0.0852475 -0.0115224
internal_weight=653.858 454.389 199.469 429.04 415 14.0406 189.208 5.43626
internal_count=34370 32587 1783 32482 32121 361 1121 178
is_linear=0
shrinkage=0.05


Tree=17
num_leaves=8
num_cat=0
split_feature=39 0 86 5 26 47 55
split_gain=661.855 203.44 61.0298 54.4175 22.0397 21.6873 18.8398
threshold=6.0762594602777904 1.7775287114761585e+18 1.0000000180025095e-35 0.10474728012424403 98.907183633172863 -36.384832398700496 0.51982304973637938
decision_type=10 2 2 2 10 10 2
left_child=2 3 4 5 -1 -2 -5
right_child=1 -3 -4 6 -6 -7 -8
leaf_value=0.031446858613109738 -0.021004004289612452 -0.083961534710067731 -0.084084730014085007 -0.068508521601840497 -0.050122371246226739 0.046870523443085226 0.012596855016391585
leaf_weight=16.218115173280243 6.7767548318952313 25.717448070645332 178.97431199252605 6.2601953074336043 2.2358268499374381 390.20915254019201 8.1556514203548414
leaf_count=1013 286 105 755 130 15 31835 231
internal_value=-0.00179534 0.0324779 -0.075586 0.0415764 0.00742212 0.0452243 -0.0362575
internal_weight=634.547 437.119 197.428 411.402 18.4539 396.986 14.4158
internal_count=34370 32587 1783 32482 1028 32121 361
is_linear=0
shrinkage=0.05


Tree=18
num_leaves=9
num_cat=0
split_feature=9 0 46 5 74 71 30 30
split_gain=614.233 191.16 63.9133 53.0194 26.6208 18.6227 1.4894 4.29887
threshold=5.5000000000000009 1.7775287114761585e+18 1.2877311761869452 0.10474728012424403 54.45000000000001 -23.72739941196085 544.59500000000855 1393.3200000000072
decision_type=2 2 10 2 10 2 2 2
left_child=2 3 6 4 -2 -5 -1 -8
right_child=1 -3 -4 5 -6 -7 7 -9
leaf_value=-0.082080234267526517 0.046709341626936629 -0.080327940731289238 0.026145107663235898 0.01876263301735873 -0.031336906620820365 -0.061448816433382347 0.010629439535803269 -0.03311379259517095
leaf_weight=173.61296587251127 375.24698617868125 25.98178468644619 10.671870429068802 5.7611292749643317 4.7025953410193315 8.9425316229462606 2.644139673560856 7.2065456956624985
leaf_count=858 31684 105 865 235 301 126 165 31
internal_value=-0.00190569 0.0319883 -0.0733136 0.0411849 0.0449645 -0.0351477 -0.0801513 -0.0219324
internal_weight=614.771 420.635 194.136 394.653 379.95 14.7037 183.464 9.85069
internal_count=34370 32451 1919 32346 31985 361 1054 196
is_linear=0
shrinkage=0.05


Tree=19
num_leaves=9
num_cat=0
split_feature=9 0 46 5 74 55 30 30
split_gain=567.805 179.804 59.5639 51.2907 26.097 17.5683 1.00223 4.16894
threshold=5.5000000000000009 1.7775287114761585e+18 1.2877311761869452 0.10474728012424403 54.45000000000001 0.51982304973637938 544.59500000000855 1393.3200000000072
decision_type=2 2 10 2 10 2 2 2
left_child=2 3 6 4 -2 -5 -1 -8
right_child=1 -3 -4 5 -6 -7 7 -9
leaf_value=-0.079339798191797428 0.046504452486924149 -0.077053616749126391 0.025814147503735386 -0.064236848514992326 -0.030528327600094773 0.012872790234143554 0.010541422859988981 -0.032545876292523639
leaf_weight=171.03928422927856 358.5223602950573 26.151718273758888 10.403295639902352 6.8193074222654095 4.8469670247286549 8.2541003022342903 2.6170857064425928 7.1418136805295944
leaf_count=858 31684 105 865 130 301 231 165 31
internal_value=-0.0019944 0.0314853 -0.0708833 0.0407763 0.0446868 -0.0337185 -0.0775087 -0.0215039
internal_weight=595.796 404.594 191.201 378.443 363.369 15.0734 180.798 9.7589
internal_count=34370 32451 1919 32346 31985 361 1054 196
is_linear=0
shrinkage=0.05


Tree=20
num_leaves=9
num_cat=0
split_feature=39 0 5 9 54 47 87 74
split_gain=526.481 169.288 50.7779 48.1647 30.1409 22.3787 4.92461 8.86222
threshold=6.0762594602777904 1.7775287114761585e+18 0.084930213464696286 5.5000000000000009 -220.43499999999966 -36.384832398700496 1.0000000180025095e-35 0.8000000000000006
decision_type=10 2 2 2 2 10 2 10
left_child=3 2 5 6 -4 -2 -1 -8
right_child=1 -3 4 -5 -6 -7 7 -9
leaf_value=-0.076461511459308948 -0.022088088609575823 -0.074087825894662701 -0.07144156495173741 0.023822574572778074 0.015552511827761881 0.047319751354439457 -0.039930104833426044 0.017445516544538152
leaf_weight=170.1859247982502 6.5321504808962336 26.23643159866333 6.7131215548142817 8.8672743774950487 17.895220107398927 332.00547193177044 3.4966410212218744 5.2179126236587763
leaf_count=755 280 105 254 662 928 31020 53 313
internal_value=-0.00209088 0.0309818 0.0403549 -0.0687739 -0.021965 0.0453852 -0.0743816 -0.014611
internal_weight=577.15 389.382 363.146 187.768 24.6083 338.538 178.9 8.71455
internal_count=34370 32587 32482 1783 1182 31300 1121 366
is_linear=0
shrinkage=0.05


Tree=21
num_leaves=10
num_cat=0
split_feature=9 0 46 5 54 47 30 30 45
split_gain=488.476 159.514 51.4604 49.8139 27.9832 21.9617 0.714389 3.79014 2.32164
threshold=5.5000000000000009 1.7775287114761585e+18 1.2877311761869452 0.084930213464696286 -220.43499999999966 -36.384832398700496 544.59500000000855 1393.3200000000072 596.8850000000001
decision_type=2 2 10 2 2 10 2 2 2
left_child=2 3 6 5 -5 -2 8 -8 -1
right_child=1 -3 -4 4 -6 -7 7 -9 -10
leaf_value=-0.076161591960482888 -0.021467171618636913 -0.071388535281037488 0.02494917284549196 -0.068171063266661266 0.015195590003119812 0.047149549083181197 0.010312240262523826 -0.030730059719938248 -0.012419321012761671
leaf_weight=159.01487563084811 6.6707188412547103 26.24462865293026 9.7309946529567224 7.1517868628725436 17.641173484735191 316.98582160100341 2.5471267718821746 6.9082842469215393 5.7892354466021052
leaf_count=765 280 105 865 254 928 30884 165 31 93
internal_value=-0.00218713 0.0304727 -0.0668407 0.0399223 -0.021534 0.0451343 -0.0730423 -0.0200563 -0.074761
internal_weight=558.685 374.694 183.991 348.45 24.793 323.657 174.26 9.45541 164.804
internal_count=34370 32451 1919 32346 1182 31164 1054 196 858
is_linear=0
shrinkage=0.05


Tree=22
num_leaves=9
num_cat=0
split_feature=39 0 5 9 71 35 86 74
split_gain=454.571 150.427 48.8089 41.7433 27.469 22.0001 4.46589 8.24276
threshold=6.0762594602777904 1.7775287114761585e+18 0.084930213464696286 5.5000000000000009 -23.72739941196085 -35.244019327516646 1.0000000180025095e-35 0.8000000000000006
decision_type=10 2 2 2 2 8 2 10
left_child=3 2 5 6 -4 -2 7 -1
right_child=1 -3 4 -5 -6 -7 -8 -9
leaf_value=-0.038004925774148934 -0.03445000199544828 -0.068920703075255357 0.026619072212790779 0.022930756472478178 -0.053665736994807381 0.046412718447579847 -0.072477106559135404 0.017169047048381701
leaf_weight=3.7121003456413728 1.8214991260319948 26.184484586119652 10.887942706234755 8.275148091837762 14.101707213558255 307.88982416223735 162.93977552652359 5.0956637421622872
leaf_count=53 126 105 663 662 519 31174 755 313
internal_value=-0.00228978 0.0299704 0.0394819 -0.0651346 -0.0210753 0.0448745 -0.070406 -0.0139277
internal_weight=540.908 360.885 334.701 180.023 24.9896 309.711 171.748 8.80776
internal_count=34370 32587 32482 1783 1182 31300 1121 366
is_linear=0
shrinkage=0.05


Tree=23
num_leaves=9
num_cat=0
split_feature=9 0 5 46 74 54 73 12
split_gain=422.493 141.948 47.2793 44.977 26.847 26.0743 2.19116 1.8256
threshold=5.5000000000000009 1.7775287114761585e+18 0.084930213464696286 1.2877311761869452 54.45000000000001 -220.43499999999966 1.5000000000000007 32.500000000000007
decision_type=2 2 2 10 10 2 10 2
left_child=3 2 4 6 -2 -4 -1 -8
right_child=1 -3 5 -5 -6 -7 7 -9
leaf_value=-0.070490534729093071 0.046828717593907151 -0.066654908220811174 -0.064249519112887038 0.024108775244624344 -0.03195715039873083 0.015316974085037491 -0.019652892874650378 0.0089910850527373156
leaf_weight=161.93197754584253 291.46340033691376 26.063633188605309 7.6978341713547733 9.1171331908553821 4.5899703176692119 17.687104335986078 2.7275129705667487 2.1506097167730331
leaf_count=902 30869 105 254 865 295 928 11 141
internal_value=-0.00237237 0.0294658 0.0390356 -0.0634634 0.044603 -0.0201497 -0.0693425 -0.00946929
internal_weight=523.429 347.502 321.438 175.927 296.053 25.3849 166.81 4.87812
internal_count=34370 32451 32346 1919 31164 1182 1054 152
is_linear=0
shrinkage=0.05


Tree=24
num_leaves=8
num_cat=0
split_feature=39 0 5 86 71 54 0
split_gain=393.335 134.005 46.2631 36.7972 25.3158 23.0655 17.6821
threshold=6.0762594602777904 1.7775287114761585e+18 0.084930213464696286 1.0000000180025095e-35 -23.72739941196085 -989.37999999999965 1.7775091119415521e+18
decision_type=10 2 2 2 2 2 2
left_child=3 2 5 6 -4 -2 -1
right_child=1 -3 4 -5 -6 -7 -8
leaf_value=-0.043368523731704148 -0.012733046489083757 -0.064566303952811085 0.02641497926224164 -0.069140681244276705 -0.050194356256135109 0.047409613609527348 0.029527168623489333
leaf_weight=2.8597880154848125 12.927258656360207 25.889152809977531 10.712597182020547 154.94511142373085 14.86609069444239 270.43285330664366 13.898622846230863
leaf_count=15 808 105 663 755 519 30492 1013
internal_value=-0.00246148 0.0289566 0.0385725 -0.0619496 -0.0197032 0.0443253 0.00552905
internal_weight=506.531 334.828 308.939 171.704 25.5787 283.36 16.7584
internal_count=34370 32587 32482 1783 1182 31300 1028
is_linear=0
shrinkage=0.05


Tree=25
num_leaves=9
num_cat=0
split_feature=39 0 5 9 0 54 86 74
split_gain=367.047 126.605 44.7731 34.4039 24.7499 22.6454 3.98699 7.41102
threshold=6.0762594602777904 1.7775287114761585e+18 0.084930213464696286 5.5000000000000009 1.7775197197151724e+18 -989.37999999999965 1.0000000180025095e-35 0.8000000000000006
decision_type=10 2 2 2 2 2 2 10
left_child=3 2 5 6 -4 -2 7 -1
right_child=1 -3 4 -5 -6 -7 -8 -9
leaf_value=-0.035394918417215759 -0.012286282466831569 -0.062633777819576089 -0.048539395157487716 0.021695486008739238 0.02686960917964203 0.047249402162673836 -0.067643410094821332 0.016746170618715604
leaf_weight=4.0031141303479654 13.086961803026496 25.6675835698843 15.353350115939977 7.5109720136970273 10.609674886800347 258.12729416880757 150.78303514420986 4.9118763441219926
leaf_count=53 808 105 639 662 543 30492 755 313
internal_value=-0.00253489 0.0284647 0.0381159 -0.0606173 -0.0188211 0.0440419 -0.065539 -0.0130014
internal_weight=490.054 322.845 297.177 167.209 25.963 271.214 159.698 8.91499
internal_count=34370 32587 32482 1783 1182 31300 1121 366
is_linear=0
shrinkage=0.05


Tree=26
num_leaves=9
num_cat=0
split_feature=9 5 5 46 74 54 73 30
split_gain=342.557 119.672 43.326 36.861 27.1142 24.2063 1.91303 1.58229
threshold=5.5000000000000009 2.8605928183331537e-05 0.084930213464696286 1.2877311761869452 54.45000000000001 -220.43499999999966 1.5000000000000007 217.87
decision_type=2 2 2 10 10 2 10 2
left_child=3 -2 4 6 -3 -4 -1 -8
right_child=1 2 5 -5 -6 -7 7 -9
leaf_value=-0.065908994803309015 -0.06083931405497689 0.046275143757968012 -0.059569590375392945 0.022729602138799512 -0.033291887418571801 0.015806579275972656 -0.018069159789670785 0.0085942222462673471
leaf_weight=149.86270297225565 25.404933616518974 255.36993717961013 8.3858110569417494 8.1853177454322559 4.3601464508101335 17.98586864862591 2.6730241030454627 2.0384239358827472
leaf_count=902 105 30869 254 865 295 928 11 141
internal_value=-0.00258846 0.0279779 0.0376529 -0.0593228 0.0437547 -0.0179501 -0.0647849 -0.00853281
internal_weight=474.266 311.507 286.102 162.759 259.73 26.3717 154.574 4.71145
internal_count=34370 32451 32346 1919 31164 1182 1054 152
is_linear=0
shrinkage=0.05


Tree=27
num_leaves=8
num_cat=0
split_feature=39 0 5 54 86 0 0
split_gain=319.03 113.087 43.4522 58.0397 30.9333 16.2122 8.06303
threshold=6.0762594602777904 1.7775287114761585e+18 0.054930213464696245 -220.43499999999966 1.0000000180025095e-35 1.7775091119415521e+18 1.7775087284394135e+18
decision_type=10 2 2 2 2 2 2
left_child=4 2 6 -4 5 -1 -2
right_child=1 -3 3 -5 -6 -7 -8
leaf_value=-0.041076944747850196 -0.0055346164809327754 -0.059167434304682354 -0.067409286860581216 0.027956056745738013 -0.065002709274581141 0.028780890174232399 0.047968719269828632
leaf_weight=3.0561402440071133 5.2501399344764641 25.106711983680725 13.486364241689442 39.833915366325527 142.35280883312225 13.095926541835068 216.62494608853012
leaf_count=15 559 105 723 3681 755 1013 27519
internal_value=-0.00267837 0.0274548 0.0371551 -0.00300124 -0.0580098 0.00491032 0.0465186
internal_weight=458.807 300.302 275.195 53.3203 158.505 16.1521 221.875
internal_count=34370 32587 32482 4404 1783 1028 28078
is_linear=0
shrinkage=0.05


Tree=28
num_leaves=9
num_cat=0
split_feature=9 0 5 54 46 0 42 86
split_gain=298.213 106.93 42.9055 53.2615 32.6588 7.98421 2.34465 5.89002
threshold=5.5000000000000009 1.7775287114761585e+18 0.054930213464696245 -220.43499999999966 1.2877311761869452 1.7775087284394135e+18 548.88999999999976 1.0000000180025095e-35
decision_type=2 2 2 2 10 2 2 2
left_child=4 2 5 -4 6 -2 -1 -8
right_child=1 -3 3 -5 -6 -7 7 -9
leaf_value=-0.064923478935392936 -0.0054289574399676247 -0.057604800482466335 -0.063181500980497449 0.027429456531018144 0.021892505955089347 0.047840059703521516 0.013837369524484517 -0.032382448005942858
leaf_weight=132.72338174749166 5.2785988990217438 24.777937978506088 14.316565154120324 38.787488244008273 7.6614813813939682 206.64037039736286 3.7102406080812207 9.8367836326360685
leaf_count=807 559 105 723 3681 865 27383 192 55
internal_value=-0.00276037 0.02695 0.0366624 -0.00313994 -0.0569267 0.0463284 -0.0621919 -0.0192232
internal_weight=443.733 289.801 265.023 53.1041 153.932 211.919 146.27 13.547
internal_count=34370 32451 32346 4404 1919 27942 1054 247
is_linear=0
shrinkage=0.05


Tree=29
num_leaves=8
num_cat=0
split_feature=39 5 5 54 86 5 10
split_gain=278.993 101.16 42.308 48.8948 27.2135 15.0707 4.21727
threshold=6.0762594602777904 2.8605928183331537e-05 0.054930213464696245 -220.43499999999966 1.0000000180025095e-35 2.8605928183331537e-05 90.500000000000014
decision_type=10 2 2 2 2 2 2
left_child=4 -2 6 -4 5 -1 -3
right_child=1 2 3 -5 -6 -7 -8
leaf_value=-0.039400748151511872 -0.05613985582781536 0.0031129935685640705 -0.059272424604900988 0.026905347254767176 -0.062681763109940822 0.028081635795063647 0.047446158080694446
leaf_weight=3.1912902742624274 24.423186555504799 7.0047820368781677 15.135582565329967 37.786324637942016 133.93215100467205 12.401545729488133 195.64200109615922
leaf_count=15 105 962 723 3681 755 1013 27116
internal_value=-0.00281989 0.0264601 0.0361704 -0.00324433 -0.0558696 0.00427172 0.0461322
internal_weight=429.517 279.992 255.569 52.9219 149.525 15.5928 202.647
internal_count=34370 32587 32482 4404 1783 1028 28078
is_linear=0
shrinkage=0.05


Tree=30
num_leaves=9
num_cat=0
split_feature=9 0 5 0 46 0 42 86
split_gain=260.799 95.7014 41.6489 47.2922 29.1346 8.15388 2.04683 5.34144
threshold=5.5000000000000009 1.7775287114761585e+18 0.054930213464696245 1.7775125077603863e+18 1.2877311761869452 1.7775087284394135e+18 548.88999999999976 1.0000000180025095e-35
decision_type=2 2 2 2 10 2 2 2
left_child=4 2 5 -4 6 -2 -1 -8
right_child=1 -3 3 -5 -6 -7 7 -9
leaf_value=-0.062620375652525359 -0.0061787908408726007 -0.054762554399047703 -0.073009618645384911 0.020317947212922613 0.021081138059079574 0.04757353382970525 0.013424194911951315 -0.030862747130527168
leaf_weight=125.00786830391735 5.0788775207474819 24.046599268913269 8.074110107496379 44.695480834227055 7.1807807348668566 188.5337695418857 3.5643894784152499 9.3370154350996
leaf_count=807 559 105 399 4005 865 27383 192 55
internal_value=-0.00288526 0.0259567 0.0356635 -0.00331823 -0.0548504 0.0459293 -0.0599621 -0.0181082
internal_weight=415.519 270.429 246.382 52.7696 145.09 193.613 137.909 12.9014
internal_count=34370 32451 32346 4404 1919 27942 1054 247
is_linear=0
shrinkage=0.05


Tree=31
num_leaves=9
num_cat=0
split_feature=39 7 45 5 54 86 0 67
split_gain=244.331 91.8226 63.5801 38.9784 37.5943 24.1384 14.0049 9.53652
threshold=6.0762594602777904 154.50000000000003 368.08500000000316 0.17398373332621445 -232.35499999999999 1.0000000180025095e-35 1.7775091119415521e+18 0.69624759701625594
decision_type=10 2 2 2 2 2 2 2
left_child=5 2 4 7 -2 6 -1 -3
right_child=1 3 -4 -5 -6 -7 -8 -9
leaf_value=-0.037797049157244883 -0.077615359010220666 0.046351502250335505 0.034615341760784957 -0.054032235270680989 0.021678254176871567 -0.060638661549074858 0.027401707082072398 -0.014445417522949758
leaf_weight=3.3120312541723242 31.983929935377091 195.97004364989698 21.221910776104778 2.2909045331180087 7.5585098988376549 125.61905790865421 11.762996729463337 2.3707741275429717
leaf_count=15 972 28403 1774 24 1137 755 1013 277
internal_value=-0.00296915 0.0254499 -0.025397 0.0413243 -0.0580908 -0.0539541 0.00371636 0.0449663
internal_weight=402.09 261.396 60.7644 200.632 39.5424 140.694 15.075 198.341
internal_count=34370 32587 3883 28704 2109 1783 1028 28680
is_linear=0
shrinkage=0.05


Tree=32
num_leaves=11
num_cat=0
split_feature=39 54 7 73 86 5 0 67 5 71
split_gain=228.935 87.0319 50.608 57.8858 22.6519 19.9803 13.5635 11.3122 5.43192 2.48678
threshold=6.0762594602777904 -232.35499999999999 154.50000000000003 -0.70000000000000051 1.0000000180025095e-35 0.29117871728936628 1.7775091119415521e+18 0.69624759701625594 0.12893459594482229 -17.872186916591307
decision_type=10 2 2 10 2 2 2 2 2 2
left_child=4 2 3 -2 6 -4 -1 8 -3 -9
right_child=1 7 5 -5 -6 -7 -8 9 -10 -11
leaf_value=-0.037206474151666349 0.027954855495108361 0.047045872010098078 0.0348927737762754 -0.079282403451868461 -0.059695712751487599 -0.041326321334744946 0.027055685114116369 0.0081771484401469488 -0.0074994785672462807 -0.029001194845946817
leaf_weight=3.3540277183055869 12.222958953585474 167.79265296366066 34.909136595204473 30.478393130935729 121.4860505759716 1.8150648027658451 11.453526655212043 1.9285550485365095 2.0695235375314942 0.7322751428000619
leaf_count=15 1072 25620 4861 658 755 12 1013 263 68 33
internal_value=-0.00304999 0.0250085 -0.0168772 -0.0491066 -0.0530821 0.0230872 0.00336928 0.0441598 0.0460013 -0.0168794
internal_weight=388.242 251.949 79.4256 42.7014 136.294 36.7242 14.8076 172.523 169.862 2.66083
internal_count=34370 32587 6603 1730 1783 4873 1028 25984 25688 296
is_linear=0
shrinkage=0.05


Tree=33
num_leaves=13
num_cat=0
split_feature=39 54 7 73 9 10 67 73 73 77 42 79
split_gain=214.631 83.3257 46.6964 53.9942 21.5155 14.1863 11.2335 4.95034 3.04161 2.46851 1.30375 0.442447
threshold=6.0762594602777904 -232.35499999999999 154.50000000000003 -0.70000000000000051 5.5000000000000009 91.500000000000014 0.69624759701625594 -12.799999999999999 1.5000000000000007 0.20585451490937898 -1649.4350000000056 -169.20149999999987
decision_type=10 2 2 10 2 2 2 8 10 2 2 2
left_child=4 2 3 -2 8 -4 7 -3 11 -8 -10 -1
right_child=1 6 5 -5 -6 -7 9 -9 10 -11 -12 -13
leaf_value=-0.0088702529676358017 0.027601766216319129 -0.0027153065911867825 -0.020053008102254907 -0.076547554262763662 0.018391420112965264 0.036913406058544179 0.0081561613877277981 0.047115955071797333 -0.014395435166667359 -0.028895564146822417 0.00908061854697635 -0.059015362995592319
leaf_weight=4.3408839274197808 11.896575582213698 4.0461493423208594 8.0769681027159077 30.349512174725533 5.7384107448160639 27.52431219117716 1.9155055228620761 158.24666945729405 2.4126758724451065 0.74911450454965223 2.1822664728388181 117.29278858192265
leaf_count=106 1072 342 433 658 662 4440 258 25346 11 38 167 837
internal_value=-0.00312945 0.0245799 -0.0166382 -0.0475494 -0.0522519 0.022426 0.0438709 0.0457881 -0.0565777 -0.0168514 -0.00466349 -0.0580356
internal_weight=374.772 242.805 77.8474 42.2461 131.967 35.6013 164.957 162.293 126.229 2.66462 4.59494 121.634
internal_count=34370 32587 6603 1730 1783 4873 25984 25688 1121 296 178 943
is_linear=0
shrinkage=0.05


Tree=34
num_leaves=12
num_cat=0
split_feature=9 54 73 0 0 46 67 5 71 12 87
split_gain=200.975 81.4775 43.9985 47.4737 31.3352 23.4173 11.1644 5.45075 2.44059 2.30911 7.99743
threshold=5.5000000000000009 -232.35499999999999 5.8499999999999952 1.7775287114761585e+18 1.7775143337563942e+18 1.2877311761869452 0.69624759701625594 0.12893459594482229 -17.872186916591307 32.500000000000007 1.0000000180025095e-35
decision_type=2 2 10 2 2 10 2 2 2 2 2
left_child=5 2 3 -2 -4 9 7 -3 -8 -1 -11
right_child=1 6 4 -5 -6 -7 8 -9 -10 10 -12
leaf_value=-0.060095031794853176 0.028031172024910907 0.046735055998504249 -0.12471891152258684 -0.048368083317591209 0.013070559971329743 0.019499738744295444 0.0081010278413359629 -0.0077469444115739116 -0.028764516255433678 -0.034594271062729803 0.016003735422538839
leaf_weight=103.18167767859995 46.663895222824067 154.3068508291617 3.5656657041981807 21.715910285711288 3.4608486299403012 6.3121847095899275 1.9073936524800958 2.0203921645879737 0.76189101533964176 14.054089203476908 4.5759186502546063
leaf_count=674 5869 25655 64 105 394 865 263 68 33 107 273
internal_value=-0.00314448 0.0241856 -0.0171139 0.000693005 -0.0890349 -0.051276 0.0436262 0.0456075 -0.0168201 -0.0561447 -0.0209174
internal_weight=362.527 234.403 75.4063 68.3798 7.02651 128.124 158.997 156.327 2.66928 121.812 18.63
internal_count=34370 32451 6432 5974 458 1919 26019 25723 296 1054 380
is_linear=0
shrinkage=0.05


Tree=35
num_leaves=11
num_cat=0
split_feature=38 54 73 0 0 86 0 67 5 0
split_gain=187.441 77.1795 41.7776 45.6296 30.1909 20.2707 12.2665 11.0691 5.3937 3.09113
threshold=93.892362324769536 -232.35499999999999 5.8499999999999952 1.7775287114761585e+18 1.7775143337563942e+18 1.0000000180025095e-35 1.7775091119415521e+18 0.69624759701625594 0.12893459594482229 1.7775177236668063e+18
decision_type=8 2 10 2 2 2 2 2 2 2
left_child=1 2 3 -1 -4 6 -2 8 -3 -9
right_child=5 7 4 -5 -6 -7 -8 9 -10 -11
leaf_value=0.027904445574233428 -0.034792038670358558 0.046528003772803091 -0.1200527099089453 -0.047390030326677365 0.013262165346096706 -0.057186405946690645 0.026421910911817288 -0.031322521162818806 -0.007672660005154131 0.0093182430435869903
leaf_weight=46.444129745475948 3.5092590004205695 146.28000048268586 3.8991407742723814 21.273510307073593 3.5315082860179245 109.73705421388149 10.899575129617004 0.43382869614288155 2.0344196856021872 2.2400382910855114
leaf_count=6028 15 25609 64 105 406 755 1024 18 68 278
internal_value=-0.0033169 0.0235885 -0.0163971 0.0011965 -0.0854341 -0.0504312 0.00336731 0.0432721 0.0453469 -0.0167872
internal_weight=350.282 226.137 75.1483 67.7176 7.43065 124.146 14.4088 150.988 148.314 2.67387
internal_count=34370 32576 6603 6133 470 1794 1039 25973 25677 296
is_linear=0
shrinkage=0.05


Tree=36
num_leaves=11
num_cat=0
split_feature=39 54 7 73 5 86 0 67 5 0
split_gain=175.277 74.9695 39.8983 46.3174 19.0978 18.9456 11.8429 11.0087 5.34083 3.05656
threshold=6.0762594602777904 -232.35499999999999 154.50000000000003 -0.70000000000000051 0.092345672587731104 1.0000000180025095e-35 1.7775091119415521e+18 0.69624759701625594 0.12893459594482229 1.7775177236668063e+18
decision_type=10 2 2 10 2 2 2 2 2 2
left_child=5 2 3 -2 -4 6 -1 8 -3 -9
right_child=1 7 4 -5 -6 -7 -8 9 -10 -11
leaf_value=-0.034261937809943979 0.026544237909148567 0.046344254434595875 0.036949328470891878 -0.071924130676912751 -0.031317274055593106 -0.056418110588520254 0.026020570539784207 -0.031220573610972288 -0.0075987578994487258 0.0092485136803723677
leaf_weight=3.5393256694078437 10.970748679712413 139.78406838700175 27.639410860836506 29.602383957244456 5.5566198639571658 105.90335068106651 10.565668035298584 0.44583689607679788 2.04839745722711 2.219981902744621
leaf_count=15 1072 25620 4720 658 153 755 1013 18 68 278
internal_value=-0.00350006 0.0229941 -0.0165712 -0.0453149 0.0209177 -0.0497491 0.00295569 0.0429582 0.045116 -0.0168255
internal_weight=338.276 218.267 73.7692 40.5731 33.196 120.008 14.105 144.498 141.832 2.66582
internal_count=34370 32587 6603 1730 4873 1783 1028 25984 25688 296
is_linear=0
shrinkage=0.05


Tree=37
num_leaves=12
num_cat=0
split_feature=9 54 73 0 0 46 5 55 7 42 86
split_gain=164.818 73.3915 37.8984 39.6159 27.5141 20.0989 7.98411 5.24435 2.90443 2.33538 3.79331
threshold=5.5000000000000009 -232.35499999999999 5.8499999999999952 1.7775287114761585e+18 1.7775143337563942e+18 1.2877311761869452 0.10684362780939063 0.81302065736334039 464.50000000000006 548.88999999999976 1.0000000180025095e-35
decision_type=2 2 10 2 2 10 2 2 2 2 2
left_child=5 2 3 -2 -4 9 7 -3 -8 -1 -11
right_child=1 6 4 -5 -6 -7 8 -9 -10 10 -12
leaf_value=-0.056571815723186342 0.026625745801651852 0.046380516733384253 -0.11333385632668119 -0.045073778137091444 0.01311616202769368 0.018365216657602386 0.014054404140621922 -0.01054312333460445 -0.018705966508254561 0.012482061527629637 -0.025188158712116316
leaf_weight=99.642850263975561 43.407305429689586 131.2987658130005 4.3986557023599735 20.139409750699997 3.4733568448573351 5.740192959085106 3.726672174409031 0.73194854333996673 3.6393821137025952 3.2405838817358017 7.3439782559871656
leaf_count=807 5869 25662 64 105 394 865 159 113 85 192 55
internal_value=-0.00355925 0.0225823 -0.0170922 0.000863564 -0.0814198 -0.0491016 0.0426926 0.0453449 -0.00358272 -0.0538503 -0.013194
internal_weight=326.783 210.815 71.4187 63.5467 7.87201 115.968 139.397 132.031 7.36605 110.227 10.5846
internal_count=34370 32451 6432 5974 458 1919 26019 25775 244 1054 247
is_linear=0
shrinkage=0.05


Tree=38
num_leaves=11
num_cat=0
split_feature=39 54 45 0 64 86 0 67 73 0
split_gain=153.959 69.3652 37.9138 36.9329 21.5634 17.1643 11.001 10.9411 5.38338 2.97246
threshold=6.0762594602777904 -232.35499999999999 -343.07499999999987 1.7775287114761585e+18 18382.820000000003 1.0000000180025095e-35 1.7775091119415521e+18 0.69624759701625594 -12.799999999999999 1.7775177236668063e+18
decision_type=10 2 2 2 2 2 2 2 8 2
left_child=5 2 4 -4 -2 6 -1 8 -3 -9
right_child=1 7 3 -5 -6 -7 -8 9 -10 -11
leaf_value=-0.032892681137798252 -0.1106168863739444 -0.0047074793099545044 0.024961031526221981 -0.044231286869858999 0.010945238861533195 -0.054994917097464513 0.025395173745988309 -0.031094875887450048 0.046281464562280987 0.0090385639967679246
leaf_weight=3.609270527958869 3.7954775961115947 3.5588849997147918 45.015153555665165 19.698543101549149 2.7232532226480544 98.611459113657475 10.064979793503879 0.46024044509977047 126.40331578580663 2.1578558143228292
leaf_count=15 112 342 6170 105 216 755 1013 18 25346 278
internal_value=-0.00369381 0.0220128 -0.0163374 0.000798116 -0.0839504 -0.048339 0.002615 0.0423182 0.0446486 -0.0170684
internal_weight=316.098 203.813 71.2324 64.7137 6.51873 112.286 13.6743 132.58 129.962 2.6181
internal_count=34370 32587 6603 6275 328 1783 1028 25984 25688 296
is_linear=0
shrinkage=0.05


Tree=39
num_leaves=11
num_cat=0
split_feature=39 54 45 5 64 87 67 5 73 77
split_gain=143.827 67.3025 35.7701 34.9253 20.3095 16.2426 10.8709 10.6567 5.32257 2.30567
threshold=6.0762594602777904 -232.35499999999999 -343.07499999999987 2.8605928183331537e-05 18382.820000000003 1.0000000180025095e-35 0.69624759701625594 2.8605928183331537e-05 -12.799999999999999 0.20585451490937898
decision_type=10 2 2 2 2 2 2 2 8 2
left_child=5 2 4 -4 -2 -1 8 -7 -3 -8
right_child=1 6 3 -5 -6 7 9 -9 -10 -11
leaf_value=-0.054319702770272843 -0.10665056863994299 -0.0046403045465219193 -0.043420332418668481 0.024418999109442074 0.010852935673231494 -0.032402482275075903 0.0077640770274473971 0.025073863549314342 0.046092542702379391 -0.028438546081356281
leaf_weight=95.059803210198879 4.1037681801244608 3.5742591917514801 19.261018484830856 43.962614673189819 2.69485965045169 3.6313947290182105 1.8066608151420944 9.8186669517308456 120.75907470425591 0.80518896784633387
leaf_count=755 112 342 105 6170 216 15 258 1013 25346 38
internal_value=-0.00387468 0.0214005 -0.0164855 0.000644463 -0.0813399 -0.0476887 0.041976 0.00235562 0.0443972 -0.0170963
internal_weight=305.477 196.967 70.0223 63.2236 6.79863 108.51 126.945 13.4501 124.333 2.61185
internal_count=34370 32587 6603 6275 328 1783 25984 1028 25688 296
is_linear=0
shrinkage=0.05


Tree=40
num_leaves=11
num_cat=0
split_feature=39 54 73 0 48 86 67 0 5 0
split_gain=134.392 65.2388 34.9314 34.7137 24.8612 15.3834 10.7731 10.3239 5.35088 2.92896
threshold=6.0762594602777904 -232.35499999999999 5.8499999999999952 1.7775287114761585e+18 131.50000000000003 1.0000000180025095e-35 0.69624759701625594 1.7775091119415521e+18 0.12893459594482229 1.7775177236668063e+18
decision_type=10 2 10 2 2 2 2 2 2 2
left_child=5 2 3 -2 -4 7 8 -1 -3 -8
right_child=1 6 4 -5 -6 -7 9 -9 -10 -11
leaf_value=-0.031922703789222746 0.025861641379607697 0.045577387180346429 0.013033295586326583 -0.042638563708280182 -0.10611467079622959 -0.053670181476118239 -0.030910585472491033 0.024756875843099033 -0.0080889930098810882 0.0089674266484898943
leaf_weight=3.6514513939619055 41.633548974059522 117.0247950409539 3.4143447121605259 18.827820047736168 4.9899530382826924 91.608313426375389 0.48166499286889974 9.5812425389885885 1.9500527316704381 2.1371649005450308
leaf_count=15 6028 25620 383 105 87 755 18 1013 68 278
internal_value=-0.00404974 0.0207921 -0.0166063 0.00150652 -0.0769288 -0.0470595 0.0416254 0.0021082 0.0441388 -0.0170503
internal_weight=295.3 190.459 68.8657 60.4614 8.4043 104.841 121.594 13.2327 118.975 2.61883
internal_count=34370 32587 6603 6133 470 1783 25984 1028 25688 296
is_linear=0
shrinkage=0.05


Tree=41
num_leaves=12
num_cat=0
split_feature=9 54 45 0 64 47 67 73 0 42 86
split_gain=125.748 65.0188 33.5001 30.9319 19.1732 16.6683 10.7141 5.38699 2.89583 2.11091 3.07782
threshold=5.5000000000000009 -232.35499999999999 -343.07499999999987 1.7775287114761585e+18 18382.820000000003 -1.2977986789604967 0.69624759701625594 -12.799999999999999 1.7775177236668063e+18 548.88999999999976 1.0000000180025095e-35
decision_type=2 2 2 2 2 8 2 8 2 2 2
left_child=5 2 4 -4 -2 -1 7 -3 -8 -7 -11
right_child=1 6 3 -5 -6 9 8 -9 -10 10 -12
leaf_value=0.017025810381782903 -0.10378576919676326 -0.0050912647445443965 0.023146048791909252 -0.041883870702890638 0.010657963495382415 -0.053857421990111065 -0.030800789422036352 0.045746835655311673 0.0089023203704723733 0.01168428592407403 -0.02264654836592413
leaf_weight=5.1130956108681858 4.299850949086248 3.4681010874919593 41.347849600948393 18.399791121482849 2.6348664788529277 86.708075269125402 0.49453833512961809 111.46297624288127 2.1187534756027162 2.9782456737011671 6.4310945123434049
leaf_count=865 76 342 6036 105 215 807 18 25381 278 192 55
internal_value=-0.00422881 0.0201938 -0.017611 -1.4242e-05 -0.079686 -0.0464944 0.0413395 0.043928 -0.0170737 -0.0511595 -0.0113588
internal_weight=285.457 184.227 66.6824 59.7476 6.93472 101.231 117.544 114.931 2.61329 96.1174 9.40934
internal_count=34370 32451 6432 6141 291 1919 26019 25723 296 1054 247
is_linear=0
shrinkage=0.05


Tree=42
num_leaves=11
num_cat=0
split_feature=39 54 0 0 60 86 67 0 5 0
split_gain=117.368 61.1295 32.6959 32.6673 23.2445 14.0599 10.6189 9.59398 5.43906 2.86293
threshold=6.0762594602777904 -232.35499999999999 1.7775125607587505e+18 1.7775287114761585e+18 1358.5000000000002 1.0000000180025095e-35 0.69624759701625594 1.7775091119415521e+18 0.12234567258773113 1.7775177236668063e+18
decision_type=10 2 2 2 2 2 2 2 2 2
left_child=5 2 4 -4 -2 7 8 -1 -3 -8
right_child=1 6 3 -5 -6 -7 9 -9 -10 -11
leaf_value=-0.030668257140506291 -0.098338809197550434 0.045497847105604117 0.026650095932830145 -0.041154348980089323 0.013318045838479786 -0.052453019426591529 -0.030688928577965277 0.024166037147340572 -0.0055249047550335875 0.008838052395403112
leaf_weight=3.6959273368120185 6.4117929022759181 105.75347107672133 38.727901902515441 17.977656126022339 3.5408707708120346 85.105262242257595 0.50764632504433338 9.1495827389880997 3.3389613823965183 2.1006273459643126
leaf_count=15 350 25572 5884 105 264 755 18 1013 116 278
internal_value=-0.00438295 0.0195952 -0.0167807 0.00220673 -0.071849 -0.0458155 0.040898 0.0018708 0.0436034 -0.0170937
internal_weight=276.31 178.359 66.6582 56.7056 9.95266 97.9508 111.701 12.8455 109.092 2.60827
internal_count=34370 32587 6603 5989 614 1783 25984 1028 25688 296
is_linear=0
shrinkage=0.05


Tree=43
num_leaves=9
num_cat=0
split_feature=39 7 45 5 73 86 0 6
split_gain=109.731 58.9333 40.4376 32.6714 19.0609 13.3487 9.29748 9.11105
threshold=6.0762594602777904 154.50000000000003 368.08500000000316 0.17398373332621445 -0.70000000000000051 1.0000000180025095e-35 1.7775091119415521e+18 0.065000000000000016
decision_type=10 2 2 2 10 2 2 2
left_child=5 2 4 7 -2 6 -1 -3
right_child=1 3 -4 -5 -6 -7 -8 -9
leaf_value=-0.030225532155903748 0.016248314666961198 0.043508051494281053 0.030523905039999535 -0.048165795280032314 -0.064481354488487436 -0.051866673020008629 0.023861638051754144 -0.018636763654674256
leaf_weight=3.7087026983499518 4.7744062328711143 121.47567690396681 15.058142080903052 2.7601187005639067 27.75935893971473 81.956926651299 8.9359853379428369 0.91513960249721904
leaf_count=15 1037 28584 1774 24 1072 755 1013 96
internal_value=-0.00454174 0.0190015 -0.0248272 0.0362722 -0.0515994 -0.0452384 0.00165561 0.0416708
internal_weight=267.344 172.743 47.5919 125.151 32.5338 94.6016 12.6447 122.391
internal_count=34370 32587 3883 28704 2109 1783 1028 28680
is_linear=0
shrinkage=0.05


Tree=44
num_leaves=12
num_cat=0
split_feature=9 54 45 0 64 46 67 73 0 12 87
split_gain=103.073 58.6983 29.9497 25.9642 16.1276 14.5152 10.6345 5.48567 2.75768 2.23551 4.86513
threshold=5.5000000000000009 -232.35499999999999 -343.07499999999987 1.7775287114761585e+18 18382.820000000003 1.2877311761869452 0.69624759701625594 -12.799999999999999 1.7775177236668063e+18 32.500000000000007 1.0000000180025095e-35
decision_type=2 2 2 2 2 10 2 8 2 2 2
left_child=5 2 4 -4 -2 9 7 -3 -8 -1 -11
right_child=1 6 3 -5 -6 -7 8 -9 -10 10 -12
leaf_value=-0.053193990631596001 -0.095736238299740734 -0.0058293320727646342 0.021804033722546901 -0.039362014845638893 0.010064954055133263 0.016054080415460418 -0.030677228637196064 0.045157357990345703 0.0085195757325273961 -0.026971048546314477 0.014023966932779797
leaf_weight=73.358926938846707 4.9539380799978963 3.2963717388920486 38.833490501157939 16.910860911011696 2.4569296231493354 4.6878459565341464 0.50875593535602037 98.154093480668962 2.011540331877768 9.4729240834712964 3.8128707595169535
leaf_count=674 76 342 6036 105 215 865 18 25381 278 107 273
internal_value=-0.00463477 0.0185498 -0.0177807 8.36782e-05 -0.0750253 -0.0447032 0.0402419 0.0431263 -0.0175752 -0.0493114 -0.0142359
internal_weight=258.459 167.126 63.1552 55.7444 7.41087 91.3326 103.971 101.45 2.5203 86.6447 13.2858
internal_count=34370 32451 6432 6141 291 1919 26019 25723 296 1054 380
is_linear=0
shrinkage=0.05


Tree=45
num_leaves=11
num_cat=0
split_feature=39 54 0 0 45 86 67 27 5 0
split_gain=96.3029 55.0252 29.5452 27.7132 19.8479 12.149 10.5266 8.60764 5.5194 2.72672
threshold=6.0762594602777904 -232.35499999999999 1.7775125607587505e+18 1.7775287114761585e+18 56.250000000000021 1.0000000180025095e-35 0.69624759701625594 1.1909151118967385 0.12234567258773113 1.7775177236668063e+18
decision_type=10 2 2 2 2 2 2 8 2 2
left_child=5 2 4 -4 -2 7 8 -1 -3 -8
right_child=1 6 3 -5 -6 -7 9 -9 -10 -11
leaf_value=-0.029037416678584012 -0.09109615951613298 0.044885682618425717 0.025428549551232693 -0.038710109894603446 0.012734002414026765 -0.050749134602660464 -0.030563218186834169 0.023226378934700049 -0.0062057628958416241 0.0084601526163650652
leaf_weight=3.734863176941869 7.103962798137216 93.126433299388736 36.255904162768275 16.51435911655426 3.3071866165846586 76.053570762276649 0.52209090627729837 8.5021124361082911 3.1865627486258736 1.9950402909889815
leaf_count=15 282 25572 5884 105 332 755 18 1013 116 278
internal_value=-0.00479473 0.0179532 -0.0169279 0.00238723 -0.068034 -0.0441165 0.0397588 0.00139012 0.0427706 -0.0175846
internal_weight=250.302 162.012 63.1814 52.7703 10.4111 88.2905 98.8301 12.237 96.313 2.51713
internal_count=34370 32587 6603 5989 614 1783 25984 1028 25688 296
is_linear=0
shrinkage=0.05


Tree=46
num_leaves=11
num_cat=0
split_feature=39 54 73 0 48 86 67 0 73 0
split_gain=90.0446 52.9961 28.121 25.4194 19.6052 11.5582 10.4341 8.34526 5.46591 2.69595
threshold=6.0762594602777904 -232.35499999999999 5.8499999999999952 1.7775287114761585e+18 131.50000000000003 1.0000000180025095e-35 0.69624759701625594 1.7775091119415521e+18 -12.799999999999999 1.7775177236668063e+18
decision_type=10 2 10 2 2 2 2 2 8 2
left_child=5 2 3 -2 -4 7 8 -1 -3 -8
right_child=1 6 4 -5 -6 -7 9 -9 -10 -11
leaf_value=-0.028629543318829227 0.023497352841311322 -0.0061073547999457474 0.012502842419957994 -0.03807674853316876 -0.092289723288678321 -0.05021031120512881 -0.030447159376921371 0.022935637090863673 0.044669155784908293 0.0084014694712220127
leaf_weight=3.7409739196300498 36.811932512558997 3.2313260701484978 3.2266376367770118 16.125822812318802 6.1669916803948581 73.205803036689758 0.53565604053437654 8.31101380381733 89.049192661885172 1.9787851255387066
leaf_count=15 6028 342 383 105 87 755 18 1013 25346 278
internal_value=-0.0049497 0.017364 -0.0168876 0.00167102 -0.0684079 -0.0435787 0.0393482 0.0012052 0.0424679 -0.017591
internal_weight=242.384 157.126 62.3314 52.9378 9.39363 85.2578 94.795 12.052 92.2805 2.51444
internal_count=34370 32587 6603 6133 470 1783 25984 1028 25688 296
is_linear=0
shrinkage=0.05


Tree=47
num_leaves=12
num_cat=0
split_feature=9 54 73 0 48 46 67 5 0 42 86
split_gain=84.2745 52.7108 25.9268 23.5861 17.946 12.7039 10.3622 5.51387 2.66538 2.00547 2.2632
threshold=5.5000000000000009 -232.35499999999999 5.8499999999999952 1.7775287114761585e+18 131.50000000000003 1.2877311761869452 0.69624759701625594 0.12234567258773113 1.7775177236668063e+18 548.88999999999976 1.0000000180025095e-35
decision_type=2 2 10 2 2 10 2 2 2 2 2
left_child=5 2 3 -2 -4 9 7 -3 -8 -1 -11
right_child=1 6 4 -5 -6 -7 8 -9 -10 10 -12
leaf_value=-0.050397486716014642 0.022499690716273852 0.044488980108735296 0.012104785416454465 -0.037460843308711654 -0.088808253721875952 0.015131536545849828 -0.030329058149329832 -0.0064616670499134735 0.0083435135917137269 0.010694003825669478 -0.01912419890554307
leaf_weight=70.127247476018965 35.199285058304667 86.260492461500689 3.0913375308737141 15.745491385459898 6.4783124402165413 4.3051547021605066 0.54944954626262132 3.1289712237194172 1.9627696545794604 2.6652136333286762 5.1951043605804434
leaf_count=807 5869 25607 372 105 86 865 18 116 278 192 55
internal_value=-0.00511536 0.0167787 -0.0177612 0.000861798 -0.0666819 -0.0430901 0.0390332 0.0422348 -0.0175943 -0.0476586 -0.00868699
internal_weight=234.709 152.416 60.5144 50.9448 9.56965 82.2927 91.9017 89.3895 2.51222 77.9876 7.86032
internal_count=34370 32451 6432 5974 458 1919 26019 25723 296 1054 247
is_linear=0
shrinkage=0.05


Tree=48
num_leaves=13
num_cat=0
split_feature=0 10 5 65 8 12 0 67 60 32 7 35
split_gain=79.7736 70.6206 23.6742 22.4055 16.3397 9.91736 6.93976 5.15757 1.08112 0.853646 0.844897 0.190832
threshold=1.7775125077603863e+18 98.500000000000014 0.10474728012424403 730.30500000000018 16.500000000000004 32.500000000000007 1.7775197197151724e+18 0.72696195772593042 534.50000000000011 19.382619047619041 122.50000000000001 -6.074313554744875
decision_type=2 2 2 2 2 2 2 2 2 10 2 10
left_child=3 2 7 9 8 -6 -4 -2 -5 -1 -3 -12
right_child=1 10 6 4 5 -7 -8 -9 -10 -11 11 -13
leaf_value=0.022693346599404845 0.045106561594835913 -0.042411255568509248 -0.03786412307664723 -0.0064559122513452348 -0.06160162928537273 -0.0078244980174627422 0.014287035825776409 -0.010853235486597201 0.018238745279842889 -0.004374476724718193 -0.0053789200903584617 0.0040335049299493322
leaf_weight=8.2586521827615762 98.059058126062155 28.408968494273726 6.3968040235340577 0.48189194034784932 60.456819250248373 13.395020874217151 3.7301080701872706 0.67769666761159797 5.6306045646779239 0.1026397719979294 1.0989650711417196 0.87401878088712592
leaf_count=2653 27304 302 144 25 1707 764 123 108 974 1 15 250
internal_value=-0.00524877 0.0180158 0.0364586 -0.0400276 -0.0478623 -0.0539441 -0.0211005 0.0437597 0.0134934 0.0201596 -0.0407314 -0.00132298
internal_weight=227.571 139.246 108.864 88.3256 79.9643 73.8518 10.1269 98.7368 6.1125 8.36129 30.382 1.97298
internal_count=34370 28246 27679 6124 3470 2471 267 27412 999 2654 567 265
is_linear=0
shrinkage=0.05


Tree=49
num_leaves=11
num_cat=0
split_feature=10 0 42 5 50 57 0 67 35 35
split_gain=74.6758 71.2355 31.4539 23.0139 12.5228 12.4504 6.63156 5.11786 2.26697 0.239269
threshold=98.500000000000014 1.7775125077603863e+18 -46.084999999999972 0.10474728012424403 91.368907980663749 939.51500000000021 1.7775197197151724e+18 0.72696195772593042 -0.88195532073424932 -0.89426256511615765
decision_type=2 2 2 2 2 2 2 2 8 10
left_child=1 2 5 7 -4 -1 -5 -3 9 -2
right_child=8 3 4 6 -6 -7 -8 -9 -10 -11
leaf_value=-0.067968916937427196 0.0052726831728528382 0.044886755067427474 0.027207401969563522 -0.036720186692240496 -0.025514516644343833 0.011155467375961839 0.014143527201243565 -0.010811221496992205 -0.050269678753188378 -0.0051073929332722595
leaf_weight=25.297065787715841 1.1729480484500527 93.769804226001725 19.060427455464382 6.5732710314914566 8.8977577313780767 2.8201359501108518 3.6822353140451014 0.68499220861121912 57.659869856201112 1.0432085394859314
leaf_count=924 297 27304 4302 144 125 399 123 108 629 15
internal_value=-0.00528486 0.0127629 -0.0294754 0.0359803 0.00812714 -0.0591882 -0.0204911 0.0434865 -0.0486394 0.000205417
internal_weight=220.662 160.786 56.0754 104.71 27.9582 28.1172 10.2555 94.4548 59.876 2.21616
internal_count=34370 33429 5750 27679 4427 1323 267 27412 941 312
is_linear=0
shrinkage=0.05


Tree=50
num_leaves=11
num_cat=0
split_feature=10 0 42 5 50 57 0 67 35 35
split_gain=70.1524 67.3344 29.2032 22.3574 12.0074 11.8636 6.3377 5.07733 2.2023 0.237009
threshold=98.500000000000014 1.7775125077603863e+18 -46.084999999999972 0.10474728012424403 91.368907980663749 939.51500000000021 1.7775197197151724e+18 0.72696195772593042 -0.88195532073424932 -0.99152583755295598
decision_type=2 2 2 2 2 2 2 2 8 8
left_child=1 2 5 7 -4 -1 -5 -3 9 -2
right_child=8 3 4 6 -6 -7 -8 -9 -10 -11
leaf_value=-0.066127543565317831 0.0052479500707595704 0.04466067795508457 0.026773742878211007 -0.035607829403611485 -0.025173758718308778 0.01105967893224445 0.014002366489903198 -0.01076898004142114 -0.049688492260043619 -0.0050854026306978682
leaf_weight=24.987939452519644 1.1668347623199222 89.686236103996634 18.575050045270476 6.7475941237062198 8.7074874117970449 2.789712357800453 3.6353861121460795 0.69233653554692764 55.587187573313713 1.0386896878480913
leaf_count=924 297 27304 4302 144 125 399 123 108 629 15
internal_value=-0.00538008 0.0123832 -0.028867 0.0354951 0.00788904 -0.0575 -0.01989 0.0432055 -0.0480356 0.000202106
internal_weight=213.614 155.822 55.0602 100.762 27.2825 27.7777 10.383 90.3786 57.7927 2.20552
internal_count=34370 33429 5750 27679 4427 1323 267 27412 941 312
is_linear=0
shrinkage=0.05


Tree=51
num_leaves=11
num_cat=0
split_feature=10 0 42 5 86 33 0 67 35 35
split_gain=65.9175 63.6202 27.3719 21.7056 17.4383 8.30485 6.05759 5.03597 2.13971 0.234779
threshold=98.500000000000014 1.7775125077603863e+18 -132.88499999999996 0.10474728012424403 1.0000000180025095e-35 214.90999999999948 1.7775197197151724e+18 0.72696195772593042 -0.88195532073424932 -0.99152583755295598
decision_type=2 2 2 2 2 2 2 2 8 8
left_child=1 2 5 7 -4 -1 -5 -3 9 -2
right_child=8 3 4 6 -6 -7 -8 -9 -10 -11
leaf_value=-0.065617071254047629 0.0052234345133765582 0.044428245611496664 0.031590198466355017 -0.034526708291017859 -0.027761688175017642 0.0083124271902502815 0.01386350581702279 -0.01072651281353741 -0.049116731353445721 -0.0050635852363987103
leaf_weight=22.173686157213528 1.16078141098842 85.798406613059342 16.758871053578332 6.9196377443149668 13.223207462113352 1.9540777022484679 3.5895319539122283 0.69972931081429024 53.589697951450944 1.0342061519622805
leaf_count=433 297 27304 4168 144 969 180 123 108 629 15
internal_value=-0.00547004 0.0120064 -0.0282511 0.0350033 0.00501731 -0.0589484 -0.0192978 0.0429167 -0.047441 0.00019885
internal_weight=206.902 151.117 54.1098 97.0073 29.9821 24.1278 10.5092 86.4981 55.7847 2.19499
internal_count=34370 33429 5750 27679 5137 613 267 27412 941 312
is_linear=0
shrinkage=0.05


Tree=52
num_leaves=13
num_cat=0
split_feature=4 0 74 4 8 64 54 5 0 37 73 73
split_gain=62.3858 35.3415 34.2754 20.6196 12.2641 10.0137 9.15289 6.88904 4.49753 3.86121 1.2334 0.369461
threshold=0.014731126111536567 1.7775287114761585e+18 2.1000000000000045 0.96132203404517125 14.500000000000002 543.6350000000001 1854.8850000000002 0.054930213464696245 1.7775087284394135e+18 722.01000000000079 8.0500000000000025 -20.799999999999994
decision_type=2 2 10 2 2 2 2 2 2 2 10 10
left_child=1 4 5 7 10 11 -7 -4 -5 -6 -1 -2
right_child=2 -3 3 8 9 6 -8 -9 -10 -11 -12 -13
leaf_value=0.043791391945348417 -0.0032172921372026404 -0.033887082629617503 0.006317007147632215 -0.0093109838993669283 -0.027651276348103382 -0.055398474163395911 0.010429376967570896 -0.047349754419151964 0.035407795298688906 0.012331235787528691 -0.002757885740610378 0.01306555621457603
leaf_weight=68.358240035595372 0.29827074985951219 13.520935401320456 5.9569188801106048 2.4629761048126992 3.5437591390218577 65.799104959936813 2.584607013501226 7.2536377771757543 23.707102941581979 3.1484885129611939 0.28295868774875899 3.4615131618920705
leaf_count=22940 4 105 1281 198 198 1445 478 343 6107 167 14 1090
internal_value=-0.00556247 0.0242138 -0.0293264 0.00731655 0.0373909 -0.0477841 -0.0518973 -0.0308547 0.0297885 -0.0127224 0.0432732 0.0103744
internal_weight=200.379 88.8544 111.524 39.3806 75.3334 72.1435 68.3837 13.2106 26.1701 6.69225 68.6412 3.75978
internal_count=34370 23424 10946 7929 23319 3017 1923 1624 6305 365 22954 1094
is_linear=0
shrinkage=0.05


Tree=53
num_leaves=12
num_cat=0
split_feature=0 10 65 8 78 12 65 60 4 24 24
split_gain=58.611 52.7437 18.377 13.6411 12.3855 8.71268 8.58745 1.00747 0.809331 0.574642 0.125716
threshold=1.7775125077603863e+18 98.500000000000014 730.30500000000018 16.500000000000004 0.84412955465587058 32.500000000000007 135.87500000000003 534.50000000000011 0.6803977272727274 20.500000000000004 21.500000000000004
decision_type=2 2 2 2 2 2 2 2 2 2 2
left_child=2 4 8 7 6 -5 -2 -4 -1 -3 -11
right_child=1 9 3 5 -6 -7 -8 -9 -10 10 -12
leaf_value=-0.0043605203879083987 -0.016182702803097092 -0.038758022313838326 -0.0063101338190162922 -0.057847012995965889 -0.024995884680556288 -0.0056788882012190683 0.040512210714359703 0.017386072427117767 0.021603684263934889 -0.0043590174193129218 0.0033364464847334928
leaf_weight=0.10466236621141334 2.0266546697821459 24.108252160251144 0.50706122163683076 52.913852077443153 1.8285277946852136 11.847485917620359 86.602613527793437 5.2372421354521066 7.5652941658627242 0.88924666866660007 0.71158440574072301
leaf_count=1 386 365 25 1707 56 764 27237 974 2653 15 187
internal_value=-0.00557798 0.0165622 -0.0366249 -0.0442805 0.034077 -0.0503395 0.0377065 0.012615 0.0189821 -0.0373489 -0.00101094
internal_weight=194.342 116.167 78.1756 70.5056 90.4578 64.7613 88.6293 5.7443 7.66996 25.7091 1.60083
internal_count=34370 28246 6124 3470 27679 2471 27623 999 2654 567 202
is_linear=0
shrinkage=0.05


Tree=54
num_leaves=9
num_cat=0
split_feature=9 0 17 54 56 9 31 36
split_gain=55.7537 36.6749 33.5228 19.4213 17.9707 6.88263 3.49915 0.759247
threshold=90.500000000000014 1.7775287114761585e+18 2.5000000000000004 1169.380000000001 6.3574832899059723 1.5000000000000002 0.99092524869371956 45.500000000000007
decision_type=2 2 2 2 2 2 10 2
left_child=2 -2 3 4 -1 -4 -7 -5
right_child=1 -3 5 7 -6 6 -8 -9
leaf_value=0.017753290034495682 0.042862087144148853 -0.032793353312312062 -0.016162967167364688 -0.0035251884186687263 -0.052228787256037829 0.033729208710917745 -0.0088200915797102177 0.021217618060571857
leaf_weight=5.4210122923832378 58.757578495657071 12.845376245677469 4.3524895794689682 0.70742239058017631 78.020719815511256 19.995853603817526 1.5268519460223604 7.229400607990101
leaf_count=1806 22093 105 75 12 3686 4745 135 1713
internal_value=-0.00563026 0.0269343 -0.0260702 -0.0394129 -0.0462689 0.0189014 0.0288703 0.0182764
internal_weight=188.857 71.603 117.254 91.3786 83.4417 25.8752 21.5227 7.93682
internal_count=34370 22198 12172 7217 5492 4955 4880 1725
is_linear=0
shrinkage=0.05


Tree=55
num_leaves=10
num_cat=0
split_feature=10 0 8 8 5 43 35 40 35
split_gain=52.9459 51.7744 24.2533 22.0621 14.4449 5.08371 1.91521 1.11269 0.187475
threshold=98.500000000000014 1.7775143337563942e+18 16.500000000000004 90.500000000000014 0.17398373332621445 0.9864160854215116 -0.88195532073424932 286.49499999999972 -0.89426256511615765
decision_type=2 2 2 2 2 10 8 2 10
left_child=1 2 7 -4 5 -3 8 -1 -2
right_child=6 4 3 -5 -6 -7 -8 -9 -10
leaf_value=-0.0030970098980851561 0.0048770228466708246 0.0440609856211353 -0.074937480524288683 -0.0089437502619330068 -0.027690445777821371 -0.0091455361997948275 -0.047030042531016537 0.028323902282153802 -0.0043762187081656037
leaf_weight=1.1303813941776741 1.0759079381823538 69.903667667182162 12.696738033089785 36.041302441619337 1.4231140408664931 1.4722679867409159 46.686185244470835 12.820581682724876 0.89278841391205777
leaf_count=297 297 24233 859 4304 23 256 629 3457 15
internal_value=-0.00546465 0.0109884 -0.0206458 -0.0359668 0.0374328 0.0419745 -0.0453433 0.0255479 0.000530403
internal_weight=184.143 135.488 62.689 48.738 72.799 71.3759 48.6549 13.951 1.9687
internal_count=34370 33429 8917 5163 24512 24489 941 3754 312
is_linear=0
shrinkage=0.05


Tree=56
num_leaves=10
num_cat=0
split_feature=10 17 8 4 5 43 35 60 35
split_gain=49.6541 49.3087 22.4501 28.6918 14.2354 5.02479 1.86314 1.05831 0.185877
threshold=98.500000000000014 1.5000000000000002 16.500000000000004 0.96132203404517125 0.17398373332621445 0.9864160854215116 -0.88195532073424932 534.50000000000011 -0.89426256511615765
decision_type=2 2 2 2 2 10 8 2 10
left_child=1 2 7 -4 5 -3 8 -1 -2
right_child=6 4 3 -5 -6 -7 -8 -9 -10
leaf_value=-0.0029608422955721371 0.0048556684044949979 0.043821483195083388 -0.054430854627209813 0.018049424793952117 -0.027448767376846601 -0.0090802125516112088 -0.04649326852551243 0.02779087407009815 -0.0043596815682415543
leaf_weight=1.1563610436860461 1.0707162758335469 67.12519373674877 35.53398779546842 13.735652226489035 1.4512020014226426 1.4804521487094451 45.021666292566806 12.294208014616741 0.88938351720571507
leaf_count=243 297 24264 2173 2980 23 256 629 3490 15
internal_value=-0.00555535 0.0104896 -0.020125 -0.0345883 0.0369884 0.04167 -0.0447837 0.0250119 0.000525203
internal_weight=179.759 132.777 62.7202 49.2696 70.0568 68.6056 46.9818 13.4506 1.9601
internal_count=34370 33429 8886 5153 24543 24520 941 3733 312
is_linear=0
shrinkage=0.05


Tree=57
num_leaves=9
num_cat=0
split_feature=9 0 17 54 56 9 43 12
split_gain=47.1674 31.8459 26.8151 16.8356 16.7344 5.77351 3.6211 0.68872
threshold=90.500000000000014 1.7775287114761585e+18 2.5000000000000004 1169.380000000001 6.3574832899059723 1.5000000000000002 0.9864160854215116 30.500000000000004
decision_type=2 2 2 2 2 2 10 2
left_child=2 -2 3 4 -1 -4 -7 -5
right_child=1 -3 5 7 -6 6 -8 -9
leaf_value=0.017848538638937973 0.042058763061740376 -0.030930967602103517 -0.01499715008928804 0.020583305293204415 -0.048984956449082212 0.032515064484511913 -0.010037643894345255 -0.0033230718590488251
leaf_weight=5.475666594458743 52.046226060017943 11.714462041854857 3.9509630016982582 6.8756719378288826 74.508595597464591 18.013077559880916 1.2933130911551405 0.66706444323062886
leaf_count=1806 22093 105 75 1713 3686 4709 171 12
internal_value=-0.00555593 0.0262733 -0.0245335 -0.0364158 -0.0429345 0.0176882 0.0272121 0.01778
internal_weight=174.545 63.7607 110.784 87.527 79.9843 23.2574 19.3064 7.54274
internal_count=34370 22198 12172 7217 5492 4955 4880 1725
is_linear=0
shrinkage=0.05


Tree=58
num_leaves=10
num_cat=0
split_feature=10 17 42 45 5 69 43 35 35
split_gain=44.982 43.2037 21.3069 18.4828 13.7921 13.4085 4.91988 1.71256 0.169424
threshold=98.500000000000014 1.5000000000000002 -24.515000000000111 141.69 0.17398373332621445 217.39499999999973 0.9864160854215116 -0.88195532073424932 -0.89426256511615765
decision_type=2 2 2 2 2 2 10 8 10
left_child=1 2 3 -1 6 -4 -3 8 -2
right_child=7 4 5 -5 -6 -7 -8 -9 -10
leaf_value=-0.055825688745255023 0.0046544677011081306 0.04334874691258131 0.032222019792727645 0.018277761155002913 -0.026913039219178043 -0.02099828377137207 -0.0089941875947930697 -0.045502913733693251 -0.0041623756385918715
leaf_weight=26.507773127406836 1.0220273162703959 62.060540049686097 17.632646641344767 5.6538906793575725 1.5089026689529408 11.766187878092749 1.4876738083548833 42.045688845217228 0.84875542670488346
leaf_count=1516 297 24264 5091 1238 23 1041 256 629 15
internal_value=-0.00537317 0.0101894 -0.0184267 -0.0415532 0.0361148 0.0109985 0.0410671 -0.0438101 0.000517664
internal_weight=170.534 126.618 61.5605 32.1617 65.0571 29.3988 63.5482 43.9165 1.87078
internal_count=34370 33429 8886 2754 24543 6132 24520 941 312
is_linear=0
shrinkage=0.05


Tree=59
num_leaves=10
num_cat=0
split_feature=10 0 54 45 69 5 43 35 35
split_gain=42.3894 40.3138 19.6061 20.8919 15.7345 13.5605 4.85415 1.66629 0.168042
threshold=98.500000000000014 1.7775143337563942e+18 -220.43499999999966 56.250000000000021 146.02500000000001 0.17398373332621445 0.9864160854215116 -0.88195532073424932 -0.89426256511615765
decision_type=2 2 2 2 2 2 10 8 10
left_child=1 2 3 -1 -4 6 -3 8 -2
right_child=7 5 4 -5 -6 -7 -8 -9 -10
leaf_value=-0.061643548489240134 0.0046349182933313401 0.04305805135099422 0.030341535853938964 0.018734310585048593 -0.023738849333146708 -0.026670557957762665 -0.0089295455604299478 -0.044981249333523092 -0.0041473092538319494
leaf_weight=20.422681633383039 1.0173182443249968 59.291283176746219 20.057854623184539 5.7852395088411859 14.81975796073675 1.5367069076746691 1.4957100432366122 40.560358056798577 0.84565283730626095
leaf_count=445 297 24233 6261 820 1391 23 256 629 15
internal_value=-0.00541314 0.00986722 -0.0176805 -0.0436268 0.0071931 0.035579 0.0406981 -0.0432667 0.000512864
internal_weight=165.833 123.409 61.0855 26.2079 34.8776 62.3237 60.787 42.4233 1.86297
internal_count=34370 33429 8917 1265 7652 24512 24489 941 312
is_linear=0
shrinkage=0.05


Tree=60
num_leaves=9
num_cat=0
split_feature=9 0 74 71 4 61 5 0
split_gain=40.2968 27.7111 24.3825 14.2012 13.7449 11.9127 5.68042 3.23852
threshold=90.500000000000014 1.7775287114761585e+18 2.1000000000000045 -25.589834983185074 0.96132203404517125 1272.4300000000001 0.054930213464696245 1.7775087284394135e+18
decision_type=2 2 10 2 2 2 2 2
left_child=2 -2 3 -1 6 -5 -4 -6
right_child=1 -3 4 5 7 -7 -8 -9
leaf_value=0.017144220599050609 0.041224913229250745 -0.029184208854345063 0.0089265720423065166 0.012325560247611627 -0.0074901006379769139 -0.0512007725599255 -0.036051059979935983 0.033524198420793898
leaf_weight=5.0869574623648068 46.312977387919091 10.685409419238566 6.0702711147023356 4.4372672468889496 1.9378243039827818 57.994205221766606 8.6383917287457717 19.990053239627741
leaf_count=698 22093 105 1281 1230 198 2137 521 6107
internal_value=-0.00548893 0.0256396 -0.0232776 -0.0392778 0.00830884 -0.0456074 -0.0213885 0.0286889
internal_weight=161.153 56.9984 104.155 67.5184 36.6365 62.4315 14.7087 21.9279
internal_count=34370 22198 12172 4065 8107 3367 1802 6305
is_linear=0
shrinkage=0.05


Tree=61
num_leaves=10
num_cat=0
split_feature=10 17 54 45 69 5 41 35 35
split_gain=38.0068 36.861 17.9445 18.7326 14.3755 13.1521 2.52946 1.53317 0.152987
threshold=98.500000000000014 1.5000000000000002 -172.23999999999995 56.250000000000021 146.02500000000001 0.17398373332621445 6.4249999999999838 -0.88195532073424932 -0.89426256511615765
decision_type=2 2 2 2 2 2 2 8 10
left_child=1 2 3 -1 -4 6 -3 8 -2
right_child=7 5 4 -5 -6 -7 -8 -9 -10
leaf_value=-0.058962243323194136 0.0044461994357745003 -0.00055591660227412418 0.029684613406605477 0.018070175174788632 -0.022694354071728248 -0.026152223049894886 0.042399578100929883 -0.04397812130967492 -0.0039514106058575809
leaf_weight=20.146842212881896 0.97205625823698938 3.3509797177975988 19.095811274717562 5.4632066024933001 14.335078672040252 1.5913876052945841 53.570371750742197 37.778718680609018 0.80531202256679513
leaf_count=444 297 1013 6255 803 1384 23 23507 629 15
internal_value=-0.00536779 0.00939307 -0.017188 -0.0420697 0.00717068 0.034808 0.0401656 -0.042278 0.0005169
internal_weight=157.11 117.554 59.0409 25.61 33.4309 58.5127 56.9214 39.5561 1.77737
internal_count=34370 33429 8886 1247 7639 24543 24520 941 312
is_linear=0
shrinkage=0.05


Tree=62
num_leaves=9
num_cat=0
split_feature=9 0 74 71 4 65 5 0
split_gain=36.1729 25.386 21.8517 13.2839 12.6114 10.9346 5.37722 3.03663
threshold=90.500000000000014 1.7775287114761585e+18 2.1000000000000045 -25.589834983185074 0.96132203404517125 579.85500000000013 0.054930213464696245 1.7775087284394135e+18
decision_type=2 2 10 2 2 2 2 2
left_child=2 -2 3 -1 6 -5 -4 -6
right_child=1 -3 4 5 7 -7 -8 -9
leaf_value=0.016824674338641359 0.040644625435742654 -0.028151054642112205 0.0090421599344715983 0.01186448034353043 -0.0072543777279899446 -0.049755986987767377 -0.034521931067374036 0.032841935273546709
leaf_weight=4.9467381486902005 42.903579298756085 10.094673112034796 5.9945196954067788 4.2719124632421872 1.8721965909935558 55.221039603464305 8.7541154997888935 18.834029168705456
leaf_count=698 22093 105 1281 1235 198 2132 521 6107
internal_value=-0.00541299 0.0251524 -0.0224424 -0.0379412 0.00787675 -0.0442607 -0.0203164 0.0280347
internal_weight=152.893 52.9983 99.8946 64.4397 35.4549 59.493 14.7486 20.7062
internal_count=34370 22198 12172 4065 8107 3367 1802 6305
is_linear=0
shrinkage=0.05


Tree=63
num_leaves=10
num_cat=0
split_feature=10 0 54 69 28 43 35 5 35
split_gain=34.1904 33.8465 22.5413 12.4489 12.0223 4.41221 1.41134 0.288589 0.139546
threshold=98.500000000000014 1.7775162597577879e+18 -220.43499999999966 130.595 1034.8100000000011 0.9864160854215116 -0.88195532073424932 0.11234567258773112 -0.89426256511615765
decision_type=2 2 2 2 2 10 8 2 10
left_child=1 2 4 -4 -1 -3 8 -7 -2
right_child=6 5 3 -5 -6 7 -8 -9 -10
leaf_value=-0.056156624811885748 0.0042674156602060002 0.040975582469682414 0.029421991486029475 -0.017393536273419434 0.006796233486358408 0.0027210865028580167 -0.042995239189897269 -0.011712821996645998 -0.0037690662796810411
leaf_weight=19.705907746218148 0.92950306436978281 44.178002734086476 23.289675073116086 16.099523435346782 7.5334257709328076 0.57409599563106783 35.223082161508501 0.92200547456741333 0.76776595786213853
leaf_count=1185 297 20939 8672 1906 471 252 629 4 15
internal_value=-0.00528213 0.00897188 -0.0133571 0.0106397 -0.0415964 0.0380935 -0.0413109 -0.00862505 0.000517754
internal_weight=149.223 112.303 66.6285 39.3892 27.2393 45.6741 36.9204 1.4961 1.69727
internal_count=34370 33429 12234 10578 1656 21195 941 256 312
is_linear=0
shrinkage=0.05


Tree=64
num_leaves=9
num_cat=0
split_feature=9 0 74 71 5 65 17 86
split_gain=32.6507 23.3122 19.4098 12.4418 11.8908 10.0582 7.18514 3.8022
threshold=90.500000000000014 1.7775287114761585e+18 2.1000000000000045 -25.589834983185074 0.054930213464696245 579.85500000000013 1.5000000000000002 1.0000000180025095e-35
decision_type=2 2 10 2 2 2 2 2
left_child=2 -2 3 -1 7 -5 -6 -4
right_child=1 -3 4 5 6 -7 -8 -9
leaf_value=0.016564723035247798 0.040082639359240384 -0.02716007792582989 0.030729347610075976 0.011477784683285246 -0.038914964815819394 -0.048194682132974086 0.013927240756818471 -0.0097458453050928134
leaf_weight=4.8333962722681454 39.966981321573257 9.5421221852302534 20.692559031420387 4.1323121484601861 7.6943762365262938 52.848445206414908 3.7659989987732843 2.2160153985023525
leaf_count=698 22093 105 7004 1235 313 2132 749 41
internal_value=-0.00527802 0.0247364 -0.0216022 -0.0364976 0.00737573 -0.0427997 -0.0231521 0.0250423
internal_weight=145.692 49.5091 96.1831 61.8142 34.3689 56.9808 11.4604 22.9086
internal_count=34370 22198 12172 4065 8107 3367 1062 7045
is_linear=0
shrinkage=0.05


Tree=65
num_leaves=10
num_cat=0
split_feature=10 0 43 9 69 43 35 7 35
split_gain=30.8488 31.0431 21.2952 14.365 8.9295 4.2635 1.29959 0.273023 0.127543
threshold=98.500000000000014 1.7775162597577879e+18 0.52483124290227667 90.500000000000014 217.39499999999973 0.9864160854215116 -0.88195532073424932 530.50000000000011 -0.89426256511615765
decision_type=2 2 10 2 2 10 8 2 10
left_child=1 2 3 -1 -4 -3 8 -7 -2
right_child=6 5 4 -5 -6 7 -8 -9 -10
leaf_value=-0.045806521785371611 0.0040979358859701666 0.040436336874199855 0.032425597130108008 0.017864115559919531 -0.013040227404500813 -0.011442423893629008 -0.042031243666298568 0.0026414464128101125 -0.0035997006446334442
leaf_weight=30.995485564926639 0.88945412589237094 41.222133110277355 17.930052223382521 5.5268437475897363 10.58452944154851 0.93678146600723156 32.875021151732653 0.5564006413333118 0.732899699360132
leaf_count=2097 297 20939 6661 2262 1214 4 629 252 15
internal_value=-0.00515857 0.00858337 -0.0128372 -0.0344026 0.0165449 0.037446 -0.0403642 -0.00846233 0.000515305
internal_weight=142.25 107.752 65.0369 36.5223 28.5146 42.7153 34.4974 1.49318 1.62235
internal_count=34370 33429 12234 4359 7875 21195 941 256 312
is_linear=0
shrinkage=0.05


Tree=66
num_leaves=10
num_cat=0
split_feature=10 0 54 45 69 43 35 7 50
split_gain=29.3026 29.2846 19.7187 11.3104 10.8321 4.20127 1.26472 0.270995 0.126625
threshold=98.500000000000014 1.7775162597577879e+18 -220.43499999999966 56.250000000000021 130.595 0.9864160854215116 -0.88195532073424932 530.50000000000011 91.894653281613557
decision_type=2 2 2 2 2 10 8 2 2
left_child=1 2 3 -1 -4 -3 8 -7 -2
right_child=6 5 4 -5 -6 7 -8 -9 -10
leaf_value=-0.052700242691929716 0.0040825884181660502 0.040108856571391703 0.028585050853439792 0.0078898034479825008 -0.015717253464208519 -0.01139056853492988 -0.041535308183909776 0.0026348590166060063 -0.0035882200567452418
leaf_weight=19.662586445687342 0.88584125181660034 39.60348331159912 21.972538303118199 7.2480924159754059 15.789815005264243 0.93945163488387951 31.752121937461197 0.55493960273452103 0.73053661733865738
leaf_count=501 297 20939 8672 1155 1906 4 629 252 15
internal_value=-0.00505604 0.00841484 -0.012301 -0.0386647 0.0106484 0.0370415 -0.0398503 -0.00842113 0.000511251
internal_weight=139.139 105.771 64.673 26.9107 37.7624 41.0979 33.3685 1.49439 1.61638
internal_count=34370 33429 12234 1656 10578 21195 941 256 312
is_linear=0
shrinkage=0.05


Tree=67
num_leaves=10
num_cat=0
split_feature=9 0 17 54 56 63 43 8 0
split_gain=28.0461 20.4073 15.6051 14.0639 13.2161 8.48779 3.732 2.4372 0.2605
threshold=90.500000000000014 1.7775287114761585e+18 2.5000000000000004 737.97500000000025 6.3574832899059723 14.036936247886482 0.9864160854215116 98.500000000000014 1.7775272471520745e+18
decision_type=2 2 2 2 2 2 8 2 2
left_child=2 -2 3 4 -1 -5 7 -4 -8
right_child=1 -3 6 5 -6 -7 8 -9 -10
leaf_value=0.015886506751991648 0.039204465603926722 -0.025644761558140224 0.028909250539695439 -0.021357975680092383 -0.047527922334731604 0.026209497487547931 -0.014981313394905063 -0.007189241335218176 0.0018622056004310092
leaf_weight=4.6053171891253433 35.973393490421586 8.7259027361869794 13.405400468152948 7.4917963519692448 50.890020154882222 10.781512610265052 2.0204403251409526 1.6070006042718894 0.38587943860329676
leaf_count=1806 22093 105 4709 159 2786 2466 34 45 167
internal_value=-0.00504692 0.0241711 -0.0203427 -0.0297351 -0.0406433 0.00605107 0.0157719 0.0237157 -0.0129564
internal_weight=135.887 44.6993 91.1874 73.7686 55.4953 18.2733 17.4187 15.0124 2.40632
internal_count=34370 22198 12172 7217 4592 2625 4955 4754 201
is_linear=0
shrinkage=0.05


Tree=68
num_leaves=10
num_cat=0
split_feature=10 0 43 9 67 43 35 3 35
split_gain=26.5872 26.3423 18.2358 11.949 9.62032 4.08403 1.16637 0.263917 0.115908
threshold=98.500000000000014 1.7775162597577879e+18 0.52483124290227667 90.500000000000014 0.61101675021409496 0.9864160854215116 -0.88195532073424932 5.5000000000000009 -0.89426256511615765
decision_type=2 2 10 2 2 10 8 2 10
left_child=1 2 3 -1 -4 -3 8 -7 -2
right_child=6 5 4 -5 -6 7 -8 -9 -10
leaf_value=-0.041533434690370324 0.0039236344116489446 0.03948438289417508 0.03242736571053275 0.017031373148872743 -0.015280468857162064 -0.01127082774271574 -0.040602944110628772 0.0025961254325473629 -0.0034286503749576761
leaf_weight=31.125850702519529 0.84855698887258768 36.769934197305702 17.872098092688251 5.1386454617604604 9.5109285849612188 0.9454129934310902 29.713469490408901 0.5463525562081486 0.69769799709320046
leaf_count=2097 297 20939 5564 2262 2311 4 629 252 15
internal_value=-0.0048927 0.00809687 -0.0114679 -0.0313473 0.0162021 0.0362751 -0.0389386 -0.00835243 0.000509871
internal_weight=133.169 101.909 63.6475 36.2645 27.383 38.2617 31.2597 1.49177 1.54625
internal_count=34370 33429 12234 4359 7875 21195 941 256 312
is_linear=0
shrinkage=0.05


Tree=69
num_leaves=9
num_cat=0
split_feature=9 5 74 4 71 65 28 9
split_gain=25.0555 18.7719 15.8255 12.2063 11.7045 8.65629 3.46855 1.68574
threshold=90.500000000000014 0.0034110766429088246 1.6999999999999942 0.96132203404517125 -25.589834983185074 579.85500000000013 60.035000000000089 1.5000000000000002
decision_type=2 2 10 2 2 2 2 2
left_child=2 -2 4 6 -1 -6 -4 -5
right_child=1 -3 3 7 5 -7 -8 -9
leaf_value=0.016259281362195319 -0.024754145296705058 0.038597220713737654 0.010543046448238474 -0.0048633086710214643 0.010318860996895511 -0.047827809925743425 -0.025899554036067085 0.030319983894355102
leaf_weight=4.6888238160172468 8.263179883360861 33.56542634323705 2.6448010629974332 1.0349239781498933 3.6968783917836836 42.726750573026948 16.162436010316014 17.624414942460135
leaf_count=667 105 22093 696 30 1078 1857 1353 6491
internal_value=-0.00479033 0.0237208 -0.0192943 0.00504829 -0.0350442 -0.0421892 -0.0188939 0.0273525
internal_weight=130.408 41.8286 88.579 37.4666 51.1125 46.4236 18.8072 18.6593
internal_count=34370 22198 12172 8570 3602 2935 2049 6521
is_linear=0
shrinkage=0.05


Tree=70
num_leaves=9
num_cat=0
split_feature=9 0 74 4 59 54 44 0
split_gain=23.3134 18.0958 14.7331 11.5166 8.74653 8.18244 3.36574 2.4689
threshold=90.500000000000014 1.7775287114761585e+18 1.6999999999999942 0.96132203404517125 -23.461222528019565 762.95000000000039 10.455975609756115 1.7775087284394135e+18
decision_type=2 2 10 2 2 2 10 2
left_child=2 -2 4 6 -1 -6 -4 -5
right_child=1 -3 3 7 5 -7 -8 -9
leaf_value=0.013953641073533449 0.038250238957415389 -0.024424509635976605 0.0094879800087210742 -0.0064787577353989604 -0.049125512845827064 -0.00081670521080607055 -0.025661286240507231 0.031340960279400774
leaf_weight=3.7627715665148562 32.29927461524494 8.095195032656191 3.4506948656635386 1.5643671962898249 35.20426388445776 11.298553658300078 15.419598167645743 16.570866367896087
leaf_count=449 22093 105 929 198 1959 1194 1120 6323
internal_value=-0.00462637 0.0233357 -0.0186374 0.00496014 -0.0339503 -0.03961 -0.0181737 0.0269354
internal_weight=127.666 40.3945 87.2711 37.0055 50.2656 46.5028 18.8703 18.1352
internal_count=34370 22198 12172 8570 3602 3153 2049 6521
is_linear=0
shrinkage=0.05


Tree=71
num_leaves=10
num_cat=0
split_feature=7 45 39 5 86 71 73 55 55
split_gain=22.167 21.9968 20.4379 20.061 8.48818 6.58081 6.21876 5.17557 1.31909
threshold=154.50000000000003 368.08500000000316 6.0762594602777904 0.084930213464696286 1.0000000180025095e-35 -18.469553758490878 -0.85000000000000531 0.81302065736334039 0.65176152590626046
decision_type=2 2 10 2 2 2 8 2 2
left_child=1 6 4 7 -2 -5 -1 -4 -8
right_child=2 -3 3 5 -6 -7 8 -9 -10
leaf_value=0.008483093802652478 0.016215009023018784 0.023334781209035507 0.041301852453927118 0.011833284681428455 -0.034530684893833825 -0.036770933170340706 -0.052343727078120628 -0.012939965220576034 0.00044496947605915626
leaf_weight=2.0293591113295406 4.7159654211718616 8.4808990216115472 46.323448453797027 5.3964636910241097 19.205929340794683 7.2433490063995105 30.501589000690732 0.32537941774353285 1.0462893727235485
leaf_count=1057 773 1945 27623 625 485 360 1134 96 272
internal_value=-0.0045161 -0.0303852 0.0104163 0.0251237 -0.0226957 -0.0199588 -0.0461948 0.0387061 -0.0509073
internal_weight=125.269 42.0581 83.2105 59.2886 23.9219 12.6398 33.5772 46.6488 31.5479
internal_count=34370 4408 29962 28704 1258 985 2463 27719 1406
is_linear=0
shrinkage=0.05


Tree=72
num_leaves=10
num_cat=0
split_feature=10 0 5 76 28 43 35 3 35
split_gain=21.6707 22.7933 15.6403 14.0878 11.9981 3.75447 0.981325 0.223551 0.0906042
threshold=98.500000000000014 1.7775162597577879e+18 0.054930213464696245 39.850000000000001 708.85000000000002 0.9864160854215116 -0.88195532073424932 5.5000000000000009 -0.89426256511615765
decision_type=2 2 2 2 2 10 8 2 10
left_child=1 2 3 -1 -4 -3 8 -7 -2
right_child=6 5 4 -5 -6 7 -8 -9 -10
leaf_value=0.032519962556953018 0.0035476792935423248 0.038458630795578125 -0.055968127861916163 -0.016524036869136977 0.0077157036449749822 -0.010536675886166243 -0.038645960744717878 0.0023682421473635823 -0.002988828093899431
leaf_weight=18.288444468867965 0.76129836495965719 32.663854574551806 13.355544574209491 21.345669752336107 7.654519267845898 0.97552180290222057 25.824877257458869 0.49611773900687695 0.60726307332515694
leaf_count=8402 297 20939 774 1829 1229 4 629 252 15
internal_value=-0.00452345 0.0074541 -0.0108851 0.00809891 -0.0377603 0.0351192 -0.0370499 -0.00791414 0.000569496
internal_weight=121.973 94.7797 60.6442 39.6341 21.0101 34.1355 27.1934 1.47164 1.36856
internal_count=34370 33429 12234 10231 2003 21195 941 256 312
is_linear=0
shrinkage=0.05


Tree=73
num_leaves=9
num_cat=0
split_feature=9 0 74 71 5 65 17 86
split_gain=20.1481 15.6807 12.6873 9.85287 9.52588 8.67712 5.74291 2.75754
threshold=90.500000000000014 1.7775287114761585e+18 2.1000000000000045 -25.589834983185074 0.048934595944822259 579.85500000000013 1.5000000000000002 1.0000000180025095e-35
decision_type=2 2 10 2 2 2 2 2
left_child=2 -2 3 -1 7 -5 -6 -4
right_child=1 -3 4 5 6 -7 -8 -9
leaf_value=0.015955521083381743 0.037253154879032656 -0.022911012408686246 0.029713585083252655 0.011659943602150443 -0.032994115068283557 -0.042957944581026059 0.013461036475025938 -0.0077311059761168352
leaf_weight=4.5681339441798618 29.032646426581778 7.3470131680369368 16.741340818582106 4.1352978366194284 8.5247042970731837 43.908287167665549 3.610822395887225 1.716011151671412
leaf_count=698 22093 105 6537 1235 448 2132 1081 41
internal_value=-0.00452112 0.0227827 -0.0176227 -0.0306417 0.00679954 -0.0370579 -0.019335 0.0247389
internal_weight=119.584 36.3797 83.2046 52.6117 30.5929 48.0436 12.1355 18.4574
internal_count=34370 22198 12172 4065 8107 3367 1529 6578
is_linear=0
shrinkage=0.05


Tree=74
num_leaves=10
num_cat=0
split_feature=10 0 43 57 67 43 35 7 35
split_gain=19.7341 20.8816 14.8112 9.1556 8.50373 3.61169 0.905711 0.211831 0.0834609
threshold=98.500000000000014 1.7775162597577879e+18 0.52483124290227667 939.51500000000021 0.61101675021409496 0.9864160854215116 -0.88195532073424932 530.50000000000011 -0.89426256511615765
decision_type=2 2 10 2 2 10 8 2 10
left_child=1 2 3 -1 -4 -3 8 -7 -2
right_child=6 5 4 -5 -6 7 -8 -9 -10
leaf_value=-0.036997950333946393 0.0034158526368347785 0.037876077747368564 0.031335308372306914 0.01557918414696568 -0.014889422056914218 -0.0102909569607767 -0.037751675649274272 0.002302870304803562 -0.0028668107333679853
leaf_weight=30.361163009307347 0.73103438271209598 30.657807680312544 16.256475148256872 4.461756767705082 8.4945334726944548 0.98303258419036754 24.220610648393635 0.48179218103177845 0.58220084756612756
leaf_count=3400 297 20939 5564 959 2311 4 629 252 15
internal_value=-0.00436289 0.00718288 -0.0103573 -0.0282886 0.0157515 0.0344487 -0.0361787 -0.00775308 0.000558502
internal_weight=117.23 91.6966 59.5739 34.8229 24.751 32.1226 25.5338 1.46482 1.31324
internal_count=34370 33429 12234 4359 7875 21195 941 256 312
is_linear=0
shrinkage=0.05


Tree=75
num_leaves=10
num_cat=0
split_feature=10 0 54 28 69 43 35 3 35
split_gain=18.809 19.6958 14.0552 9.83717 8.31342 3.55134 0.88169 0.210313 0.0829644
threshold=98.500000000000014 1.7775162597577879e+18 -220.43499999999966 761.95999999999879 130.595 0.9864160854215116 -0.88195532073424932 5.5000000000000009 -0.89426256511615765
decision_type=2 2 2 2 2 10 8 2 10
left_child=1 2 3 -1 -4 -3 8 -7 -2
right_child=6 5 4 -5 -6 7 -8 -9 -10
leaf_value=-0.049360733685400476 0.0034050239603929718 0.037516959081372751 0.026855334513936697 0.0045795620869196751 -0.013485540020762063 -0.010243666268984947 -0.037284444398556445 0.0022978257911392352 -0.0028593488707578866
leaf_weight=15.137321969959887 0.72855563601478934 29.528117852052677 19.407140145543963 10.372850576299241 14.369237646809777 0.98432552814483532 23.443019418045882 0.48068840429186821 0.58066863566637017
leaf_count=999 297 20939 8672 657 1906 4 629 252 15
internal_value=-0.00425876 0.00706171 -0.00990656 -0.0323146 0.0105332 0.0340188 -0.0356992 -0.00771364 0.000555048
internal_weight=115.032 90.2797 59.2866 25.5102 33.7764 30.9931 24.7522 1.46501 1.30922
internal_count=34370 33429 12234 1656 10578 21195 941 256 312
is_linear=0
shrinkage=0.05


Tree=76
num_leaves=8
num_cat=0
split_feature=10 9 4 0 47 35 35
split_gain=17.8138 18.8688 22.5251 8.39331 3.42825 0.858202 0.0824722
threshold=98.500000000000014 90.500000000000014 0.96132203404517125 1.7775197477569226e+18 -27.000668028353029 -0.88195532073424932 -0.89426256511615765
decision_type=2 2 2 2 10 8 10
left_child=1 2 3 -1 -4 6 -2
right_child=5 -3 4 -5 -6 -7 -8
leaf_value=-0.034300547003503497 0.0033942610954700984 0.036076159357376326 -0.0081839761893579693 0.015352331334532485 0.032544889488244313 -0.036820004931886315 -0.0028519242468960679
leaf_weight=38.367348302621394 0.72609302075579762 25.767541625944432 2.1094085042132091 4.328006661264225 18.304957131389529 22.696904166135941 0.57914407923817612
leaf_count=2857 297 21781 300 1148 7343 629 15
internal_value=-0.00426669 0.00681022 -0.00843909 -0.027309 0.0270293 -0.0352232 0.000551624
internal_weight=112.879 88.8773 63.1097 42.6954 20.4144 24.0021 1.30524
internal_count=34370 33429 11648 4005 7643 941 312
is_linear=0
shrinkage=0.05


Tree=77
num_leaves=10
num_cat=0
split_feature=7 45 38 5 86 71 55 73 57
split_gain=17.4789 18.2394 15.2196 17.3131 7.06749 6.03616 5.05937 5.02626 1.14185
threshold=154.50000000000003 368.08500000000316 93.892362324769536 0.084930213464696286 1.0000000180025095e-35 -23.72739941196085 0.81302065736334039 -0.85000000000000531 659.18499999999938
decision_type=2 2 8 2 2 2 2 8 2
left_child=1 7 3 6 -4 -5 -2 -1 -9
right_child=2 -3 4 5 -6 -7 -8 8 -10
leaf_value=0.0076436209594687582 0.040166620240819906 0.022049144459387181 0.015264173180717192 0.014373212697326858 -0.032162166433943984 -0.032191238572878388 -0.013084851277520931 -0.049380052988980849 -0.00051435450647929358
leaf_weight=1.7899337581475263 39.888944979407825 7.6475358377210787 4.3215016957838115 3.8474767094012341 16.124960733577609 8.9577368348836881 0.3014272334985425 26.535658423788853 1.4550641747191537
leaf_count=1057 27612 1945 784 514 485 471 96 1068 338
internal_value=-0.00409188 -0.0280591 0.0100214 0.0231419 -0.0204171 -0.0180327 0.0372398 -0.0432348 -0.0476439
internal_weight=110.87 37.4282 73.442 52.9956 20.4465 12.8052 40.1904 29.7807 27.9907
internal_count=34370 4408 29962 28693 1269 985 27708 2463 1406
is_linear=0
shrinkage=0.05


Tree=78
num_leaves=11
num_cat=0
split_feature=7 45 39 5 86 71 55 54 74 34
split_gain=16.2054 17.3474 14.3459 16.5841 6.80833 5.75741 5.00983 2.10202 1.44041 0.168523
threshold=154.50000000000003 368.08500000000316 6.0762594602777904 0.084930213464696286 1.0000000180025095e-35 -23.72739941196085 0.81302065736334039 216.45499999999993 -10.199999999999992 92.430747917371477
decision_type=2 2 10 2 2 2 2 2 8 8
left_child=1 7 4 6 -2 -5 -4 8 -1 -9
right_child=2 -3 3 5 -6 -7 -8 9 -10 -11
leaf_value=0.0025394413703672871 0.015041013104402746 0.021775613274055083 0.039840715720775646 0.014227943304443803 -0.031756193434581872 -0.031162398358434901 -0.013060641503881136 0.0051943759162688258 -0.046237569858992827 -0.0037014968659780977
leaf_weight=0.52893913781736046 4.2323024910874674 7.4861327641410744 38.357500684098341 3.7958305600332087 15.654357427731156 9.1168622359400597 0.30532600986771186 1.1546227950602759 26.777072598168168 0.77656606212258328
leaf_count=273 773 1945 27623 514 485 471 96 660 1500 30
internal_value=-0.00408659 -0.0272866 0.00972164 0.0226155 -0.0200965 -0.0174332 0.0368249 -0.042197 -0.0448653 0.001513
internal_weight=108.186 36.7233 71.4622 51.5755 19.8867 12.9127 38.6628 29.2372 27.306 1.93119
internal_count=34370 4408 29962 28704 1258 985 27719 2463 1773 690
is_linear=0
shrinkage=0.05


Tree=79
num_leaves=10
num_cat=0
split_feature=54 7 45 5 11 49 4 50 9
split_gain=15.5649 14.5547 14.5321 12.1643 5.26323 4.74206 4.73018 3.06587 2.0219
threshold=1169.380000000001 502.50000000000006 368.08500000000316 0.054930213464696245 0.14500000000000005 111922.81500000056 0.17871485943775103 91.894653281613557 4.5000000000000009
decision_type=2 2 2 2 2 2 2 2 2
left_child=1 2 4 5 -1 -3 -5 -4 -2
right_child=8 3 7 6 -6 -7 -8 -9 -10
leaf_value=-0.0040992874875626526 -0.0053965173714623574 0.034019593585649675 0.023695924603976806 0.0090674196645511868 -0.046681376332407716 -0.010547198556939981 -0.037945573768294327 -0.01090751515001737 0.03202742517550617
leaf_weight=11.231669269793199 1.170509442687037 20.897023908677518 8.7090342820738424 3.4469421933172253 32.654206559585873 2.5065665431320658 4.8193060799967498 2.6812722925096741 17.571927569864783
leaf_count=3101 42 12239 2387 642 2448 55 202 91 13163
internal_value=-0.00407657 -0.0133516 -0.0271644 0.0114903 -0.0385665 0.0275178 -0.0241099 0.0142591 0.0286258
internal_weight=105.688 86.946 55.2762 31.6698 43.8859 23.4036 8.26625 11.3903 18.7424
internal_count=34370 21165 8027 13138 5549 12294 844 2478 13205
is_linear=0
shrinkage=0.05


Tree=80
num_leaves=9
num_cat=0
split_feature=54 7 45 5 8 49 50 9
split_gain=14.7982 13.4322 13.635 11.707 4.96419 4.21049 2.98701 1.98098
